nct_id,emb_0,emb_1,emb_2,emb_3,emb_4,emb_5,emb_6,emb_7,emb_8,emb_9,emb_10,emb_11,emb_12,emb_13,emb_14,emb_15,emb_16,emb_17,emb_18,emb_19,emb_20,emb_21,emb_22,emb_23,emb_24,emb_25,emb_26,emb_27,emb_28,emb_29,emb_30,emb_31,emb_32,emb_33,emb_34,emb_35,emb_36,emb_37,emb_38,emb_39,emb_40,emb_41,emb_42,emb_43,emb_44,emb_45,emb_46,emb_47,emb_48,emb_49,emb_50,emb_51,emb_52,emb_53,emb_54,emb_55,emb_56,emb_57,emb_58,emb_59,emb_60,emb_61,emb_62,emb_63,emb_64,emb_65,emb_66,emb_67,emb_68,emb_69,emb_70,emb_71,emb_72,emb_73,emb_74,emb_75,emb_76,emb_77,emb_78,emb_79,emb_80,emb_81,emb_82,emb_83,emb_84,emb_85,emb_86,emb_87,emb_88,emb_89,emb_90,emb_91,emb_92,emb_93,emb_94,emb_95,emb_96,emb_97,emb_98,emb_99,emb_100,emb_101,emb_102,emb_103,emb_104,emb_105,emb_106,emb_107,emb_108,emb_109,emb_110,emb_111,emb_112,emb_113,emb_114,emb_115,emb_116,emb_117,emb_118,emb_119,emb_120,emb_121,emb_122,emb_123,emb_124,emb_125,emb_126,emb_127
NCT03059992,0.25055453181266785,-0.060644716024398804,0.1300450712442398,0.00446278927847743,-0.3530605435371399,-0.11207260936498642,-0.05368509888648987,-0.1182958111166954,-0.11745166778564453,0.13845178484916687,-0.06206733360886574,-0.04643554985523224,-0.013169089332222939,0.14545482397079468,-0.21346287429332733,0.20543967187404633,0.12581594288349152,-0.03579135984182358,-0.2312246561050415,0.2297152727842331,-0.23829156160354614,-0.09801802039146423,-0.12654857337474823,0.1473536491394043,-0.01558736152946949,-0.06750097125768661,0.3345566391944885,-0.253436416387558,-0.15695267915725708,-0.16392339766025543,-0.06159135699272156,0.0005626662750728428,0.16602614521980286,0.014163625426590443,0.07335210591554642,-0.06008495017886162,-0.0010939397616311908,0.222599059343338,0.21784009039402008,-0.10415587574243546,-0.09789392352104187,0.18567773699760437,-0.02448887564241886,0.2985866069793701,-0.004073471762239933,-0.05682359263300896,0.07944756746292114,0.0966857522726059,0.18015028536319733,-0.18468163907527924,0.18005234003067017,0.005543156526982784,0.24262256920337677,-0.0892295092344284,-0.03999042883515358,0.0933072566986084,-0.19115887582302094,-0.027634071186184883,0.03150947019457817,-0.18253058195114136,0.11965096741914749,0.017594579607248306,0.08910584449768066,0.22640979290008545,-0.09323996305465698,0.17141172289848328,0.06704607605934143,-0.1759529560804367,0.0041311681270599365,0.170358806848526,0.04991532117128372,-0.08927999436855316,-0.03590459004044533,-0.03211519122123718,-0.09081616997718811,0.2937532365322113,0.23183418810367584,0.2015332728624344,0.22961395978927612,0.06071273982524872,-0.17493665218353271,0.047234710305929184,0.006067295093089342,-0.050966158509254456,-0.17589838802814484,0.019496306777000427,0.03359369561076164,0.0345788300037384,0.21955864131450653,-0.1082533672451973,-0.03851122781634331,-0.04191190004348755,0.031277939677238464,0.005105188116431236,-0.11144715547561646,0.06447864323854446,-0.08977803587913513,0.006084416061639786,0.06434081494808197,0.0020279602613300085,-0.12009165436029434,0.13939064741134644,0.108640156686306,-0.10563705861568451,-0.09947934001684189,-0.06334114074707031,-0.02134913206100464,0.09846359491348267,0.2727232575416565,-0.05407460033893585,0.12586231529712677,0.3061288893222809,0.07248934358358383,-0.013096851296722889,0.18561787903308868,0.0638277679681778,-0.28450000286102295,-0.339337557554245,-0.10429924726486206,-0.09516426175832748,-0.10113809257745743,-0.23501195013523102,0.06277494877576828,-0.03234970197081566,0.28928127884864807,0.22883591055870056,0.0648147463798523,0.11214534938335419
NCT03257033,0.15699540078639984,-0.08484084159135818,0.012297268025577068,0.007638732437044382,-0.08432190865278244,-0.10520535707473755,-0.10675031691789627,0.07449629157781601,-0.2574465274810791,0.03778041526675224,-0.10001424700021744,-0.13473890721797943,-0.12511472404003143,-0.028932303190231323,-0.16423647105693817,-0.006627686321735382,0.023231813684105873,-0.01581006497144699,0.005638470407575369,0.24208511412143707,-0.09462114423513412,-0.1400175839662552,-0.058406174182891846,-0.07085207849740982,-0.14612747728824615,-0.11753461509943008,0.2175169438123703,-0.04466890171170235,-0.1712430715560913,-0.16002309322357178,-0.031209999695420265,0.04689927026629448,0.24799060821533203,0.0818420872092247,0.001556436181999743,0.020571641623973846,0.08375855535268784,0.013658764772117138,0.07577657699584961,0.09814833849668503,-0.05376283451914787,0.1430312991142273,-0.021422922611236572,0.28012266755104065,0.1328323483467102,0.011776924133300781,-0.22549386322498322,0.14107190072536469,0.16644474864006042,-0.17894791066646576,-0.08644690364599228,-0.018386060371994972,0.2441905289888382,-0.026931138709187508,-0.10730013996362686,0.09607440233230591,-0.10853374004364014,-0.15709121525287628,0.2120852917432785,-0.21583616733551025,0.22361129522323608,0.08742579817771912,0.18056054413318634,0.0015212023863568902,-0.07440023869276047,0.15290673077106476,0.12207325547933578,-0.09079211205244064,-0.17458640038967133,-0.02365800179541111,0.12368088215589523,-0.11982989311218262,0.0772082507610321,-0.18583638966083527,0.05518155172467232,0.1796148270368576,0.16143831610679626,0.019027849659323692,0.12330708652734756,-0.16575635969638824,-0.1920480877161026,-0.0328734815120697,0.028740262612700462,0.03984668105840683,0.04096628352999687,-0.08530112355947495,0.1966761350631714,0.14597810804843903,0.15074363350868225,-0.12496005743741989,-0.002459802431985736,-0.17420165240764618,-0.018329771235585213,0.08695370703935623,-0.17694513499736786,0.07601296156644821,-0.19088764488697052,0.07230925559997559,0.11403223127126694,-0.1013246551156044,-0.14721673727035522,0.23354054987430573,0.00989540759474039,-0.0018676606705412269,0.02133098430931568,-0.11569859832525253,-0.1408299207687378,0.042236026376485825,0.14620567858219147,0.054612647742033005,0.18703162670135498,0.18001872301101685,-0.17341800034046173,0.034008074551820755,0.08028770238161087,0.08787483721971512,-0.12864704430103302,-0.252973735332489,-0.008639070205390453,0.0960034653544426,-0.13163404166698456,-0.2715040147304535,0.14392615854740143,-0.24030788242816925,0.180644229054451,0.15630114078521729,0.165337935090065,-0.05779923126101494
NCT03363841,0.1256953328847885,-0.1100226491689682,-0.05577452480792999,-0.07015537470579147,-0.1742301881313324,-0.11396421492099762,-0.1093011200428009,-0.07883267849683762,-0.180160790681839,0.05640679970383644,-0.16335609555244446,-0.1484629511833191,-0.08264070749282837,0.12799423933029175,-0.26036888360977173,0.12304798513650894,0.02256571315228939,0.01419169269502163,0.07318379729986191,0.1975376456975937,-0.04805569350719452,-0.05491122603416443,-0.1371162086725235,0.04923424869775772,-0.12013466656208038,-0.14757215976715088,0.3274211883544922,-0.3139370083808899,-0.13622820377349854,-0.16192637383937836,-0.09421435743570328,-0.006491433829069138,0.20074722170829773,0.055359791964292526,-0.1451764851808548,-0.05876566469669342,-0.03857358172535896,0.08860862255096436,0.10675472766160965,-0.09353580325841904,0.0034237727522850037,0.13166815042495728,0.005611605942249298,0.22261881828308105,0.006858278065919876,0.018135664984583855,-0.09985898435115814,-0.06076310947537422,0.17038372159004211,-0.1577473282814026,0.13530924916267395,0.21366071701049805,0.125259667634964,-0.003933530300855637,-0.11008813977241516,-0.04391571506857872,-0.21586665511131287,-0.1356905698776245,0.004002168774604797,-0.12600058317184448,0.2910947799682617,0.1348748505115509,0.19659584760665894,0.14681679010391235,-0.13071194291114807,0.09248749911785126,0.11043176054954529,-0.26237228512763977,0.0008448716253042221,0.012060217559337616,0.11014500260353088,-0.07063332200050354,-0.010564904659986496,-0.017446942627429962,-0.12007717043161392,0.305491179227829,0.24783998727798462,0.25474363565444946,0.17023047804832458,0.020593512803316116,-0.10736066848039627,0.06103699654340744,-0.046710699796676636,0.031159518286585808,0.11931658536195755,-0.15229812264442444,0.1395578533411026,-0.10339371860027313,0.2254532128572464,-0.01133841834962368,0.04423925280570984,-0.21094974875450134,0.04576263949275017,0.06259769201278687,-0.12090259790420532,0.02426912821829319,-0.2355835735797882,-0.06663887947797775,0.20390333235263824,-0.08122909069061279,-0.2244352251291275,0.02505308948457241,-0.12169234454631805,-0.054960351437330246,-0.0609782338142395,0.0071639977395534515,0.09485751390457153,0.014234641566872597,0.05779050663113594,-0.18051914870738983,0.191908597946167,0.27085286378860474,0.05593037232756615,0.01348537765443325,0.10706327855587006,0.052224159240722656,-0.0718868151307106,-0.13032998144626617,-0.0844619944691658,0.11862193048000336,-0.025730688124895096,-0.16390350461006165,0.08292725682258606,-0.12630870938301086,0.2811371088027954,0.2697683274745941,0.15171614289283752,-0.077541284263134
NCT03417102,0.12830933928489685,-0.06575466692447662,0.014805199578404427,0.16117984056472778,-0.13848213851451874,-0.22821716964244843,0.062183987349271774,-0.06423671543598175,-0.08317741751670837,0.12966664135456085,-0.04421338438987732,-0.04537346959114075,-0.05662323161959648,0.02082224003970623,-0.39377838373184204,0.11071060597896576,0.06547681242227554,-0.110679492354393,-0.03169780224561691,0.09445029497146606,-0.1408415138721466,-0.20447935163974762,-0.08330509066581726,0.029040316119790077,-0.14294373989105225,-0.09768858551979065,0.06725554913282394,-0.24902594089508057,-0.050854142755270004,-0.10319296270608902,0.03318281099200249,0.03677279129624367,0.10513966530561447,0.06329061836004257,-0.060412418097257614,0.005542430095374584,0.1874609738588333,0.13894721865653992,0.06833316385746002,-0.060806870460510254,-0.10853307694196701,0.05123262107372284,0.040024932473897934,0.13772599399089813,0.15691903233528137,-0.05470249056816101,-0.10188134759664536,-0.10551907122135162,0.1673344224691391,-0.2673027813434601,0.04342856630682945,-0.056399039924144745,0.11113394051790237,-0.13097675144672394,-0.029155703261494637,0.18738578259944916,-0.25035524368286133,-0.053001828491687775,0.034607451409101486,-0.1501653641462326,0.16668780148029327,0.0975724384188652,0.16359290480613708,0.0571984127163887,0.08220774680376053,0.04042307659983635,0.25112220644950867,-0.25745850801467896,-0.06299294531345367,-0.13474634289741516,0.08812258392572403,-0.10644242912530899,-0.01651465706527233,-0.1243714913725853,0.03658086434006691,0.15556079149246216,0.25417816638946533,0.0654611736536026,0.07671080529689789,-0.11382590234279633,-0.17601177096366882,0.0056767030619084835,0.06469837576150894,0.003772244555875659,0.021556692197918892,-0.010325034148991108,0.18242162466049194,-0.02534942701458931,0.2819693088531494,0.1201438456773758,0.07622919976711273,-0.12975028157234192,0.04161583259701729,0.0012372792698442936,-0.18099810183048248,-0.003950130194425583,-0.23002685606479645,-0.04846455901861191,0.04204520583152771,-0.1127861812710762,-0.13007891178131104,0.002581218956038356,-0.039802636951208115,-0.04188757762312889,-0.0764310210943222,-0.01436202134937048,-0.32760196924209595,0.020128309726715088,0.2698916792869568,-0.14005155861377716,0.04606056958436966,0.2689700722694397,0.13028666377067566,0.1255914866924286,0.051075153052806854,0.22755059599876404,0.07636300474405289,-0.11476586759090424,-0.021465327590703964,0.051965657621622086,-0.13505995273590088,-0.12875886261463165,0.1543540507555008,-0.28073060512542725,0.10081960260868073,0.09727584570646286,0.14533984661102295,0.08311323821544647
NCT03425279,0.20083148777484894,-0.0037441353779286146,-0.052533432841300964,-0.034670908004045486,-0.2277797907590866,-0.13741318881511688,-0.1283104568719864,-0.038808222860097885,-0.18720011413097382,0.05348912253975868,-0.11262035369873047,-0.17175345122814178,-0.12118839472532272,-0.039807576686143875,-0.16050757467746735,0.09423141926527023,0.017819851636886597,0.07113617658615112,-0.026138504967093468,0.30798017978668213,-0.01215514075011015,-0.08521037548780441,-0.02444637380540371,-0.04324459657073021,-0.13862693309783936,-0.09999647736549377,0.18099160492420197,-0.1278296262025833,-0.18998287618160248,-0.16082267463207245,-0.06862291693687439,0.023807920515537262,0.25542548298835754,0.028806382790207863,-0.002830586163327098,0.03721025586128235,0.10153087228536606,0.05608218535780907,0.14827100932598114,-0.012969642877578735,-0.10121572017669678,0.16527783870697021,-0.042906373739242554,0.33724597096443176,0.07331563532352448,-0.04441334307193756,-0.1729455590248108,0.07802504301071167,0.19812224805355072,-0.2980464696884155,-0.08877953886985779,-0.0655408650636673,0.2668816149234772,-0.06738466769456863,-0.11182097345590591,0.11508214473724365,-0.15389521420001984,-0.11956670135259628,0.21754653751850128,-0.23772375285625458,0.2577058970928192,0.0990515723824501,0.11731195449829102,0.0636105015873909,0.017448462545871735,0.16502191126346588,0.12447109073400497,-0.11512324213981628,-0.14684396982192993,0.043148864060640335,0.07142353802919388,-0.0896981880068779,0.049790158867836,-0.17495715618133545,0.04190364107489586,0.2619576156139374,0.1346691995859146,0.12380065768957138,0.12575626373291016,-0.28636524081230164,-0.3000182807445526,0.005872661713510752,-0.006311334669589996,-0.06067461892962456,0.0818665400147438,-0.11630749702453613,0.22295384109020233,0.15407295525074005,0.28743788599967957,-0.11412837356328964,-0.015306603163480759,-0.15023577213287354,-0.08424591273069382,0.16248337924480438,-0.13837726414203644,0.047049861401319504,-0.21209250390529633,0.014438214711844921,0.1150135025382042,-0.05628422275185585,-0.16697309911251068,0.20979054272174835,-0.06533151119947433,-0.060835015028715134,0.06765798479318619,-0.03279471397399902,-0.1485833376646042,0.048543691635131836,0.07459118962287903,0.0029325708746910095,0.08504188060760498,0.1638990044593811,-0.1402387171983719,0.005435572937130928,0.052904944866895676,0.14360369741916656,-0.2064262479543686,-0.19170694053173065,-0.051143448799848557,0.04457881674170494,-0.11161398887634277,-0.30777668952941895,0.08488265424966812,-0.24915887415409088,0.15968817472457886,0.2213282585144043,0.17671418190002441,-0.14690929651260376
NCT03464019,0.010093813762068748,-0.146437868475914,-0.11973799020051956,-0.14101815223693848,-0.09564010798931122,-0.0952160507440567,0.03625674545764923,-0.0973752811551094,-0.2317619025707245,0.11867333203554153,-0.015438429079949856,-0.18139377236366272,0.045806966722011566,0.006307779811322689,-0.21822398900985718,0.05576545372605324,0.08304453641176224,0.11441569775342941,0.17737635970115662,0.19694550335407257,-0.02252424694597721,-0.10933128744363785,-0.25180068612098694,0.03214003145694733,-0.06207090988755226,-0.12386170029640198,0.24655668437480927,-0.16770106554031372,-0.11428647488355637,-0.07941485941410065,0.021649718284606934,-0.11803682148456573,0.17361384630203247,0.03951258957386017,-0.17188872396945953,0.01306472159922123,0.016765020787715912,0.13479508459568024,-0.07422371208667755,-0.12529312074184418,0.018225377425551414,0.1706034243106842,0.039829377084970474,0.253187358379364,0.010536408983170986,-0.1701086312532425,-0.1937864124774933,-0.02826303243637085,0.1811285763978958,-0.12252532690763474,-0.01895006373524666,0.24276956915855408,0.2503044307231903,-0.03323174640536308,-0.24456235766410828,-0.00568447494879365,-0.17066620290279388,-0.05099711939692497,0.031760893762111664,-0.13039852678775787,0.3701920807361603,0.11928699910640717,0.1395869106054306,0.2204999327659607,-0.1633838564157486,0.06654179096221924,0.15726372599601746,-0.1723838597536087,-0.1116282045841217,-0.04766637086868286,0.14133760333061218,-0.040848247706890106,-0.13327713310718536,-0.17246177792549133,0.12253966927528381,0.13686195015907288,0.1055440902709961,0.2917630076408386,0.13494016230106354,-0.209623783826828,-0.2395540177822113,-0.017131609842181206,0.10121910274028778,-0.09431910514831543,0.22183378040790558,-0.09528708457946777,0.11969178169965744,0.05542455241084099,0.23587553203105927,0.03824282065033913,0.03289607912302017,-0.18753352761268616,0.21388497948646545,0.06039200723171234,-0.07044720649719238,-0.03309647738933563,-0.27439799904823303,0.04925805330276489,0.18240076303482056,-0.09839038550853729,-0.11141052842140198,0.01310819387435913,-0.06517507880926132,-0.05224312096834183,0.11426879465579987,0.023036658763885498,-0.08903802186250687,-0.09271680563688278,0.1639702171087265,-0.125923290848732,0.16195009648799896,0.2093302607536316,0.0757460668683052,-0.0019148054998368025,0.08301077783107758,0.011692493222653866,-0.13368047773838043,-0.08672983944416046,-0.07502196729183197,0.18252021074295044,0.019215993583202362,-0.31282445788383484,0.12258037179708481,-0.1963815838098526,0.26889660954475403,0.12065289914608002,0.26834601163864136,-0.06049835681915283
NCT03504488,0.1530480980873108,-0.08212634921073914,-0.08946429938077927,-0.014997581019997597,-0.1392715871334076,-0.16217437386512756,-0.1377614140510559,-0.013110196217894554,-0.20406799018383026,0.046631861478090286,-0.11627669632434845,-0.1922934353351593,-0.10299933701753616,0.01586132124066353,-0.12971055507659912,-0.02436891756951809,0.032328587025403976,0.04674578458070755,-0.001301683485507965,0.24463386833667755,-0.048169516026973724,-0.09719488024711609,-0.05523034930229187,-0.07768163084983826,-0.20203272998332977,-0.14384520053863525,0.20855951309204102,-0.16568195819854736,-0.15959955751895905,-0.15052206814289093,-0.10175581276416779,-0.005295785143971443,0.3124881386756897,0.058459360152482986,-0.049600712954998016,0.0808509960770607,0.055563535541296005,0.05490487068891525,0.09904079139232635,0.05958591401576996,-0.026974905282258987,0.20369699597358704,0.02272927016019821,0.30128341913223267,0.11222103238105774,-0.018841007724404335,-0.2707289755344391,0.04079706221818924,0.22514314949512482,-0.19354338943958282,-0.08764507621526718,0.0910966694355011,0.2365148663520813,0.009256696328520775,-0.18493452668190002,0.09051729738712311,-0.1484147012233734,-0.16300955414772034,0.20881234109401703,-0.20644958317279816,0.2916942834854126,0.10218894481658936,0.1985807716846466,0.03786224499344826,-0.0243364367634058,0.11302299052476883,0.15013374388217926,-0.10377059131860733,-0.15293769538402557,0.018428348004817963,0.07509373873472214,-0.08366060256958008,0.09395738691091537,-0.2171037793159485,0.07318662106990814,0.18989938497543335,0.13617673516273499,0.18012870848178864,0.14782889187335968,-0.2434232234954834,-0.1837155818939209,-0.0321325920522213,-0.08673151582479477,-0.014304236508905888,0.12522831559181213,-0.09705094993114471,0.2928079664707184,0.10432703793048859,0.2596225142478943,-0.08357128500938416,-0.08103162050247192,-0.11582887917757034,-0.00758805125951767,0.13188385963439941,-0.1501094400882721,0.06201447173953056,-0.15569135546684265,0.039750836789608,0.1091838926076889,-0.1361011266708374,-0.2024078071117401,0.1343788206577301,-0.01574144884943962,-0.039823926985263824,0.013620905578136444,-0.02314271405339241,-0.1407601237297058,0.050297051668167114,0.12140993028879166,-0.08671148121356964,0.15310226380825043,0.24564051628112793,-0.11286014318466187,0.04059416800737381,0.062329985201358795,0.0954231470823288,-0.1251078099012375,-0.22797372937202454,-0.02219576947391033,0.06816944479942322,-0.07958162575960159,-0.31091588735580444,0.11150431632995605,-0.2963414192199707,0.17247675359249115,0.2120257169008255,0.18219995498657227,-0.16466809809207916
NCT04003467,0.14949752390384674,-0.10856495797634125,-0.04788584262132645,0.07100436836481094,-0.14772573113441467,-0.037765391170978546,-0.23455481231212616,-0.14492987096309662,-0.11277385801076889,0.09749680757522583,0.03948762267827988,0.018277382478117943,0.019264187663793564,0.20595470070838928,-0.33398857712745667,-0.11433686316013336,-0.039028350263834,-0.06779657304286957,0.0212626401335001,0.29929277300834656,-0.20747363567352295,0.11981852352619171,-0.15950191020965576,-0.1683129072189331,-0.16706641018390656,-0.07261209189891815,0.12175436317920685,-0.31522661447525024,-0.047508664429187775,-0.002130746841430664,-0.2059067040681839,-0.18469734489917755,0.007318594958633184,-0.11490075290203094,-0.22592215240001678,0.013863176107406616,0.2798290550708771,0.3052801489830017,-0.010184238664805889,-0.16099587082862854,-0.18058428168296814,0.1833982765674591,-0.03011905588209629,0.21898221969604492,0.06393886357545853,-0.1371053010225296,-0.09712152183055878,0.04319704696536064,0.035718511790037155,-0.40648236870765686,-0.015034670010209084,-0.0884757786989212,0.3569188416004181,-0.220546692609787,0.053514264523983,-0.016482502222061157,-0.20915952324867249,-0.033216387033462524,0.10167895257472992,-0.06380169093608856,0.16898560523986816,0.049431826919317245,0.10590846836566925,0.26284533739089966,0.11951994895935059,0.09733285009860992,0.06037461757659912,-0.19377605617046356,-0.16188423335552216,0.15274959802627563,-0.08547724783420563,-0.06303851306438446,0.07510632276535034,0.00445079430937767,-0.00157414679415524,0.21193842589855194,0.25198784470558167,0.24239690601825714,0.021569106727838516,-0.2562887370586395,-0.2387722283601761,0.13011501729488373,0.00791630707681179,0.040641654282808304,0.01611056551337242,-0.08567097038030624,0.12436659634113312,-0.0632772147655487,0.31121116876602173,-0.06839235126972198,0.08367227017879486,-0.2948019504547119,-0.09438329935073853,0.23280668258666992,-0.2573325037956238,0.09518715739250183,0.07856880128383636,-0.07043607532978058,0.10959925502538681,-0.029261644929647446,-0.062297165393829346,0.1150074377655983,-0.11834599822759628,-0.07574011385440826,-0.015299645252525806,0.002527806209400296,-0.09284341335296631,-0.08032269775867462,0.051118720322847366,-0.15042459964752197,0.02043827809393406,0.28060874342918396,0.03462735563516617,-0.04096948355436325,0.05310792848467827,0.16217093169689178,0.08275584876537323,0.042994629591703415,0.036439646035432816,-0.11170263588428497,-0.011407441459596157,-0.32768234610557556,-0.04245545342564583,-0.10438935458660126,0.08477263152599335,0.1699053943157196,0.10225951671600342,-0.023950323462486267
NCT04153149,0.17329168319702148,-0.0567447692155838,-0.08296983689069748,-0.05462964251637459,-0.20126678049564362,-0.08789705485105515,0.01291726902127266,-0.052136000245809555,-0.2284885197877884,0.15125757455825806,-0.03461550176143646,-0.246504545211792,-0.011686797253787518,-0.014101266860961914,-0.28673315048217773,0.2393827587366104,0.09351075440645218,0.029161741957068443,0.12528105080127716,0.2500508427619934,0.023729996755719185,-0.11447063833475113,-0.27174827456474304,0.15068690478801727,-0.05971258878707886,-0.018090354278683662,0.24806714057922363,-0.251932829618454,-0.126321479678154,-0.15992756187915802,0.0034010435920208693,-0.02784380130469799,0.08740904927253723,-0.042693089693784714,-0.0394861213862896,-0.07284525036811829,-0.03948192298412323,0.11816969513893127,0.010472278110682964,-0.15901434421539307,-0.10063794255256653,0.08247257024049759,-0.047607675194740295,0.2628764808177948,-0.014874153770506382,-0.09134098142385483,0.057843610644340515,-0.0372413694858551,0.17158330976963043,-0.13549171388149261,-0.002230922458693385,0.043930232524871826,0.20618396997451782,-0.11663348227739334,-0.0893065333366394,0.03553268685936928,-0.25721049308776855,-0.018436238169670105,-0.051302582025527954,-0.1193300411105156,0.25399646162986755,0.027534158900380135,0.07873740792274475,0.23538146913051605,-0.11454194784164429,0.10530982166528702,0.2004287987947464,-0.19181837141513824,-0.074467234313488,0.02941715158522129,0.06805754452943802,-0.05650528147816658,-0.0743115171790123,-0.05965133011341095,0.01815282739698887,0.31160393357276917,0.14622575044631958,0.31810322403907776,0.14049677550792694,-0.15520885586738586,-0.3054178059101105,0.11596354842185974,0.11386698484420776,-0.13601619005203247,0.04706912115216255,-0.06271862238645554,0.15401591360569,0.002902484266087413,0.2914831340312958,0.16145388782024384,0.014247727580368519,-0.13764069974422455,0.07666312903165817,0.02954050339758396,-0.06302646547555923,-0.0798209086060524,-0.16181768476963043,-0.03260720893740654,0.17081217467784882,-0.0393218994140625,-0.07441189140081406,0.1011456847190857,-0.1693791300058365,-0.15680550038814545,0.030934065580368042,-0.03318662941455841,-0.11845261603593826,-0.07491765171289444,0.15192526578903198,-0.03518033027648926,0.17615942656993866,0.16709981858730316,0.11034557968378067,0.03194171190261841,0.12270430475473404,0.10999199002981186,-0.2289411872625351,-0.11576194316148758,-0.09208494424819946,0.17144568264484406,-0.09098242968320847,-0.20564556121826172,0.04051070660352707,-0.18144379556179047,0.2297491431236267,0.192782923579216,0.26422837376594543,-0.08310025930404663
NCT04163185,0.1345376968383789,-0.08090341091156006,0.006205512210726738,0.03305942937731743,-0.3650890588760376,-0.007733702659606934,-0.06962119787931442,0.032457269728183746,-0.1902773678302765,0.20313560962677002,-0.08224532008171082,-0.2041027545928955,-0.12314172089099884,0.07207982987165451,-0.3021232783794403,0.038877516984939575,0.0376921147108078,0.058502040803432465,0.10604395717382431,0.257382333278656,-0.05510065704584122,-0.049022503197193146,-0.12012749910354614,-0.09173237532377243,-0.07898108661174774,-0.22734440863132477,0.17935791611671448,-0.17277994751930237,-0.13198070228099823,-0.18388938903808594,0.023201432079076767,0.06599552929401398,0.10654696822166443,-0.003912594169378281,-0.10779423266649246,0.014809280633926392,-0.007342033088207245,0.09334521740674973,0.08950087428092957,-0.06891108304262161,0.08720614016056061,0.26469284296035767,0.018564583733677864,0.14388388395309448,0.03387396037578583,-0.062126584351062775,-0.19620896875858307,-0.03935573622584343,0.23149102926254272,-0.18963783979415894,0.13019907474517822,0.16867372393608093,0.20929566025733948,-0.08110816776752472,-0.12209851294755936,-0.04674956575036049,-0.24440237879753113,-0.058797407895326614,-0.009304679930210114,-0.19921886920928955,0.2810818552970886,0.09680911898612976,0.20838293433189392,0.18034960329532623,-0.01799342781305313,0.13247190415859222,0.24877212941646576,-0.13115592300891876,0.01869351789355278,0.14579708874225616,0.12354277074337006,-0.10983623564243317,-0.031601447612047195,-0.0770101547241211,-0.18567311763763428,0.1025722473859787,0.24529847502708435,0.2099059373140335,0.06711456179618835,-0.015305844135582447,-0.2225744128227234,0.0755256935954094,0.03959069401025772,-0.015878193080425262,0.13528917729854584,-0.012455638498067856,0.04335302487015724,0.06377534568309784,0.25511541962623596,0.027388403192162514,0.15276968479156494,-0.251742422580719,0.1130332350730896,0.12200983613729477,-0.15356777608394623,0.07815439254045486,-0.35622674226760864,-0.08528784662485123,0.2077365219593048,-0.18783795833587646,-0.14416003227233887,0.03907559812068939,-0.051762476563453674,-0.08055919408798218,-0.04664040356874466,0.008487207815051079,-0.027470629662275314,-0.058201611042022705,0.07130588591098785,-0.10379423201084137,0.1760989874601364,0.14166679978370667,-0.013557539321482182,-0.05420547351241112,0.06057952344417572,0.07517169415950775,-0.14485596120357513,-0.019496338441967964,-0.06282147765159607,0.1672171652317047,-0.13195191323757172,-0.32178857922554016,0.14606539905071259,-0.10363581776618958,0.2559693455696106,0.21093592047691345,0.23983383178710938,-0.01605713926255703
NCT04180488,0.1933729201555252,-0.09721701592206955,-0.07543458789587021,0.08747438341379166,-0.22595731914043427,-0.09206890314817429,-0.08360300958156586,-0.055876024067401886,-0.16207195818424225,0.11330033093690872,-0.03211142495274544,-0.21911975741386414,-0.07601229846477509,0.13830022513866425,-0.2763151228427887,-0.002687389263883233,0.07810317724943161,0.042312461882829666,0.014920317567884922,0.2500622868537903,-0.12627770006656647,-0.016162237152457237,-0.18905936181545258,-0.039902422577142715,-0.16979560256004333,-0.08376215398311615,0.23947276175022125,-0.27373480796813965,-0.08764864504337311,-0.12081922590732574,-0.03064250946044922,-0.07970010489225388,0.22987282276153564,-0.027730030938982964,-0.1032690554857254,0.11452751606702805,-0.00804272573441267,0.14966903626918793,0.07393329590559006,-0.025890210643410683,-2.9578804969787598e-05,0.2854394316673279,0.05664138123393059,0.2753852903842926,0.048834655433893204,0.0033106340561062098,-0.15693522989749908,0.012919260188937187,0.2125154286623001,-0.260265976190567,0.060557298362255096,0.1201024204492569,0.24035920202732086,-0.10543113946914673,-0.11218761652708054,0.03307802230119705,-0.22489216923713684,-0.1428661346435547,0.06606075912714005,-0.16500639915466309,0.2725580632686615,0.016391467303037643,0.18529580533504486,0.19413702189922333,-0.045968446880578995,0.11533073335886002,0.16449975967407227,-0.16542969644069672,-0.12617623805999756,0.09023389965295792,0.08481741696596146,-0.12177963554859161,0.04277992248535156,-0.03395146504044533,0.002583559136837721,0.20779824256896973,0.24563762545585632,0.2534619867801666,0.13171733915805817,-0.16057239472866058,-0.17651024460792542,0.04017256945371628,-0.0883883610367775,0.03375690057873726,0.029767466709017754,-0.06794608384370804,0.21471312642097473,-0.02963229827582836,0.2211560308933258,-0.023362865671515465,0.02598974108695984,-0.17375421524047852,0.11072535812854767,0.07714607566595078,-0.20350381731987,0.00019152888853568584,-0.18840943276882172,-0.09736423939466476,0.07747268676757812,-0.10762128978967667,-0.1808232069015503,0.030978886410593987,0.0024146202486008406,-0.10437708348035812,-0.05194006487727165,0.015044727362692356,-0.056246280670166016,-0.02625265158712864,0.17258843779563904,-0.12995152175426483,0.16146837174892426,0.3116760551929474,-0.026549432426691055,-0.03631285950541496,0.10447365790605545,0.1461464911699295,-0.07415930181741714,-0.19751140475273132,0.01013832725584507,0.019684800878167152,-0.02836764231324196,-0.27386412024497986,0.05105137452483177,-0.1910107135772705,0.24013102054595947,0.1770239770412445,0.23105916380882263,-0.037710435688495636
NCT04524273,0.18387582898139954,0.016165845096111298,0.025949228554964066,-0.013204480521380901,-0.2951296269893646,-0.03508211299777031,-0.08952759206295013,0.01764405332505703,-0.19355133175849915,0.1532970517873764,-0.18271267414093018,-0.13620099425315857,-0.08568332344293594,0.027555013075470924,-0.15100879967212677,0.24259953200817108,0.05430324003100395,0.019466066733002663,0.043626923114061356,0.30360323190689087,-0.012088214047253132,-0.04609131067991257,-0.1771596074104309,0.03217696025967598,-0.14145049452781677,-0.11490483582019806,0.32957273721694946,-0.24492120742797852,-0.1082952618598938,-0.17453870177268982,-0.009445155039429665,-0.06838370859622955,0.2590973973274231,-0.13784363865852356,-0.008768580853939056,0.11438393592834473,-0.0228677149862051,0.062082767486572266,0.08584754168987274,-0.1460883915424347,-0.07710294425487518,0.1461147964000702,-0.009075796231627464,0.2959504723548889,-0.09038170427083969,-0.05532427877187729,0.04519670084118843,0.028948146849870682,0.15810231864452362,-0.26205435395240784,0.060559291392564774,0.14757557213306427,0.26330527663230896,-0.021449249237775803,-0.20251289010047913,0.03812422603368759,-0.29969993233680725,0.013678890652954578,0.037948738783597946,-0.19389674067497253,0.25607606768608093,0.1829318255186081,0.09064604341983795,0.1702938973903656,-0.16486290097236633,0.19099625945091248,0.01787561923265457,-0.17756663262844086,-0.024988556280732155,0.06896139681339264,0.13236089050769806,-0.09345206618309021,-0.12629082798957825,0.016352921724319458,0.030690837651491165,0.30504709482192993,0.176447793841362,0.18455132842063904,0.16242516040802002,-0.049597837030887604,-0.2739681005477905,-0.001294533140026033,-0.054758865386247635,0.012888479046523571,0.04199410229921341,-0.07500658184289932,0.2564414441585541,-0.00040475017158314586,0.2560961842536926,-0.03628294914960861,0.04455658048391342,-0.10460443794727325,0.015300234779715538,-0.018895696848630905,-0.22918054461479187,0.010902585461735725,-0.33019155263900757,-0.026677045971155167,0.24160365760326385,0.039841197431087494,-0.15604029595851898,0.17533570528030396,-0.06006430462002754,-0.022895555943250656,0.01943887397646904,-0.03345100209116936,0.0025455430150032043,-0.028656616806983948,0.08531802147626877,-0.04689835384488106,0.17695018649101257,0.22235777974128723,-0.041408125311136246,-0.01295840460807085,-0.023779427632689476,0.03056555613875389,-0.14465120434761047,-0.19133511185646057,0.03507418558001518,0.13613423705101013,-0.017347481101751328,-0.24077144265174866,0.06827868521213531,-0.20206217467784882,0.2167178839445114,0.22157001495361328,0.3178941309452057,-0.03928544372320175
NCT04544293,0.13988672196865082,-0.19212080538272858,-0.10921674221754074,-0.11828747391700745,-0.12296902388334274,-0.026624025776982307,-0.2349896878004074,-0.13455833494663239,-0.21377825736999512,0.12898939847946167,-0.013273835182189941,-0.2232821136713028,0.01372513547539711,0.022301753982901573,-0.2560548782348633,0.056667689234018326,0.10271549969911575,-0.07827875018119812,0.05057614669203758,0.2208472341299057,-0.053704772144556046,0.05702093988656998,-0.24581505358219147,0.046039070934057236,-0.10582805424928665,0.07058753818273544,0.1096200942993164,-0.2110273838043213,-0.07228822261095047,-0.09518647938966751,0.03386954963207245,-0.13590554893016815,0.08120950311422348,-0.07258885353803635,-0.04539214447140694,-0.1271350383758545,0.008538356982171535,0.2043931484222412,-0.03699028864502907,-0.06257906556129456,-0.14232893288135529,0.19872665405273438,0.15621121227741241,0.16964106261730194,0.08716105669736862,0.017031174153089523,-0.08683324605226517,-0.027324385941028595,-0.009271026588976383,-0.18626713752746582,-0.06281191855669022,0.186017706990242,0.48176994919776917,-0.026436513289809227,-0.18884630501270294,0.10553088039159775,-0.1530352681875229,-0.03362133353948593,0.03263074532151222,-0.19977329671382904,0.19431662559509277,0.034708164632320404,0.0867709144949913,0.2875692546367645,-0.1436135172843933,0.03939896821975708,0.008369707502424717,-0.18465937674045563,-0.22400902211666107,0.05396859720349312,0.09986414760351181,-0.06301508098840714,-0.029691297560930252,-0.038956109434366226,0.02409299463033676,0.18962621688842773,0.0654471293091774,0.22748829424381256,0.11002106219530106,-0.2226574867963791,-0.19245952367782593,0.070832759141922,0.17217594385147095,0.04498317092657089,0.12033779174089432,-0.035727210342884064,0.23657827079296112,-0.12462427467107773,0.1206260696053505,0.08474360406398773,0.023703403770923615,-0.06563353538513184,0.03521262854337692,0.14227814972400665,-0.14890092611312866,-0.01209425088018179,-0.0791645497083664,-0.11075117439031601,0.06618331372737885,-0.02057304047048092,-0.025771206244826317,0.03369956836104393,0.08975566923618317,-0.03091861680150032,-0.019125329330563545,0.041785143315792084,-0.2476464807987213,-0.1897318959236145,0.1664523482322693,0.09772029519081116,0.22039371728897095,0.20148740708827972,0.07686388492584229,0.12422459572553635,0.027797840535640717,0.10557202994823456,-0.09211239218711853,-0.14858382940292358,-0.06700225174427032,-0.02674855664372444,0.1321439892053604,-0.13746324181556702,-0.07386463135480881,0.08107052743434906,0.18216274678707123,0.08492626249790192,0.15282124280929565,-0.10797173529863358
NCT05059223,0.10120273381471634,-0.023000255227088928,0.06619875133037567,-0.02756703458726406,-0.29405447840690613,0.012365665286779404,-0.08670085668563843,-0.0008023064583539963,-0.2857493758201599,0.20589280128479004,-0.16160030663013458,-0.23290282487869263,-0.11818069964647293,0.04270384460687637,-0.30089271068573,0.20533888041973114,0.04724986478686333,0.07930833101272583,0.18102549016475677,0.24453049898147583,0.054827768355607986,-0.1340150088071823,-0.13369546830654144,0.012864284217357635,-0.11595632135868073,-0.19142846763134003,0.29720133543014526,-0.2325071096420288,-0.1535942703485489,-0.16159723699092865,-0.04270968958735466,-0.048449404537677765,0.12642021477222443,-0.09323566406965256,-0.08273457735776901,0.06957529485225677,-0.0398174449801445,0.0645555853843689,0.08888326585292816,-0.09867297857999802,0.08938418328762054,0.2324543595314026,0.015827424824237823,0.24848639965057373,-0.11644819378852844,-0.10725415498018265,-0.06426027417182922,0.011223020032048225,0.19848014414310455,-0.1450091004371643,0.07995764166116714,0.11680145561695099,0.1987454891204834,-0.1323416531085968,-0.11842121183872223,0.07754987478256226,-0.2675706148147583,-0.001893501728773117,0.05954601243138313,-0.11874691396951675,0.19432911276817322,0.07905176281929016,0.2565392851829529,0.156137153506279,-0.18986989557743073,0.16990773379802704,0.15422707796096802,-0.15615636110305786,-0.029070304706692696,0.13014787435531616,0.10059607774019241,-0.10619872063398361,-0.05184883996844292,0.006364976055920124,-0.1447272002696991,0.2323031723499298,0.2646541893482208,0.2252882719039917,0.12945851683616638,-0.04190525785088539,-0.1923123598098755,0.10747756063938141,-0.03082231804728508,-0.031048908829689026,0.14532995223999023,-0.05599693953990936,0.03943181037902832,0.059595800936222076,0.16392570734024048,0.03740163892507553,0.027353649958968163,-0.17629043757915497,0.09163103997707367,0.03574720025062561,-0.10314308106899261,0.02666114643216133,-0.3237919807434082,-0.03026842698454857,0.20705410838127136,-0.16853292286396027,-0.14288385212421417,0.09107519686222076,-0.10224033892154694,-0.12950348854064941,0.02286790870130062,-0.0024077892303466797,0.026302427053451538,-0.06731313467025757,0.11017429083585739,-0.08116456866264343,0.24184994399547577,0.23055918514728546,0.03617655485868454,-0.06221425533294678,0.08141439408063889,0.034807126969099045,-0.1931004673242569,-0.09512358903884888,0.010816448368132114,0.136501282453537,-0.07536092400550842,-0.2727319300174713,0.10039298236370087,-0.13900282979011536,0.28756028413772583,0.3276531994342804,0.27805137634277344,-0.012222159653902054
NCT05085366,0.08716027438640594,-0.10766728222370148,-0.07870958000421524,-0.07792359590530396,-0.15314637124538422,-0.05618608370423317,-0.059547606855630875,-0.007455592509359121,-0.2147531509399414,0.1053277850151062,-0.049740590155124664,-0.19906039535999298,-0.03387667238712311,0.026087438687682152,-0.18097926676273346,0.1428695023059845,0.1375741958618164,0.04700107127428055,0.1596415489912033,0.27451616525650024,-0.028088001534342766,-0.07569112628698349,-0.21888037025928497,0.08290676772594452,-0.10873551666736603,-0.11678923666477203,0.29704341292381287,-0.22356291115283966,-0.1333986222743988,-0.1639990359544754,0.06150923669338226,-0.08382363617420197,0.27210015058517456,-0.06493908166885376,-0.07647718489170074,0.12956297397613525,-0.08826164901256561,0.0967225506901741,0.036948930472135544,-0.08878134936094284,0.018537340685725212,0.17836977541446686,0.04976598545908928,0.3429639935493469,-0.03823918476700783,-0.029334168881177902,-0.14250923693180084,-0.003472731215879321,0.15490785241127014,-0.19075053930282593,0.011915107257664204,0.2802960276603699,0.28429314494132996,0.011199438944458961,-0.2639016807079315,0.008287525735795498,-0.2706416845321655,-0.0961749479174614,0.032711923122406006,-0.12665699422359467,0.3342747390270233,0.14106404781341553,0.1254422813653946,0.23055414855480194,-0.18524599075317383,0.16983382403850555,0.11016230285167694,-0.2369416505098343,-0.07232742756605148,0.0016260581323876977,0.17798535525798798,-0.09945688396692276,-0.07816531509160995,-0.032807908952236176,0.03523888438940048,0.2651948630809784,0.1647098958492279,0.22614611685276031,0.1687205731868744,-0.09478946030139923,-0.2095864713191986,-0.020588086917996407,-0.020229266956448555,0.0033721013460308313,0.15298694372177124,-0.1393970251083374,0.24064773321151733,-0.00841678399592638,0.21911339461803436,-0.01723918877542019,-0.037278059870004654,-0.1634894460439682,0.15099282562732697,-0.0026526995934545994,-0.14670465886592865,0.013624095357954502,-0.3294488191604614,-0.05464381352066994,0.1962650567293167,-0.10986381769180298,-0.19106103479862213,0.08590080589056015,-0.05831701681017876,-0.026462329551577568,0.013034624047577381,-0.07846441119909286,-0.0211199801415205,-0.0367853008210659,0.08772530406713486,-0.025101149454712868,0.2287599891424179,0.2604764997959137,-0.04188644513487816,-0.006198043469339609,0.06356999278068542,0.001575558097101748,-0.14841318130493164,-0.20839059352874756,-0.041167501360177994,0.16051964461803436,0.001506525557488203,-0.2857609987258911,0.04659318923950195,-0.18841177225112915,0.26813289523124695,0.23558665812015533,0.31877386569976807,-0.11396463960409164
NCT05109091,0.10274233669042587,-0.17097248136997223,-0.05928455665707588,-0.08025331050157547,-0.04536186531186104,0.004938788712024689,-0.01765591837465763,-0.03036605753004551,-0.24044543504714966,0.1917458027601242,0.026009365916252136,-0.18812166154384613,-0.022797713056206703,0.05073019489645958,-0.24541789293289185,-0.026424916461110115,0.056580930948257446,0.09213953465223312,0.174177348613739,0.21065367758274078,-0.06003822758793831,-0.035953786224126816,-0.1328982561826706,0.022930623963475227,-0.15243476629257202,-0.15652604401111603,0.16495318710803986,-0.19519661366939545,-0.1074087992310524,-0.10305491089820862,0.027008751407265663,0.0010538498172536492,0.19037336111068726,0.05176805332303047,-0.19287778437137604,0.14136327803134918,0.04486660659313202,0.17150919139385223,0.13710500299930573,0.01146668940782547,0.10533320903778076,0.26897692680358887,0.031194625422358513,0.3766702711582184,0.02975991554558277,-0.10718181729316711,-0.25650134682655334,0.05785052105784416,0.22865472733974457,-0.25922927260398865,0.0053696706891059875,0.23806659877300262,0.2809007465839386,0.011664976365864277,-0.13628530502319336,0.061307962983846664,-0.2802335023880005,-0.04735887050628662,0.029597962275147438,-0.06601188331842422,0.2897587716579437,0.0941319689154625,0.20277993381023407,0.24514985084533691,-0.03246220573782921,0.020772388204932213,0.2997276484966278,-0.17888450622558594,-0.09476802498102188,0.012776617892086506,0.0994056686758995,-0.060719504952430725,-0.016969958320260048,-0.10470420122146606,0.05225236341357231,0.18209941685199738,0.2148696929216385,0.326423317193985,0.20068104565143585,-0.16461120545864105,-0.2645823359489441,-0.10616490244865417,0.0924827829003334,0.03469068184494972,0.31482425332069397,-0.16762451827526093,0.21341311931610107,0.05220990255475044,0.18626289069652557,0.013738038949668407,-0.11159121990203857,-0.196966290473938,0.03566952049732208,0.07069042325019836,-0.08001037687063217,-0.05491752550005913,-0.3076521158218384,-0.09957870095968246,0.16982139647006989,-0.16926579177379608,-0.10699864476919174,0.0871255025267601,-0.09937173873186111,-0.03134853020310402,0.0355239063501358,-0.10001382976770401,-0.06276062875986099,-0.09930979460477829,0.05143815279006958,-0.04412011429667473,0.09628293663263321,0.31341788172721863,-0.05276782810688019,-0.04642830416560173,-0.03069349192082882,0.09215941280126572,-0.07894501835107803,-0.07670200616121292,-0.008632601238787174,0.03486187756061554,-0.044822435826063156,-0.32439902424812317,0.06062288582324982,-0.29430195689201355,0.10241272300481796,0.1907363086938858,0.26010122895240784,-0.17084312438964844
NCT05208944,0.24508962035179138,-0.08678106218576431,-0.07006185501813889,-0.008084984496235847,-0.09942913800477982,-0.15993069112300873,0.022968729957938194,-0.10024692863225937,-0.09988749772310257,0.0927315428853035,-0.003359168767929077,-0.1430143266916275,-0.09984687715768814,-0.14142195880413055,-0.37207815051078796,0.07281716167926788,0.023656954988837242,-0.11582527309656143,-0.15061023831367493,0.1555682122707367,-0.0002769040293060243,-0.1330973207950592,-0.04485272243618965,0.02361328899860382,-0.13196195662021637,0.042361605912446976,0.06529927253723145,-0.22401383519172668,-0.009557453915476799,-0.14534716308116913,-0.09009727090597153,0.17777475714683533,0.1536090224981308,0.10862855613231659,-0.0437338761985302,-0.15920329093933105,0.20157383382320404,0.08393172919750214,0.22562526166439056,-0.06380759924650192,-0.17896680533885956,0.14730261266231537,0.08802644908428192,0.15693143010139465,0.15496759116649628,-0.018010752275586128,-0.05937420204281807,0.02775544300675392,0.25113338232040405,-0.19068647921085358,0.009226626716554165,-0.09570449590682983,0.16097033023834229,-0.12245948612689972,-0.07315947860479355,0.059986550360918045,-0.22322317957878113,-0.1371486932039261,0.1580551415681839,-0.22909213602542877,0.20912179350852966,-0.004041646141558886,0.15245655179023743,0.0579218864440918,0.07675234973430634,0.05528060719370842,0.1822817027568817,-0.1876378208398819,-0.07777079194784164,-0.1483159363269806,0.02535100281238556,-0.0026405304670333862,0.17327310144901276,-0.20578590035438538,0.0526357963681221,0.15615053474903107,0.2055850774049759,0.12098322808742523,0.11918271332979202,-0.20839153230190277,-0.2296554297208786,0.017155632376670837,0.11842291057109833,-0.0838184505701065,0.05829517915844917,-0.06297226995229721,0.27582186460494995,0.1295894831418991,0.20705632865428925,-0.002586999209597707,-0.03136831149458885,-0.0014099223772063851,-0.04292496293783188,0.09940894693136215,-0.13606098294258118,-0.057825200259685516,-0.19021926820278168,0.06963885575532913,0.04117954149842262,-0.08564396947622299,-0.011506698094308376,0.057429105043411255,-0.12303833663463593,0.022205250337719917,-0.007752007804811001,0.07026392966508865,-0.2614556849002838,0.06997557729482651,0.05941551923751831,0.008608021773397923,-0.001454110606573522,0.2299097329378128,0.06709377467632294,0.05167436972260475,-0.03443880379199982,0.21344076097011566,-0.011943227611482143,-0.0731181725859642,-0.08035320043563843,0.013305447064340115,-0.09848802536725998,-0.12173287570476532,0.12497682869434357,-0.305210679769516,0.09536770731210709,-0.030446257442235947,0.17901743948459625,-0.05266672745347023
NCT05291091,0.09466677904129028,-0.11894325166940689,-0.15791656076908112,-0.08861488103866577,-0.09584152698516846,-0.02407100424170494,-0.04410505294799805,-0.054786115884780884,-0.21316835284233093,0.1750015765428543,0.003087585559114814,-0.23072971403598785,0.08284477144479752,0.05553080514073372,-0.27307412028312683,0.057847168296575546,0.06335602700710297,0.09284423291683197,0.16760659217834473,0.23009143769741058,-0.040431756526231766,-0.061823904514312744,-0.253821462392807,0.05990752950310707,-0.14867933094501495,-0.09324467927217484,0.27805349230766296,-0.2757851481437683,-0.12145816534757614,-0.1031586304306984,-0.03358449041843414,-0.18533027172088623,0.16502349078655243,0.041595544666051865,-0.1359550505876541,0.009563333354890347,-0.010529877617955208,0.11215082556009293,0.017736634239554405,-0.1595011204481125,0.07665877789258957,0.2418079376220703,0.061541419476270676,0.32023152709007263,0.01540045440196991,-0.1402401626110077,-0.1650083065032959,-0.012429761700332165,0.14279624819755554,-0.2128264605998993,-0.04707495495676994,0.17739926278591156,0.3435909152030945,-0.008888544514775276,-0.27527278661727905,0.03231729567050934,-0.22195206582546234,-0.07152669131755829,-0.000319338811095804,-0.09688107669353485,0.35010477900505066,0.03923257812857628,0.12619726359844208,0.2387578785419464,-0.11799769103527069,0.0786481723189354,0.250844269990921,-0.2346481829881668,-0.17333003878593445,-0.0024970483500510454,0.10210300981998444,-0.06818558275699615,-0.07662182301282883,-0.107047900557518,0.07600144296884537,0.2944197654724121,0.15567190945148468,0.34121817350387573,0.14316444098949432,-0.21287420392036438,-0.18842758238315582,0.002290543634444475,0.06131710857152939,-0.0685281977057457,0.17464832961559296,-0.09185872972011566,0.2089741975069046,-0.021814661100506783,0.22744439542293549,0.10316864401102066,-0.025779128074645996,-0.20257940888404846,0.18190185725688934,0.13490116596221924,-0.08821070194244385,-0.014235368929803371,-0.1869012415409088,-0.08536777645349503,0.13267338275909424,-0.14886294305324554,-0.15649130940437317,0.016575001180171967,-0.10947085171937943,-0.0886424258351326,-0.015537140890955925,0.02764056995511055,-0.08385167270898819,-0.10239069908857346,0.1540766805410385,-0.11429832875728607,0.1908825933933258,0.27284637093544006,0.10389357060194016,-0.014154192991554737,0.014543653465807438,0.05862831696867943,-0.1608988493680954,-0.1494567096233368,-0.05903235450387001,0.08493651449680328,0.04634084552526474,-0.24270759522914886,-0.06329293549060822,-0.1879107654094696,0.20283648371696472,0.20297439396381378,0.2656165063381195,-0.13989420235157013
NCT05357950,0.1100703701376915,-0.06606977432966232,-0.028965432196855545,0.0027476369868963957,-0.24903185665607452,-0.11986903101205826,-0.18725371360778809,-0.24299612641334534,-0.07068495452404022,0.09429199993610382,-0.04673907905817032,-0.12307862937450409,-0.06257370114326477,0.052777402102947235,-0.4499943256378174,0.1435190588235855,0.04415952041745186,-0.04275428503751755,-0.05549092963337898,0.2120869904756546,-0.03971938416361809,0.021911658346652985,-0.09891775995492935,0.01444537378847599,-0.06310437619686127,-0.013943083584308624,0.12359367311000824,-0.3605979382991791,-0.08751557022333145,-0.14389877021312714,-0.08263448625802994,-0.03912236541509628,0.13655714690685272,-0.016984587535262108,0.0029153823852539062,-0.13028235733509064,0.13454456627368927,0.23934797942638397,0.14095178246498108,-0.13419565558433533,-0.11730030924081802,0.1869567334651947,0.047837428748607635,0.2019396722316742,0.04726007208228111,-0.05891391634941101,-0.028917962685227394,0.06705941259860992,0.17690321803092957,-0.31012865900993347,-0.024538984522223473,-0.06938110291957855,0.29557570815086365,-0.24499419331550598,-0.005322356708347797,0.08168639242649078,-0.19843021035194397,-0.11893651634454727,0.19104774296283722,-0.12706208229064941,0.14914825558662415,0.09789091348648071,0.13056637346744537,0.2395910918712616,0.07393839210271835,0.12423153221607208,0.12234649807214737,-0.23493237793445587,-0.12001106888055801,0.08839184790849686,0.020960252732038498,-0.02672656998038292,0.038575317710638046,0.0032166435848921537,0.04424469918012619,0.28977176547050476,0.21624955534934998,0.24962201714515686,0.12964987754821777,-0.24334390461444855,-0.2147914469242096,0.15894567966461182,0.08189748227596283,0.014102166518568993,0.008976656012237072,-0.07378043979406357,0.09471197426319122,-0.07545940577983856,0.35389024019241333,0.014485573396086693,0.06713716685771942,-0.1450493335723877,-0.018941104412078857,-0.004352840594947338,-0.18852519989013672,0.01814158260822296,-0.17113110423088074,-0.1054660901427269,0.09860339760780334,-0.05585501343011856,-0.013125146739184856,-0.007999485358595848,-0.048617951571941376,-0.1790444552898407,-0.005661758594214916,-0.04025474563241005,-0.1420583426952362,-0.07806096225976944,0.13811121881008148,-0.1425374299287796,0.029720569029450417,0.20688609778881073,0.050147395581007004,0.07821014523506165,0.0944603681564331,0.2809027433395386,-0.026996929198503494,-0.10929260402917862,-0.0024892613291740417,-0.013359688222408295,-0.12753884494304657,-0.2576558589935303,0.03479314222931862,-0.08908413350582123,0.15910734236240387,0.26401954889297485,0.15782304108142853,-0.173690527677536
NCT05481879,0.05499293655157089,-0.06605204194784164,5.64694419153966e-05,-0.10559781640768051,-0.2817995548248291,-0.07018172740936279,-0.03586564213037491,-0.14723244309425354,0.027487754821777344,0.1763734668493271,-0.0669177919626236,-0.11886753886938095,-0.12964685261249542,-0.00737444031983614,-0.2966013252735138,0.07871343195438385,0.03109906241297722,-0.036856453865766525,-0.07885625958442688,0.2960628867149353,-0.16968652606010437,-0.051548104733228683,0.013270722702145576,0.07830511033535004,-0.14601297676563263,0.008989036083221436,0.21488618850708008,-0.350486695766449,-0.12150938808917999,-0.0824069008231163,-0.04430823773145676,0.018879951909184456,0.15405409038066864,0.010360263288021088,-0.07704798877239227,-0.060084354132413864,0.06607870012521744,0.14685937762260437,0.08637844026088715,-0.04005303978919983,-0.09095924347639084,0.1963219791650772,0.12224151194095612,0.29860812425613403,0.05616150051355362,-0.04094172641634941,-0.048087574541568756,-0.0703425258398056,0.18215493857860565,-0.22627751529216766,1.598745620867703e-05,0.03243749588727951,0.30598002672195435,-0.18495967984199524,-0.11301596462726593,-0.007540762424468994,-0.15193204581737518,-0.055156391113996506,0.02603631094098091,-0.25498390197753906,0.17631688714027405,0.05104120820760727,0.07697045803070068,0.13794589042663574,-0.030188318341970444,0.21513473987579346,0.16121086478233337,-0.09407036006450653,-0.12362664937973022,0.09373544156551361,0.15549728274345398,-0.20350714027881622,0.10808433592319489,-0.09391046315431595,0.0916159600019455,0.038634561002254486,0.11991401761770248,0.27499523758888245,0.16472971439361572,-0.2188592404127121,-0.24624645709991455,0.12463631480932236,0.08585014194250107,0.04487874358892441,0.06537578999996185,-0.035680171102285385,-0.015003110282123089,0.18447349965572357,0.17927062511444092,-0.06512291729450226,0.023853471502661705,-0.1940704882144928,0.10609482228755951,0.0699876993894577,-0.03995246812701225,0.1692393571138382,-0.30550748109817505,-0.12766848504543304,0.16042041778564453,-0.053893107920885086,-0.11356030404567719,0.03893454372882843,-0.05041776970028877,-0.00828852690756321,-0.057955287396907806,0.051055051386356354,-0.17358925938606262,-0.006845205090939999,0.17696663737297058,-0.0751776471734047,0.0038888691924512386,0.3295105993747711,0.01552491169422865,0.009743526577949524,-0.13051187992095947,0.18037359416484833,-0.0965244397521019,-0.060178257524967194,-0.10967147350311279,-0.08698955923318863,-0.05776599049568176,-0.14387080073356628,-0.12794217467308044,-0.10453848540782928,0.16231286525726318,0.2077961266040802,0.16565032303333282,-0.10963623225688934
NCT05693142,0.12597417831420898,-0.10211209207773209,-0.040971335023641586,-0.07820899784564972,-0.15660573542118073,-0.019698208197951317,-0.042565688490867615,-0.10912686586380005,-0.19250769913196564,0.206613227725029,0.0017602381994947791,-0.1648947149515152,0.020246455445885658,0.059001337736845016,-0.16017751395702362,0.11914489418268204,0.1526261568069458,-0.023897280916571617,-0.005618071183562279,0.20665957033634186,-0.05432315170764923,0.049821555614471436,-0.13074390590190887,0.07973888516426086,-0.07375713437795639,0.010630692355334759,0.14798612892627716,-0.28619685769081116,-0.06509578973054886,-0.050919730216264725,0.016659198328852654,-0.03306613489985466,0.15737847983837128,-0.03586721420288086,-0.0011639842996373773,-0.09330594539642334,-0.05363916978240013,0.1543966382741928,0.043003033846616745,-0.10003181546926498,-0.07172844558954239,0.15388251841068268,0.09725954383611679,0.2935936450958252,0.02975553460419178,-0.11208570003509521,0.023857178166508675,0.05031414330005646,0.1001705452799797,-0.3106305003166199,0.05951078236103058,0.12010233849287033,0.4286694824695587,-0.14634305238723755,-0.16735561192035675,0.15165390074253082,-0.17168490588665009,0.069134421646595,0.008104431442916393,-0.2101472020149231,0.11630147695541382,-0.05841173604130745,0.0815829485654831,0.1942262202501297,-0.12832921743392944,0.1684608906507492,0.18559426069259644,-0.2832525670528412,-0.12778525054454803,0.04939527437090874,0.05646778270602226,-0.19136469066143036,0.06195943057537079,-0.061338406056165695,0.049158405512571335,0.23936118185520172,0.21012361347675323,0.3047991991043091,0.09264582395553589,-0.2472323626279831,-0.2798779010772705,-0.008141511119902134,0.2870345711708069,0.0672595426440239,0.07460067421197891,-0.06824225932359695,0.18505717813968658,0.0719686970114708,0.1462593525648117,0.054678354412317276,0.14875037968158722,-0.1716172695159912,0.15794087946414948,0.06599614024162292,-0.08194897323846817,-0.06680891662836075,-0.24472618103027344,-0.17439627647399902,0.07537030428647995,-0.003336191875860095,-0.03750116005539894,0.03813435882329941,-0.05407368019223213,-0.037915900349617004,-0.1200658306479454,-0.04727137088775635,-0.12365472316741943,-0.10787445306777954,0.03331473469734192,0.12907055020332336,0.06232873722910881,0.31171953678131104,0.013161410577595234,0.019652584567666054,-0.10250574350357056,0.24371962249279022,-0.18806886672973633,-0.09265315532684326,-0.08137796074151993,-0.10946550965309143,-0.039084937423467636,-0.05770024657249451,-0.14360953867435455,-0.05711275339126587,0.12499288469552994,0.05880160629749298,0.32568687200546265,0.11797484755516052
NCT05696717,0.015144160948693752,-0.14146825671195984,-0.037882883101701736,-0.0817633718252182,-0.08845023065805435,0.03600993752479553,0.028629204258322716,-0.020795783028006554,-0.25270962715148926,0.15447558462619781,-0.025155415758490562,-0.07023289799690247,0.1037936583161354,0.12477309256792068,-0.2253909558057785,-0.019503479823470116,0.113490991294384,0.07663081586360931,0.12725408375263214,0.20126798748970032,-0.07221699506044388,-0.07107574492692947,-0.21928761899471283,-0.02954404056072235,-0.05996381491422653,-0.1442224681377411,0.2982247471809387,-0.16628730297088623,-0.15399499237537384,-0.03300032392144203,-0.0023124751169234514,-0.08714531362056732,0.2123344987630844,0.020964672788977623,-0.14621801674365997,0.12259074300527573,0.004135475493967533,0.1284569352865219,0.008584104478359222,-0.16434063017368317,0.15612688660621643,0.29929929971694946,-0.002372184069827199,0.2504781484603882,-0.04891662672162056,-0.22589002549648285,-0.2572724223136902,0.01615254208445549,0.1992812305688858,-0.22164487838745117,0.03811084106564522,0.2238626331090927,0.291509211063385,0.011704097501933575,-0.1876688003540039,-0.02234385535120964,-0.18930676579475403,-0.03262455388903618,0.039668913930654526,-0.060410525649785995,0.2891804277896881,0.00659778481349349,0.16108699142932892,0.26797324419021606,-0.10938818007707596,0.11801909655332565,0.19608712196350098,-0.1713755875825882,-0.078372523188591,-0.009360989555716515,0.13625073432922363,-0.08464176952838898,-0.10191234201192856,-0.09263797849416733,0.029796281829476357,0.1321595013141632,0.16491328179836273,0.25973787903785706,0.10108566284179688,-0.09778974950313568,-0.18574294447898865,-0.03413889929652214,0.04010910540819168,0.003834580769762397,0.16988101601600647,-0.08893696963787079,0.10569226741790771,0.03725823387503624,0.18391302227973938,-0.04258746653795242,0.018972771242260933,-0.20135436952114105,0.25075599551200867,0.1372898668050766,-0.13070538640022278,0.02419801615178585,-0.2483879178762436,-0.019106293097138405,0.2062840610742569,-0.17796777188777924,-0.09789552539587021,-0.007749560754746199,-0.039000868797302246,-0.039341241121292114,0.011526086367666721,0.015209159813821316,0.023684507235884666,-0.06929822266101837,0.10964516550302505,-0.14909160137176514,0.13831216096878052,0.28299999237060547,0.061791449785232544,-0.05348340794444084,0.0449870340526104,0.013430655002593994,-0.10802953690290451,-0.06278529018163681,-0.024496296420693398,0.15422065556049347,-0.013404535129666328,-0.3308700919151306,0.01888328418135643,-0.15329281985759735,0.24886134266853333,0.1621214896440506,0.25614073872566223,-0.000395189446862787
NCT05731544,0.18926386535167694,-0.09211206436157227,-0.14641515910625458,-0.029341435059905052,-0.1318316012620926,-0.06406663358211517,-0.1416129171848297,-0.04841535538434982,-0.15343335270881653,0.11591579020023346,-0.15522636473178864,-0.3501695394515991,-0.090760238468647,0.07283735275268555,-0.2662782073020935,0.08995693922042847,0.027332719415426254,-0.017154529690742493,0.11610230058431625,0.2087206095457077,-0.10217893123626709,-0.0024077906273305416,-0.10336457192897797,0.04303140565752983,-0.20690254867076874,-0.006268912460654974,0.24196727573871613,-0.3146814703941345,-0.0946660190820694,-0.17742419242858887,-0.11445967853069305,-0.11987368762493134,0.06125941127538681,0.004335087724030018,-0.24387440085411072,-0.048046864569187164,0.018292797729372978,0.052380193024873734,0.06501476466655731,-0.038368742913007736,-0.08756307512521744,0.20854756236076355,0.043818432837724686,0.3968225419521332,0.03493430092930794,-0.034397292882204056,-0.03510456159710884,-0.05398367717862129,0.0862189382314682,-0.227072075009346,-0.02090826816856861,0.14345762133598328,0.39549046754837036,-0.049873001873493195,-0.18362444639205933,0.04061988368630409,-0.2864895761013031,-0.0444604828953743,0.0027027428150177,-0.1276427060365677,0.12166781723499298,0.05854120850563049,0.13108009099960327,0.10305555164813995,-0.0951344445347786,0.211130291223526,0.13165521621704102,-0.23982080817222595,0.0035025267861783504,0.11679090559482574,0.037961434572935104,-0.10056561231613159,-0.022351354360580444,-0.004010784439742565,0.06865541636943817,0.2508307099342346,0.22341880202293396,0.36284592747688293,0.2208385467529297,-0.1559620201587677,-0.25029677152633667,0.009093618020415306,0.15192413330078125,-0.05178067833185196,0.247360497713089,-0.06842956691980362,0.37713316082954407,-0.0016697526443749666,0.17110788822174072,0.015002611093223095,-0.02852701023221016,-0.20578162372112274,-0.062180180102586746,0.16920021176338196,0.001085624098777771,0.07162602990865707,-0.14808817207813263,-0.03821679204702377,0.1602896749973297,-0.1240583211183548,-0.11391192674636841,0.09573803842067719,-0.17608584463596344,0.03270338103175163,-0.016259249299764633,0.0162540040910244,-0.06906972825527191,-0.11349525302648544,0.06019517779350281,-0.1090092882514,0.12043549865484238,0.286596417427063,0.10621687024831772,0.03286504000425339,-0.033520303666591644,0.011178314685821533,-0.22823195159435272,-0.09814202785491943,-0.0942160040140152,0.052210401743650436,0.08904950320720673,-0.16053643822669983,0.014928949065506458,-0.20940370857715607,0.1371835172176361,0.11100444942712784,0.243678480386734,-0.17011770606040955
NCT06079736,0.23493574559688568,-0.10008859634399414,-0.14827187359333038,0.013989130966365337,-0.21018196642398834,-0.11621057987213135,0.00022854655981063843,-0.17217029631137848,0.08661958575248718,0.13466204702854156,0.08750331401824951,-0.12651889026165009,-0.08774300664663315,0.08192652463912964,-0.4768235683441162,0.10689821094274521,0.04906449094414711,0.043711233884096146,-0.013536319136619568,0.3201179504394531,-0.0007602001423947513,0.0532623790204525,-0.09093401581048965,0.1483546793460846,-0.07449863851070404,0.05594231188297272,0.11551493406295776,-0.46293482184410095,-0.1490119844675064,-0.1042310893535614,-0.07227153331041336,-0.050198037177324295,0.1014963760972023,0.018704744055867195,-0.06396510452032089,-0.02443023771047592,0.1276342123746872,0.22506558895111084,0.19020406901836395,-0.17582641541957855,-0.1195816919207573,0.10048551112413406,0.08777178078889847,0.35080936551094055,0.0077838897705078125,-0.06115597486495972,0.041078832000494,-0.02459315024316311,0.1669553965330124,-0.3448094129562378,0.010044085793197155,-0.11836355924606323,0.3025040924549103,-0.28921428322792053,-0.041355978697538376,0.08608724921941757,-0.23840443789958954,-0.07680431753396988,0.03693152591586113,-0.18330495059490204,0.165039524435997,-0.022559024393558502,0.06422408670186996,0.23169535398483276,0.07136394083499908,0.1520438939332962,0.3204081356525421,-0.19350695610046387,-0.14596472680568695,0.16464568674564362,0.058507829904556274,-0.09772840887308121,0.14494653046131134,-0.03743109479546547,0.11447545886039734,0.1760539561510086,0.2565784454345703,0.33015528321266174,0.17888395488262177,-0.30034926533699036,-0.3178417682647705,0.15076863765716553,0.13716202974319458,-0.08286271244287491,-0.029078388586640358,0.0074775791727006435,-0.003773679258301854,0.09362581372261047,0.36274221539497375,0.02210177667438984,-0.021786056458950043,-0.25118887424468994,-0.022871509194374084,0.012170339934527874,-0.021470671519637108,0.0482141375541687,-0.19796065986156464,-0.26984742283821106,0.007411216851323843,-0.004975651856511831,-0.12029105424880981,0.11298402398824692,-0.10061448812484741,-0.11007869243621826,-0.07027356326580048,-0.051322147250175476,-0.18649905920028687,-0.07161445915699005,0.19147779047489166,-0.05910828709602356,-0.034091126173734665,0.3100501000881195,0.1388835608959198,-0.018459269776940346,-0.01579444669187069,0.2935613989830017,-0.14910145103931427,-0.11358123272657394,-0.1263197511434555,-0.2040645033121109,-0.12352839857339859,-0.251237154006958,-0.1803002804517746,-0.18974773585796356,0.1587473303079605,0.24349500238895416,0.19173939526081085,-0.11383885890245438
NCT06185673,0.0294339619576931,-0.10728713124990463,-0.12338250875473022,0.05780768394470215,-0.17929434776306152,-0.08175063133239746,-0.18168199062347412,-0.052737362682819366,-0.08403834700584412,0.04686674103140831,-0.10650723427534103,-0.12313450872898102,-0.07278045266866684,0.11201043426990509,-0.47036853432655334,0.1431284248828888,0.07744253426790237,-0.24250775575637817,-0.011905833147466183,0.24644136428833008,-0.2266630381345749,0.05186828598380089,0.03607949614524841,-0.05472734943032265,0.005663380958139896,0.02393835410475731,-0.029220907017588615,-0.2763683497905731,-0.08561009913682938,-0.07050997018814087,0.08218850940465927,-0.034490544348955154,0.05311054363846779,-0.28491097688674927,-0.06099728122353554,-0.0917591080069542,0.12086545675992966,0.08291027694940567,0.050119537860155106,-0.05046572536230087,-0.030284084379673004,0.11595258116722107,0.0036029245238751173,0.2844638228416443,0.020562879741191864,0.03478913754224777,0.06960739195346832,0.04514867812395096,-0.05041760578751564,-0.29997625946998596,0.256869375705719,0.09926505386829376,0.2517869770526886,-0.22892725467681885,-0.027594128623604774,0.14767412841320038,-0.3659017086029053,0.08142110705375671,-0.21541577577590942,-0.2261684536933899,-0.08422736078500748,0.06603478640317917,0.011776481755077839,0.18990404903888702,-0.05967720225453377,0.12387748062610626,0.2049003541469574,-0.2551528811454773,0.14517375826835632,0.18096333742141724,0.0540805421769619,-0.09330157935619354,0.06346888840198517,0.10545578598976135,-0.03805159777402878,0.042456455528736115,0.21787279844284058,0.08965685963630676,-0.035447001457214355,-0.021837428212165833,-0.22124645113945007,0.02847060188651085,0.3407957851886749,0.2845597565174103,-0.004571650642901659,0.11383785307407379,-0.05573958531022072,0.08360444754362106,0.19817417860031128,-0.1601940095424652,-0.058318842202425,-0.09817831963300705,0.15563443303108215,0.14448203146457672,-0.07523445785045624,0.05321837589144707,-0.12588438391685486,-0.26107659935951233,0.09203317761421204,0.0743103101849556,-0.054680876433849335,0.01868578977882862,0.07005427032709122,-0.02098723128437996,-0.1926651895046234,-0.09710872918367386,-0.2532178461551666,0.02181580848991871,0.27373236417770386,0.15052048861980438,0.08334840089082718,0.27968427538871765,0.0445641465485096,-0.07295553386211395,0.24259762465953827,0.17598219215869904,-0.017134729772806168,-0.0250815711915493,-0.16426289081573486,-0.24474216997623444,-0.06752268224954605,-0.03669768199324608,-0.010685578919947147,0.0006147154490463436,0.24058778584003448,-0.0641905888915062,0.21754863858222961,0.2439844012260437
NCT06204809,0.14138561487197876,-0.10987897962331772,-0.07881438732147217,-0.21399171650409698,-0.21069209277629852,-0.04148584604263306,0.09156805276870728,-0.09153586626052856,-0.11987059563398361,0.0814259722828865,0.026044489815831184,-0.0645805299282074,-0.02267076075077057,-0.03988679498434067,-0.3758953809738159,0.1264887899160385,0.09273204952478409,-0.026267534121870995,0.07353142648935318,0.34453603625297546,0.12996284663677216,0.027713919058442116,-0.12269402295351028,0.1703609675168991,-0.05988340452313423,0.08747974783182144,0.17000693082809448,-0.2331019788980484,-0.18423497676849365,-0.1484069526195526,-0.04225200414657593,0.20352803170681,0.13548558950424194,0.04621561989188194,-0.03217673674225807,-0.07132221013307571,0.034365493804216385,0.10272302478551865,0.15880367159843445,-0.15150880813598633,-0.02458030730485916,0.01691586710512638,0.010120823979377747,0.25620758533477783,-0.13693158328533173,-0.03828681260347366,-0.0863657221198082,-0.07102801650762558,0.21611475944519043,-0.29079127311706543,0.015858754515647888,0.07158882170915604,0.26129743456840515,-0.1249324306845665,-0.06371606141328812,-0.006620640400797129,-0.19738774001598358,0.03324506804347038,0.02024339698255062,-0.13335509598255157,0.24674125015735626,0.01972115971148014,0.13910214602947235,0.22494526207447052,-0.095264732837677,0.14661335945129395,0.16920985281467438,-0.24382247030735016,-0.10137978196144104,0.046279940754175186,0.19237560033798218,-0.052144765853881836,0.07406146079301834,-0.06085001304745674,-0.018039802089333534,0.16434402763843536,0.2556651532649994,0.31993567943573,0.18929584324359894,-0.15129263699054718,-0.272047758102417,0.1185525432229042,0.1770837903022766,-0.012633363716304302,0.14916299283504486,-0.13525092601776123,0.01246468722820282,0.10155719518661499,0.22572468221187592,-0.023981468752026558,0.004407711327075958,-0.22476911544799805,0.03501962125301361,-0.05666483938694,0.04827195405960083,0.06603621691465378,-0.3257254660129547,-0.15541072189807892,0.2296781986951828,0.019932128489017487,-0.05103401839733124,0.07582791149616241,-0.18547046184539795,-0.043368663638830185,-0.08625397831201553,-0.011270652525126934,-0.014424006454646587,-0.09103257209062576,0.025120729580521584,-0.05414246395230293,0.022210439667105675,0.24771833419799805,0.05857289209961891,-0.016964493319392204,-0.09337792545557022,0.21193520724773407,-0.1388864368200302,-0.02814806066453457,-0.1075470969080925,0.05121910572052002,-0.0255042165517807,-0.18541674315929413,-0.159812331199646,-0.12967549264431,0.22151947021484375,0.3031424283981323,0.236480712890625,-0.11467650532722473
NCT06255782,0.03860761225223541,-0.06556396186351776,0.0923464223742485,-0.03724552318453789,-0.06804515421390533,-0.08472293615341187,-0.0525832399725914,-0.11771903932094574,-0.12068840116262436,0.2376701384782791,-0.10945701599121094,-0.05708129331469536,-0.07908327877521515,-0.016844291239976883,-0.4050053060054779,0.12156472355127335,0.044950466603040695,-0.025949394330382347,-0.04448477551341057,0.14052951335906982,-0.105455681681633,-0.1798878014087677,0.10630981624126434,0.07778473198413849,-0.14645600318908691,-0.05616985633969307,0.14408473670482635,-0.3369382917881012,-0.13122019171714783,-0.04061635956168175,0.04388026148080826,-0.036069564521312714,0.10767235606908798,0.07305634766817093,-0.021076465025544167,-0.05134537070989609,0.18440349400043488,0.13076730072498322,0.1343684196472168,-0.05654585361480713,0.003041553543880582,0.1561102420091629,0.044376831501722336,0.2778853476047516,0.10990899801254272,-0.07316875457763672,-0.06952968239784241,-0.023354152217507362,0.203988716006279,-0.1819755584001541,-0.09900393337011337,0.027098242193460464,0.1651589423418045,-0.06410206854343414,-0.0173647440969944,0.26643115282058716,-0.27488699555397034,-0.0761837512254715,0.07497716695070267,-0.07268287241458893,0.15559621155261993,0.09836724400520325,0.15316841006278992,0.12634839117527008,0.060322053730487823,0.09906746447086334,0.33241191506385803,-0.1799803227186203,-0.14373889565467834,-0.03870312497019768,0.027946803718805313,-0.12918499112129211,0.036031585186719894,-0.10075221955776215,0.06308300793170929,0.2066992074251175,0.18578886985778809,0.23005740344524384,0.2275819033384323,-0.22158317267894745,-0.18099315464496613,-0.019590524956583977,0.08778771013021469,0.02805851772427559,0.15569274127483368,-0.04447902739048004,0.05338600277900696,0.18362942337989807,0.20285341143608093,0.06075068563222885,-0.16361773014068604,-0.04111092910170555,0.048799630254507065,-0.03423764184117317,-0.015894096344709396,0.001038053655065596,-0.20212280750274658,-0.08027348667383194,0.1454373300075531,-0.11139645427465439,-0.1026192456483841,0.06583337485790253,-0.09524478018283844,-0.07154471427202225,0.03827134147286415,-0.07752007246017456,-0.25496917963027954,-0.057631947100162506,0.2643328607082367,-0.13030989468097687,-0.0018615782028064132,0.3555860221385956,0.09094759076833725,0.1628524512052536,-0.07202448695898056,0.21749787032604218,-0.08561156690120697,-0.03550592437386513,-0.019209975376725197,-0.13424794375896454,-0.11634371429681778,-0.11436885595321655,-0.012254184111952782,-0.31164950132369995,0.08270926773548126,0.2412222921848297,0.16523189842700958,-0.08673009276390076
NCT06377930,0.007113831117749214,-0.10148030519485474,0.056108567863702774,-0.020220741629600525,-0.13764014840126038,-0.034494418650865555,0.08085918426513672,-0.04909360036253929,-0.15432462096214294,0.12062957882881165,-0.05460396409034729,-0.07850863039493561,-0.01937168464064598,-0.008837658911943436,-0.46098119020462036,0.17678825557231903,0.18341824412345886,-0.08626963943243027,0.034790679812431335,0.07758636772632599,-0.10619739443063736,-0.11502684652805328,-0.113535076379776,0.034411270171403885,-0.12752816081047058,-0.13667364418506622,0.11877018958330154,-0.1881597340106964,-0.10225663334131241,-0.20868635177612305,-0.11646391451358795,0.07324788719415665,0.2067209929227829,0.0366477444767952,-0.03975647687911987,0.0361831858754158,0.07939115166664124,0.08785568177700043,0.3502333164215088,-0.021302539855241776,0.13127639889717102,0.34830713272094727,-0.009491054341197014,0.17776210606098175,-0.030132824555039406,-0.11111629009246826,-0.10501711815595627,0.04289451986551285,0.37295323610305786,-0.25784942507743835,0.09989224374294281,-0.011937901377677917,0.2135755717754364,-0.26514899730682373,-0.13148385286331177,0.0836869478225708,-0.24693113565444946,-0.053444571793079376,0.10018695145845413,-0.10780340433120728,0.12443237006664276,0.0747380405664444,0.2316025197505951,0.15332531929016113,0.11926925182342529,0.08645021915435791,0.2712000608444214,-0.27046048641204834,0.02684524469077587,0.052460916340351105,0.07900749146938324,-0.0752277597784996,0.07058445364236832,-0.0573352575302124,0.017594747245311737,0.12836402654647827,0.33056509494781494,0.2025330662727356,0.1261742264032364,-0.10929371416568756,-0.10232385247945786,0.03387144207954407,0.10005912184715271,0.048290252685546875,0.1391565203666687,-0.06213611736893654,0.04616894572973251,0.09945300221443176,0.2209027111530304,-0.09748098999261856,-0.13867981731891632,-0.21921223402023315,0.10460928082466125,0.017534911632537842,-0.07952813059091568,0.018237240612506866,-0.37285664677619934,-0.07952480018138885,0.15801024436950684,-0.30256086587905884,-0.0009205788373947144,-0.044743914157152176,-0.012533159926533699,-0.11836526542901993,-0.09654198586940765,-0.0652230829000473,-0.04717534780502319,-0.053212761878967285,0.09082189202308655,-0.17526459693908691,0.04447939246892929,0.18632061779499054,-0.0025760196149349213,-0.04366188123822212,0.004042698070406914,0.10732471942901611,-0.07243545353412628,0.002451990731060505,0.04835711792111397,-0.02990596741437912,-0.17209123075008392,-0.2744569182395935,0.12387732416391373,-0.27625447511672974,0.135333850979805,0.22186048328876495,0.38784414529800415,-0.008158067241311073
NCT06601192,0.050474558025598526,-0.09845029562711716,-0.0684872418642044,0.021016329526901245,-0.1368989795446396,0.043003495782613754,-0.012608639895915985,-0.09029292315244675,-0.04866139590740204,0.09487298130989075,-0.05402370169758797,-0.24182991683483124,-0.1206224337220192,0.08706259727478027,-0.37563928961753845,0.05337138473987579,0.03280853107571602,-0.026504134759306908,0.04801974818110466,0.10723341256380081,-0.11862511187791824,-0.024624302983283997,-0.14046958088874817,0.06858813762664795,-0.14488045871257782,-0.03894444555044174,0.3444092273712158,-0.32244840264320374,-0.12998934090137482,-0.18069519102573395,0.07752463966608047,-0.03274429216980934,0.07607657462358475,0.0853772982954979,-0.191484734416008,0.058586787432432175,-0.010583627037703991,0.16954271495342255,0.054088044911623,-0.06373802572488785,-0.1026352271437645,0.2081657201051712,-0.14883939921855927,0.2501436471939087,0.2269609570503235,0.012505613267421722,-0.12302843481302261,0.008977421559393406,0.1463322788476944,-0.1534908562898636,0.05975707247853279,0.014171401970088482,0.1391877382993698,-0.06367957592010498,-0.0374065600335598,-0.157096728682518,-0.2625638246536255,-0.18006081879138947,0.0036704987287521362,-0.11618617177009583,0.21698997914791107,0.17024265229701996,0.018577763810753822,0.195884108543396,-0.08407027274370193,0.010225300677120686,0.06122146546840668,-0.03841235861182213,-0.10275714844465256,0.03834066540002823,0.13753992319107056,-0.19312900304794312,-0.17491130530834198,-0.030669471248984337,-0.013400259427726269,0.19766710698604584,0.20180030167102814,0.12476643919944763,0.1520010083913803,-0.13949348032474518,-0.24860171973705292,0.010721352882683277,0.07140763849020004,-0.13716982305049896,0.12364127486944199,-0.1510481834411621,-0.04435746744275093,-0.022508611902594566,0.09641647338867188,0.04542078077793121,0.08176735788583755,-0.17494554817676544,-0.009108804166316986,0.19425542652606964,-0.07664088904857635,0.03359737619757652,-0.2730734646320343,-0.0557243637740612,-0.000654950737953186,-0.05198926106095314,-0.20607320964336395,0.08720425516366959,-0.1291993111371994,0.0006941631436347961,0.13564087450504303,0.03953222557902336,-0.03904746100306511,-0.00715288519859314,0.15603692829608917,-0.10370057821273804,0.0354609452188015,0.13487879931926727,0.01005378644913435,0.06499988585710526,0.14663775265216827,0.09547140449285507,-0.002100995508953929,-0.013940602540969849,-0.067531518638134,0.13439173996448517,-0.07887522131204605,-0.21736741065979004,0.18418772518634796,-0.029576322063803673,0.13104315102100372,0.0760006308555603,0.0612160749733448,-0.10969678312540054
NCT06663137,0.28671130537986755,-0.11371210217475891,-0.11525824666023254,-0.028377443552017212,-0.15757694840431213,-0.18805690109729767,-0.0601285956799984,-0.15992294251918793,-0.1070326492190361,0.08202451467514038,-0.04719160124659538,-0.08501183986663818,-0.1311388462781906,0.011273090727627277,-0.3571878969669342,0.19199448823928833,-0.022384176030755043,0.008349485695362091,-0.14092010259628296,0.31141453981399536,-0.10599547624588013,-0.03877419978380203,-0.08578867465257645,0.09771353006362915,-0.15471138060092926,-0.02790258824825287,0.1687493920326233,-0.3755181133747101,-0.09791908413171768,-0.08291959762573242,-0.08742988854646683,0.06676250696182251,0.12318184226751328,0.06578570604324341,0.017913103103637695,-0.0715772733092308,0.15437869727611542,0.1580803096294403,0.1654990166425705,-0.11475063115358353,-0.17122943699359894,0.0749363824725151,-0.16996371746063232,0.3030846416950226,0.09159821271896362,-0.06383080035448074,0.04307565093040466,0.023690490052103996,0.26661762595176697,-0.28947436809539795,0.029914073646068573,-0.052838850766420364,0.24728171527385712,-0.14950376749038696,-0.05621732398867607,0.08840671181678772,-0.27091488242149353,-0.1372290700674057,0.24605399370193481,-0.18654413521289825,0.2306671142578125,0.04678575322031975,0.013450703583657742,0.16428245604038239,0.09317564219236374,0.15484434366226196,0.257001131772995,-0.17231512069702148,-0.08057675510644913,0.016298240050673485,0.007909528911113739,-0.09785040467977524,0.07414845377206802,-0.1338234692811966,0.007254064083099365,0.25013062357902527,0.20464567840099335,0.20599132776260376,0.14009177684783936,-0.24220819771289825,-0.2647257149219513,0.02853487618267536,0.04389044642448425,0.031708892434835434,0.13298742473125458,-0.1366858333349228,0.1693301945924759,0.14504167437553406,0.3606318235397339,-0.18106095492839813,-0.03683191165328026,-0.04905572906136513,0.008368690498173237,0.05227738618850708,-0.04569729045033455,0.01865086890757084,-0.1454896330833435,-0.009952773340046406,0.19997410476207733,0.05608387291431427,-0.07529257982969284,0.14000143110752106,-0.1675158143043518,-0.05404267832636833,0.07641928642988205,-0.050812479108572006,-0.1042616069316864,0.0499006025493145,0.13593335449695587,-0.07266459614038467,-0.008555129170417786,0.2835964858531952,-0.03078942559659481,0.04439115151762962,0.15376533567905426,0.24322976171970367,-0.1142447292804718,-0.16987277567386627,0.021744564175605774,-0.043992429971694946,-0.15159325301647186,-0.2084965705871582,0.04865529015660286,-0.2256203144788742,0.20638972520828247,0.18279699981212616,0.26642879843711853,-0.05503303185105324
NCT06736509,0.06917041540145874,-0.02964303456246853,0.00029080608510412276,-0.01888706348836422,-0.2476007342338562,-0.054131731390953064,-0.1563151776790619,-0.09199995547533035,-0.21648043394088745,0.09781187772750854,-0.1869022101163864,-0.2332860678434372,-0.10660946369171143,0.08909646421670914,-0.25001242756843567,0.24704031646251678,0.0501762218773365,-0.02332870475947857,0.11589321494102478,0.20026391744613647,-0.01329851895570755,-0.10055267810821533,-0.13973136246204376,0.012652598321437836,-0.07802186161279678,-0.1324104219675064,0.30742147564888,-0.23572756350040436,-0.18232345581054688,-0.165308877825737,0.02697959542274475,0.0002744595112744719,0.1931215524673462,-0.08523914963006973,-0.03982307016849518,0.049200039356946945,-0.07412663847208023,0.09556040912866592,0.13450480997562408,-0.06412189453840256,-0.008840173482894897,0.2518394887447357,-0.07563310116529465,0.27095940709114075,-0.004149014595896006,-0.007572529371827841,-0.10996494442224503,0.040621355175971985,0.14676912128925323,-0.23308336734771729,0.13743628561496735,0.16446340084075928,0.1769452840089798,-0.12532870471477509,-0.08622806519269943,0.005528142210096121,-0.28193771839141846,-0.10136864334344864,0.06856288015842438,-0.13126115500926971,0.15059545636177063,0.15181322395801544,0.17786984145641327,0.1466846615076065,-0.11435957998037338,0.07329987734556198,0.05581388249993324,-0.186260387301445,0.023427689447999,0.09543351083993912,0.1540408730506897,-0.0676293596625328,-0.07470069080591202,0.08960486203432083,-0.11604341119527817,0.31922826170921326,0.219412699341774,0.17151133716106415,0.07047030329704285,0.05309857055544853,-0.14522188901901245,0.08398530632257462,0.004761090036481619,0.08540061861276627,0.12270259857177734,-0.15002010762691498,0.10901454836130142,-0.0716601088643074,0.17731602489948273,-0.03365891054272652,0.07620906084775925,-0.1771075278520584,-0.025684909895062447,0.08955022692680359,-0.1823616772890091,0.010006512515246868,-0.3518339693546295,-0.09205470234155655,0.19674038887023926,-0.16450490057468414,-0.12456107139587402,-0.004398713354021311,-0.05086829140782356,-0.14443597197532654,0.004527618642896414,-0.04419625923037529,0.08514411002397537,-0.05222936347126961,0.009711052291095257,-0.10660871118307114,0.18273471295833588,0.1485121101140976,0.014890228398144245,-0.017009295523166656,0.14109812676906586,0.05116872861981392,-0.11700942367315292,-0.1249767541885376,-0.007778135593980551,0.1683499664068222,-0.06919735670089722,-0.2613816261291504,0.14137469232082367,-0.018809178844094276,0.2155635952949524,0.29185545444488525,0.23742522299289703,-0.06309980154037476
NCT05579249,0.22349895536899567,-0.1104946956038475,-0.046173855662345886,0.022543832659721375,-0.11184646189212799,-0.05082008242607117,-0.1859729290008545,-0.007939476519823074,-0.1164766401052475,0.1514134407043457,-0.047271728515625,-0.19003114104270935,-0.07845607399940491,0.08794386684894562,-0.3256862759590149,0.03152724355459213,0.09763792902231216,-0.05680361017584801,0.06926681101322174,0.24286310374736786,-0.04404544085264206,0.05587156489491463,-0.1471787691116333,-0.01378597877919674,-0.12786205112934113,0.0970393493771553,0.05869479849934578,-0.25006937980651855,-0.020453009754419327,-0.05639593303203583,0.03389457240700722,-0.06550084799528122,0.03252670168876648,-0.12902522087097168,-0.02064397558569908,-0.059899307787418365,0.13825854659080505,0.096273273229599,-0.05055437982082367,-0.12455364316701889,-0.07402805984020233,0.12902617454528809,0.14371080696582794,0.17298972606658936,0.024350399151444435,-0.04004915803670883,-0.04229096323251724,-0.11327498406171799,-0.035360708832740784,-0.35749781131744385,-0.08562920242547989,0.05919888615608215,0.5482308268547058,-0.07032308727502823,-0.11310021579265594,0.19519194960594177,-0.20603114366531372,0.04909352585673332,0.10437795519828796,-0.17083416879177094,0.05684148520231247,-0.08239705860614777,0.055780138820409775,0.19154387712478638,-0.056677207350730896,0.16348430514335632,0.19466257095336914,-0.31868404150009155,-0.12121626734733582,0.06566289812326431,0.07946789264678955,-0.08865338563919067,0.009685695171356201,-0.002314973622560501,-0.04368111491203308,0.21531304717063904,0.11656583845615387,0.18230831623077393,0.10177288204431534,-0.222089946269989,-0.19083914160728455,0.07743016630411148,0.15619736909866333,0.09057793021202087,0.07080614566802979,0.0009377729147672653,0.3613194227218628,-0.1354110836982727,0.15232595801353455,-0.007786056026816368,0.08010508865118027,-0.13742896914482117,0.03178596496582031,0.055247411131858826,-0.1517896056175232,0.05344928056001663,-0.15372347831726074,-0.18779490888118744,0.12921063601970673,-0.08015094697475433,0.007305843755602837,0.14053761959075928,-0.0035913940519094467,-0.04146140068769455,-0.09029064327478409,-0.0301845520734787,-0.293718546628952,-0.2093779444694519,0.1128828376531601,0.14413610100746155,0.13225845992565155,0.2973344326019287,0.06464920938014984,0.1251153200864792,-0.056094128638505936,0.2354920655488968,-0.046443287283182144,-0.1723344326019287,0.0008294638246297836,-0.010251598432660103,0.054953545331954956,-0.10984933376312256,-0.16477970778942108,-0.0014810077846050262,0.16812345385551453,0.15467111766338348,0.23557183146476746,-0.11632200330495834
NCT06034275,0.15825121104717255,-0.025995707139372826,-0.04837753251194954,0.003330801846459508,-0.20204989612102509,-0.15649212896823883,-0.1091734766960144,-0.02446710504591465,-0.07514197379350662,0.031080424785614014,-0.09779325872659683,-0.20433032512664795,-0.2949548065662384,0.03769245371222496,-0.25658321380615234,0.002780050039291382,0.025860195979475975,0.004739989992231131,-0.030406340956687927,0.20048850774765015,-0.03458311781287193,0.007231181021779776,0.04281668737530708,-0.05189153924584389,-0.10099440068006516,-0.07317782938480377,0.20219694077968597,-0.24349148571491241,-0.21482093632221222,-0.26063886284828186,0.010978604666888714,0.10784653574228287,0.30202969908714294,0.09537825733423233,-8.732577407499775e-05,0.11920934915542603,0.0877903401851654,0.02655763365328312,0.20290620625019073,0.12782815098762512,-0.018822288140654564,0.09974244236946106,-0.03855106234550476,0.1651163101196289,0.14559797942638397,0.1606842428445816,-0.19446255266666412,0.04163137450814247,0.24135088920593262,-0.22504208981990814,-0.05304383113980293,0.026020511984825134,0.1563148945569992,-0.07531102746725082,-0.08328205347061157,0.03971506655216217,-0.12350835651159286,-0.2050742357969284,0.2198055237531662,-0.24113702774047852,0.24764730036258698,0.15896070003509521,0.13291889429092407,0.07264020293951035,0.079327292740345,0.13028156757354736,0.0796932652592659,0.07409292459487915,-0.21673452854156494,0.03283897414803505,0.1936202496290207,-0.18542225658893585,0.07848858088254929,-0.0193378496915102,0.042148757725954056,0.17949672043323517,0.06058025360107422,-0.006507893558591604,0.1410512775182724,-0.25681304931640625,-0.22351618111133575,0.014826546423137188,-0.09866873174905777,0.03016943670809269,0.057368576526641846,-0.11287295818328857,0.1835600882768631,0.012535405345261097,0.21671618521213531,-0.05719580128788948,-0.03296083211898804,-0.18221652507781982,-0.07893788069486618,0.01895429752767086,-0.173329696059227,0.08225593715906143,-0.3024357259273529,-0.1263505071401596,0.037125278264284134,-0.09707043319940567,-0.21754740178585052,0.19030271470546722,0.0013605058193206787,-0.0543646477162838,0.038601960986852646,-0.07316990941762924,-0.07871279120445251,-0.0781235620379448,0.14413641393184662,-0.062366385012865067,0.11601468175649643,0.10859129577875137,-0.18729621171951294,0.10642305016517639,0.06724747270345688,0.2624419629573822,-0.032021861523389816,-0.23617906868457794,0.037643928080797195,0.09178826957941055,-0.09800263494253159,-0.2688560485839844,0.09130888432264328,-0.1328064650297165,0.1047423705458641,0.2540418803691864,0.04306228831410408,-0.33255597949028015
NCT05065411,0.21152667701244354,-0.0020357936155050993,0.01876096986234188,0.06511199474334717,-0.24889525771141052,-0.13245205581188202,-0.026208067312836647,0.040543027222156525,-0.22060692310333252,0.016009632498025894,-0.166083425283432,-0.042659781873226166,-0.10839764773845673,-0.05516665056347847,-0.1939173936843872,0.034282125532627106,-0.08810347318649292,0.017707936465740204,0.0025724335573613644,0.34240108728408813,-0.0025245517026633024,-0.11905325949192047,-0.0652044266462326,-0.050289858132600784,-0.22499461472034454,-0.09140641987323761,0.03801661357283592,-0.017887752503156662,-0.0928628146648407,-0.12580989301204681,-0.1851947009563446,-0.06688288599252701,0.2612289786338806,-0.004483270458877087,-0.14006829261779785,0.014123219065368176,0.28992903232574463,0.07529157400131226,0.15225350856781006,-0.009177565574645996,-0.10495579242706299,0.13624639809131622,0.0170453991740942,0.2016911506652832,0.05795567110180855,-0.1911609172821045,-0.26678723096847534,-0.0824948325753212,0.19104930758476257,-0.2897028923034668,-0.13540638983249664,-0.14828774333000183,0.2546306252479553,-0.08456887304782867,-0.11211774498224258,0.06506143510341644,-0.17985916137695312,-0.09634598344564438,0.3108055293560028,-0.26916879415512085,0.3791080117225647,0.10725279152393341,0.08255704492330551,0.06939706951379776,0.04103457182645798,0.1270407885313034,0.07356029003858566,-0.14230267703533173,-0.14873524010181427,-0.07317759096622467,0.08898913115262985,-0.01545602548867464,-0.02223781868815422,-0.3093896210193634,0.013182239606976509,0.2775717079639435,0.1358841359615326,0.00981740653514862,0.07564110308885574,-0.22173544764518738,-0.24817876517772675,0.04585595428943634,-0.09568410366773605,-0.08740221709012985,-0.017791181802749634,-0.08689580112695694,0.2446163147687912,0.14832209050655365,0.2135201245546341,-0.11277620494365692,-0.0563700795173645,-0.2284775674343109,-0.05373212695121765,0.18262024223804474,-0.19134850800037384,0.06402935087680817,-0.2374088019132614,0.1657438725233078,0.18126964569091797,0.03605532646179199,-0.1384688764810562,0.23150725662708282,-0.05147805064916611,-0.12918291985988617,-0.004445978906005621,0.04850053787231445,-0.21990199387073517,0.16771531105041504,0.16547074913978577,-0.00018694103346206248,0.042248163372278214,0.17329546809196472,-0.15194210410118103,-0.026194114238023758,0.05781196802854538,0.19401109218597412,-0.07482919096946716,-0.19317418336868286,0.07049435377120972,0.1822013407945633,-0.02123488485813141,-0.2847028374671936,0.12580911815166473,-0.20886000990867615,0.23389878869056702,0.20310291647911072,0.22414660453796387,-0.030405193567276
NCT05424276,0.0064983004704117775,-0.14525747299194336,-0.09387771785259247,-0.037735067307949066,-0.16697511076927185,-0.020928174257278442,-0.04189179092645645,-0.0762522742152214,-0.12790104746818542,0.030909258872270584,-0.045023102313280106,-0.08818183839321136,0.0806792750954628,0.16402384638786316,-0.4418078362941742,-0.018145142123103142,0.13018421828746796,-0.10404729843139648,0.01694873347878456,0.23278836905956268,-0.0611119270324707,0.08588168025016785,-0.1347407102584839,0.06925185024738312,-0.03407613933086395,0.06321608275175095,0.14753654599189758,-0.238843634724617,-0.23368823528289795,-0.11880193650722504,-0.045993153005838394,0.04816040024161339,0.18606559932231903,-0.024381864815950394,0.004203790333122015,0.019301464781165123,-0.0029671727679669857,0.09954514354467392,0.22727608680725098,-0.07169471681118011,0.11781203746795654,0.34154021739959717,-0.0591936893761158,0.29400473833084106,-0.1068328395485878,-0.09697776287794113,-0.1284855604171753,-0.021260589361190796,0.20440706610679626,-0.3842736482620239,0.06251342594623566,0.016049832105636597,0.40118175745010376,-0.14656314253807068,-0.100948765873909,-0.030302565544843674,-0.24088792502880096,-0.04372962564229965,0.0027591257821768522,-0.15882696211338043,0.15303809940814972,-0.01011724304407835,0.05629239231348038,0.2442995011806488,0.0962592288851738,0.15498144924640656,0.20797987282276154,-0.2534657418727875,-0.04826077073812485,0.07465572655200958,0.18071158230304718,-0.09443388879299164,-0.00106974842492491,0.013401424512267113,0.03571714833378792,0.15357638895511627,0.19668063521385193,0.2727878987789154,0.14839133620262146,-0.10722830146551132,-0.1881057471036911,0.04359152540564537,0.21742434799671173,0.09306462109088898,0.1120142787694931,-0.05207531899213791,0.10296118259429932,-0.004947352223098278,0.18708127737045288,-0.10590033233165741,-0.08417835086584091,-0.28621116280555725,0.09994636476039886,0.17312511801719666,-0.06359631568193436,0.10961339622735977,-0.29989203810691833,-0.2485847920179367,0.11842457950115204,-0.1789657324552536,-0.042936693876981735,-0.09583242237567902,0.05134164169430733,-0.1285274177789688,-0.19042599201202393,-0.04845113307237625,-0.05190682411193848,-0.10195312649011612,0.09441179782152176,-0.17466744780540466,0.07804323732852936,0.21060359477996826,0.06507794559001923,-0.0025602609384804964,0.05093258619308472,0.18343544006347656,-0.12421135604381561,-0.060130178928375244,-0.055143821984529495,-0.02170804888010025,-0.06674105674028397,-0.22895801067352295,-0.14267142117023468,-0.020964091643691063,0.22081585228443146,0.23080825805664062,0.29187434911727905,-0.12040779739618301
NCT04887298,0.13337542116641998,0.0035097524523735046,0.05316397547721863,-0.0792321115732193,-0.165516197681427,0.0002857247891370207,-0.05255749449133873,0.012405004352331161,-0.10391431301832199,0.18137741088867188,-0.058667976409196854,-0.13144941627979279,-0.09874218702316284,0.01678999327123165,-0.2379860132932663,0.3071992099285126,-0.09507044404745102,-0.12252052873373032,-0.03861455246806145,0.2713405191898346,-0.0036475062370300293,-0.08068396151065826,-0.10141990333795547,0.21044842898845673,-0.06866968423128128,0.04258562996983528,0.2273130565881729,-0.22181938588619232,-0.036749791353940964,-0.1287633627653122,0.04871897026896477,0.012077271938323975,0.10331783443689346,0.013776200823485851,-0.00419346010312438,-0.14193026721477509,0.02212733030319214,0.058479342609643936,0.021151602268218994,-0.06506513059139252,-0.12642548978328705,0.052159179002046585,-0.06368394941091537,0.2499838024377823,0.10231462866067886,0.03373311832547188,0.05207790061831474,0.11177178472280502,0.018708154559135437,-0.1512507051229477,0.041996508836746216,-0.022618761286139488,0.2213253378868103,-0.18025726079940796,-0.060843575745821,-0.05436822772026062,-0.08395994454622269,-0.10819225758314133,0.11863503605127335,-0.17163147032260895,0.18788164854049683,0.13699178397655487,-0.03150811791419983,0.1454511433839798,-0.1291963756084442,0.1379728615283966,0.08270875364542007,-0.1102568581700325,-0.17488206923007965,-0.07223302870988846,0.0864558294415474,-0.15036703646183014,-0.01367961335927248,-0.022302426397800446,-0.05340274050831795,0.4027176797389984,0.15343548357486725,0.03567759692668915,0.0880037248134613,-0.02690747380256653,-0.11409898847341537,0.10917138308286667,0.08586382120847702,-0.02796260453760624,-0.07515906542539597,-0.18190808594226837,0.04983747377991676,-0.04057933762669563,0.08668182045221329,-0.06146076321601868,0.17385287582874298,-0.1276911050081253,0.06567644327878952,-0.011513556353747845,-0.21166200935840607,0.05468514934182167,-0.23652243614196777,-0.07542778551578522,0.15033115446567535,-0.0036469597835093737,-0.035370636731386185,0.21838907897472382,-0.08904736489057541,-0.15829332172870636,-0.07719139009714127,-0.11108812689781189,0.04231363162398338,0.0042080930434167385,0.08679177612066269,0.24088318645954132,0.08141569793224335,0.1859428733587265,-0.09742671251296997,-0.0678740069270134,-0.021078595891594887,0.09039682149887085,-0.042220354080200195,-0.12436971813440323,-0.0014810537686571479,0.17409150302410126,-0.11339174956083298,-0.0733657255768776,0.06598740071058273,0.04353583976626396,0.06274911016225815,0.18463511765003204,0.1772121638059616,-0.07297668606042862
NCT04073498,0.1601671427488327,-0.02589365467429161,0.1311149001121521,0.07429374009370804,-0.08439364284276962,-0.10628686100244522,-0.011736984364688396,-0.0798201709985733,-0.07929910719394684,0.15622910857200623,-0.0972854271531105,-0.044375814497470856,-0.10439466685056686,-0.0007921670330688357,-0.35273781418800354,0.2343481332063675,0.0338778980076313,-0.06586313992738724,-0.030702246353030205,0.13913026452064514,-0.054019730538129807,-0.17970363795757294,-0.07671217620372772,0.12509839236736298,-0.16650332510471344,-0.0022403544280678034,0.20406176149845123,-0.3112459182739258,-0.04311219975352287,-0.10416430979967117,0.053089167922735214,-0.05342094227671623,0.1610308438539505,0.005012609995901585,-0.06434442102909088,-0.05943167954683304,0.17561788856983185,0.26606306433677673,0.015003426000475883,-0.09702115505933762,-0.19313056766986847,0.11178161203861237,0.09599147737026215,0.16142582893371582,0.19832681119441986,-0.08045344799757004,-0.038404542952775955,-0.028535155579447746,0.08990786969661713,-0.1749064028263092,-0.024852314963936806,-0.08921254426240921,0.04706018418073654,-0.16829709708690643,-0.01859057880938053,0.0846298336982727,-0.2388475090265274,-0.1463804543018341,0.009822552092373371,-0.16620035469532013,0.1536828726530075,0.11152251809835434,0.09836457669734955,0.10603012144565582,-0.019404428079724312,0.1028534322977066,0.2134411334991455,-0.20968051254749298,-0.13858579099178314,-0.08710919320583344,0.046411726623773575,-0.1298992931842804,-0.0030643257778137922,-0.17973144352436066,0.008706514723598957,0.27604642510414124,0.16253817081451416,0.15047596395015717,0.13717398047447205,-0.08345135301351547,-0.18552426993846893,0.10906464606523514,-0.04225271940231323,-0.07782699912786484,-0.13139726221561432,-0.1060439869761467,0.08682584762573242,0.017922988161444664,0.16177687048912048,0.10707312077283859,0.07982473820447922,-0.06090361252427101,-0.0011054022470489144,-0.000668063759803772,-0.2377004772424698,-0.06866628676652908,-0.1935388594865799,0.014639417640864849,0.03852700814604759,-0.09870661795139313,-0.1385297030210495,0.1857592910528183,-0.13905055820941925,-0.08622604608535767,0.053659312427043915,-0.031830865889787674,-0.1739961802959442,0.05715755745768547,0.11707491427659988,0.007927182130515575,0.012846552766859531,0.3732615113258362,0.12985631823539734,0.10853353887796402,-0.11122816056013107,0.1958603858947754,-0.045767221599817276,-0.060826625674963,0.024754365906119347,0.008350872434675694,-0.11912871897220612,-0.06591546535491943,0.08857516199350357,-0.18015913665294647,0.025413095951080322,0.17009000480175018,0.14754369854927063,0.035285692662000656
