nct_id,emb_0,emb_1,emb_2,emb_3,emb_4,emb_5,emb_6,emb_7,emb_8,emb_9,emb_10,emb_11,emb_12,emb_13,emb_14,emb_15,emb_16,emb_17,emb_18,emb_19,emb_20,emb_21,emb_22,emb_23,emb_24,emb_25,emb_26,emb_27,emb_28,emb_29,emb_30,emb_31,emb_32,emb_33,emb_34,emb_35,emb_36,emb_37,emb_38,emb_39,emb_40,emb_41,emb_42,emb_43,emb_44,emb_45,emb_46,emb_47,emb_48,emb_49,emb_50,emb_51,emb_52,emb_53,emb_54,emb_55,emb_56,emb_57,emb_58,emb_59,emb_60,emb_61,emb_62,emb_63,emb_64,emb_65,emb_66,emb_67,emb_68,emb_69,emb_70,emb_71,emb_72,emb_73,emb_74,emb_75,emb_76,emb_77,emb_78,emb_79,emb_80,emb_81,emb_82,emb_83,emb_84,emb_85,emb_86,emb_87,emb_88,emb_89,emb_90,emb_91,emb_92,emb_93,emb_94,emb_95,emb_96,emb_97,emb_98,emb_99,emb_100,emb_101,emb_102,emb_103,emb_104,emb_105,emb_106,emb_107,emb_108,emb_109,emb_110,emb_111,emb_112,emb_113,emb_114,emb_115,emb_116,emb_117,emb_118,emb_119,emb_120,emb_121,emb_122,emb_123,emb_124,emb_125,emb_126,emb_127
NCT06957496,0.13300594687461853,-0.04655345901846886,0.06903950870037079,0.025653265416622162,-0.30596819519996643,-0.1773720383644104,-0.10109571367502213,-0.06594562530517578,-0.11553587019443512,0.13139072060585022,-0.3754575550556183,-0.1307520866394043,-0.2772069573402405,0.19858404994010925,-0.319246768951416,0.2849896550178528,-0.034868862479925156,-0.011002805083990097,0.003372829407453537,0.36717432737350464,0.002734009176492691,0.0008483603596687317,-0.05476324260234833,0.1592211127281189,-0.16127273440361023,0.05267614126205444,0.1543477326631546,-0.3560389280319214,-0.13636431097984314,-0.04971659928560257,-0.05770169198513031,-0.03342306613922119,0.31917107105255127,-0.07687564194202423,-0.06964803487062454,0.009084101766347885,0.0766737088561058,0.2947191596031189,0.08743569254875183,0.022965960204601288,-0.1516544222831726,0.17275208234786987,0.07884115725755692,0.2509261965751648,-0.019900228828191757,-0.03468084707856178,0.1167047917842865,-0.0645049661397934,0.14177195727825165,-0.2517286539077759,0.0370941236615181,0.04885783791542053,0.11658148467540741,-0.24611227214336395,0.01847270503640175,0.09742888808250427,-0.2986542582511902,-0.04716670885682106,-0.0018874555826187134,-0.3884751796722412,0.20786935091018677,0.07748738676309586,0.20746584236621857,0.13582760095596313,-0.04179573431611061,0.18997298181056976,0.22590266168117523,-0.16919565200805664,-0.09290174394845963,0.20621773600578308,0.09172637015581131,-0.17067047953605652,0.18456017971038818,-0.11346416920423508,-0.030073627829551697,0.27750295400619507,0.18194854259490967,0.37084928154945374,0.18489781022071838,-0.09197327494621277,-0.2785658836364746,0.1631302684545517,0.04175311326980591,0.1194692924618721,-0.10774169862270355,-0.15329211950302124,0.10631802678108215,-0.021010909229516983,0.30069708824157715,0.06348142772912979,0.09953844547271729,-0.19687384366989136,-0.07522405683994293,-0.06538985669612885,-0.1493370682001114,-0.03754737973213196,-0.30004632472991943,-0.202588751912117,0.1569746732711792,0.0465698279440403,-0.11718489229679108,0.09592561423778534,-0.04463750869035721,-0.2859872877597809,-0.07539232820272446,-0.05802867189049721,-0.03396070748567581,0.021746184676885605,0.054069407284259796,-0.05166705697774887,0.07371002435684204,0.38848036527633667,0.028813820332288742,0.08036351203918457,-0.09624264389276505,0.33389073610305786,-0.12861621379852295,-0.02727917768061161,-0.0131731778383255,-0.03198148310184479,-0.1809188723564148,-0.07372912019491196,-0.06337432563304901,-0.13888657093048096,0.24757243692874908,0.3515148162841797,0.39067530632019043,0.068102166056633
NCT06955091,-0.03910539299249649,-0.21040324866771698,-0.10673008114099503,-0.06197148561477661,0.02835729345679283,0.012411748990416527,-0.04200262576341629,-0.09701135009527206,-0.28579336404800415,0.2824593186378479,-0.09337563812732697,-0.17766305804252625,0.008739042095839977,-0.006260761525481939,-0.11079610884189606,0.2908240556716919,0.06345058977603912,-0.09428250789642334,0.18619827926158905,0.12272155284881592,-0.1248023733496666,-0.10212838649749756,-0.27639174461364746,-0.0070145996287465096,-0.14754562079906464,-0.08239231258630753,0.14093756675720215,-0.20575280487537384,-0.13105890154838562,0.03315349668264389,0.14677897095680237,0.10337139666080475,0.07504253089427948,0.06297966092824936,-0.08516009896993637,-0.14937853813171387,-0.13108736276626587,-4.3272972106933594e-05,-0.06160011142492294,-0.08095888793468475,0.0031180239748209715,0.0787682756781578,0.07900415360927582,0.1856778860092163,0.2067447453737259,-0.09395940601825714,-0.05962073802947998,0.008938601240515709,0.1685820072889328,-0.2423221617937088,0.1348351389169693,0.1288064420223236,0.3551705479621887,-0.07520879060029984,-0.20793156325817108,0.11345361173152924,-0.12735888361930847,0.0037125260569155216,0.044342685490846634,-0.2338176965713501,0.2378341257572174,-0.03231696039438248,0.16301937401294708,0.16155335307121277,-0.1559404581785202,0.002847038209438324,0.2735508978366852,-0.30729275941848755,-0.30938172340393066,-0.19031932950019836,0.08319444954395294,-0.32084783911705017,0.0002501115086488426,-0.04423423856496811,-0.06261030584573746,0.23196911811828613,0.11539287865161896,0.17820784449577332,-0.07830117642879486,-0.27938112616539,-0.20111021399497986,0.06386210024356842,0.38310331106185913,0.1968495398759842,0.21608027815818787,-0.25227290391921997,0.10969877243041992,0.02497020736336708,-0.06126735359430313,0.17020902037620544,0.28691908717155457,-0.19575557112693787,0.26458048820495605,0.13895584642887115,-0.10359339416027069,-0.08431818336248398,-0.3252626061439514,-0.16544680297374725,0.08024761825799942,-0.1921544373035431,-0.007674914784729481,-0.11338142305612564,-0.03560754656791687,-0.1642974466085434,-0.13924525678157806,-0.13720396161079407,-0.1647091656923294,-0.08908922970294952,0.03665187954902649,0.27749478816986084,0.13662448525428772,0.21601638197898865,-0.030145620927214622,0.09726142883300781,-0.1137065663933754,0.18512912094593048,0.0063087716698646545,0.08531101047992706,0.0036516464315354824,0.15154893696308136,-0.011038480326533318,0.13990098237991333,-0.06732121855020523,-0.0003030046937055886,0.0396583154797554,0.02812798321247101,0.2999636232852936,0.14537401497364044
NCT06955780,0.20963464677333832,-0.22088924050331116,0.18949627876281738,-0.25488758087158203,-0.17706704139709473,-0.14568032324314117,-0.1263929158449173,-0.04576095566153526,-0.16438594460487366,0.13439960777759552,0.01245065126568079,-0.021423572674393654,-0.10003781318664551,-0.07656960934400558,-0.3845877945423126,0.24629762768745422,0.19398628175258636,0.0936049222946167,0.18835237622261047,0.14900553226470947,0.041111886501312256,0.07275273650884628,-0.33823204040527344,0.03443354368209839,-0.0026971185579895973,-0.02048238180577755,0.1000804603099823,-0.004295911639928818,-0.04546869173645973,-0.1618722528219223,0.06464412808418274,0.07417262345552444,0.16411839425563812,-0.0027798060327768326,-0.08379389345645905,-0.04325198009610176,0.2972382605075836,0.3311007022857666,-0.05481008440256119,-0.049234502017498016,-0.06860274821519852,0.1052432432770729,0.3518109917640686,0.12307345122098923,0.042883116751909256,-0.016198784112930298,-0.2119818925857544,-0.08149156719446182,0.09231118857860565,-0.2648201584815979,0.006969441659748554,0.2988593578338623,0.44856253266334534,-0.07637940347194672,-0.20089435577392578,0.11513124406337738,-0.207477867603302,0.026471178978681564,0.0013117007911205292,-0.3273404538631439,0.18353350460529327,0.11582393944263458,0.22119173407554626,0.24458959698677063,-0.2515638768672943,0.1282382607460022,0.17924544215202332,-0.3213306963443756,-0.13381342589855194,-0.08147262036800385,0.13973824679851532,0.035574715584516525,0.00869046151638031,-0.19790828227996826,-0.10831251740455627,-0.04172267019748688,0.2663886845111847,0.18469640612602234,0.05330595374107361,-0.08381180465221405,-0.25431329011917114,0.016307728365063667,0.13544198870658875,0.11869576573371887,-0.04018700495362282,-0.12464799731969833,0.14897355437278748,-0.12546774744987488,0.16528943181037903,-0.06981848180294037,0.13212862610816956,-0.1918441206216812,0.21443873643875122,-0.1571674942970276,-0.23648428916931152,-0.07805092632770538,-0.385381817817688,-0.09957822412252426,0.09568321704864502,-0.11575070023536682,0.13057561218738556,0.23499110341072083,0.2243475317955017,-0.040198877453804016,-0.006931869313120842,-0.11176890879869461,-0.3255053162574768,-0.1431885063648224,0.1142222136259079,0.20353072881698608,0.09162965416908264,0.3950355052947998,0.13371960818767548,0.08610358089208603,-0.1083492711186409,0.1533421128988266,-0.025863634422421455,-0.19847354292869568,0.008306508883833885,0.036149799823760986,0.06606867164373398,-0.33890500664711,0.07764839380979538,-0.04936956614255905,0.25825321674346924,0.20994967222213745,0.3521345853805542,0.011630170047283173
NCT06955351,0.07873605936765671,-0.24005205929279327,-0.028155280277132988,-0.10152214020490646,-0.1318032294511795,-0.21361711621284485,0.013719708658754826,-0.13369616866111755,-0.189164400100708,0.15084794163703918,0.12253779917955399,-0.003642339026555419,-0.008970482274889946,-0.06965510547161102,-0.2245236486196518,0.09704159200191498,0.06827933341264725,0.027170605957508087,0.06314912438392639,0.08709445595741272,-0.14234350621700287,-0.023047221824526787,-0.24710999429225922,-0.04131641238927841,-0.04679588973522186,-0.24171662330627441,0.058227524161338806,-0.2676330506801605,-0.007698879111558199,0.005174130201339722,0.040440626442432404,0.05484091863036156,-0.0133062107488513,0.13764305412769318,-0.021511483937501907,-0.09581927210092545,0.07750611752271652,0.19786646962165833,0.022865019738674164,-0.06195859611034393,-0.06241296976804733,0.03921051695942879,0.06164991110563278,0.09607791900634766,0.2538817226886749,-0.022815706208348274,-0.21731685101985931,0.02025635726749897,0.18394285440444946,-0.2705574631690979,0.07335758954286575,0.15508025884628296,0.27858445048332214,-0.14787855744361877,-0.11884821951389313,0.12121515721082687,-0.06866949796676636,-0.07650832831859589,0.17773526906967163,-0.10546708852052689,0.3483526110649109,0.08467308431863785,0.22684785723686218,0.22814689576625824,-0.016601847484707832,-0.03610924258828163,0.33937886357307434,-0.26014450192451477,-0.2103215605020523,-0.11298529803752899,-0.026827948167920113,-0.08853217214345932,0.0841703936457634,-0.16215674579143524,-0.03586740791797638,0.14023715257644653,0.26368850469589233,0.25626543164253235,-0.03885927423834801,-0.2917737364768982,-0.12872947752475739,-0.08060819655656815,0.17733055353164673,0.2095101922750473,0.14437013864517212,-0.12673264741897583,0.11381412297487259,0.07911816239356995,0.26731613278388977,0.026086350902915,0.18967953324317932,-0.14334501326084137,0.25115257501602173,-0.0306573286652565,-0.1628035604953766,-0.11111072450876236,-0.23564907908439636,-0.029062993824481964,0.19936105608940125,-0.12338686734437943,0.005297516472637653,-0.0009937406284734607,-0.03208233416080475,-0.08320105075836182,0.06370251625776291,-0.13600878417491913,-0.26967817544937134,-0.1738167703151703,0.07758572697639465,-0.05810534954071045,-0.01988391764461994,0.23182059824466705,-0.005953768268227577,0.046768028289079666,0.08251199126243591,0.2866435647010803,0.10188678652048111,-0.13872407376766205,0.04789291322231293,-0.05939631164073944,-0.1757521629333496,-0.29406070709228516,0.15308374166488647,-0.21556296944618225,0.19130276143550873,0.08932271599769592,0.31610769033432007,0.04244455322623253
NCT06953427,0.1900446116924286,-0.18910111486911774,-0.09986697882413864,0.09681309759616852,7.631257176399231e-05,-0.09078000485897064,0.1383429765701294,-0.06337475031614304,-0.022230571135878563,0.232833594083786,0.15879085659980774,-0.0017969295149669051,0.10606341063976288,0.039405375719070435,-0.20794515311717987,-0.03345729038119316,-0.03821764141321182,-0.01882113143801689,-0.07835801690816879,0.0926637127995491,-0.11014021933078766,-0.11392573267221451,0.055880654603242874,-0.0718475878238678,0.02061726525425911,-0.21555940806865692,-0.036485351622104645,-0.38060861825942993,-0.005376263055950403,-0.09343459457159042,0.08091336488723755,-0.020801721140742302,0.051014721393585205,0.1916981041431427,-0.05284886434674263,-0.21059779822826385,0.12001653760671616,0.08754189312458038,0.15529102087020874,-0.11058098077774048,-0.036695532500743866,-0.022173741832375526,0.09426424652338028,0.1760832965373993,0.30037274956703186,-0.10756675899028778,-0.025630783289670944,0.08067134022712708,0.28821685910224915,-0.16893455386161804,0.15075838565826416,0.04487570375204086,0.09234385192394257,0.046800293028354645,-0.16603398323059082,0.17291662096977234,-0.2697961628437042,-0.09504421055316925,0.04133486747741699,-0.07520480453968048,0.27942490577697754,0.07956832647323608,0.21634706854820251,0.10759055614471436,0.15474550426006317,-0.07007298618555069,0.555873453617096,-0.30006757378578186,0.006276564206928015,-0.12896482646465302,0.015295731835067272,0.03956752270460129,-0.01772000826895237,-0.19915756583213806,0.1550496220588684,0.2257470339536667,0.16536110639572144,0.19334180653095245,0.10544528812170029,-0.11859146505594254,-0.19735562801361084,-0.10331257432699203,0.30237436294555664,0.02983088418841362,0.02929321490228176,0.09703491628170013,0.048677958548069,0.07623221725225449,0.257732093334198,0.23891928791999817,0.08859347552061081,-0.029183391481637955,0.0801996961236,-0.010765178129076958,-0.1845291405916214,-0.05826006457209587,-0.14640016853809357,-0.0022692636121064425,-0.011437562294304371,-0.06237940117716789,-0.02263287827372551,0.10620889812707901,-0.1306798756122589,-0.060567282140254974,-0.081231988966465,-0.1630820780992508,-0.24997270107269287,-0.014687974937260151,0.24234500527381897,0.00628184387460351,-0.08668231964111328,0.22990164160728455,0.0626925379037857,0.1280333697795868,0.047995127737522125,0.2853184640407562,-0.11816293001174927,-0.18209369480609894,-0.2299272119998932,-0.17232781648635864,-0.15994669497013092,-0.1717069447040558,0.16665276885032654,-0.41097790002822876,-0.019948257133364677,-0.09684224426746368,0.01155274547636509,-0.0027099966537207365
NCT06954181,0.20004837214946747,-0.04880165681242943,0.10782020539045334,0.13860651850700378,-0.11033807694911957,-0.0635962262749672,-0.2495034635066986,0.01860852539539337,-0.2557380795478821,0.2364656776189804,-0.38005971908569336,-0.10740840435028076,-0.24789954721927643,0.24166803061962128,-0.3792704641819,0.3700956702232361,-0.1355893313884735,-0.10487465560436249,0.17317910492420197,0.3530946373939514,-0.1222093403339386,-0.18285487592220306,0.03062283620238304,0.08341148495674133,-0.12017448246479034,0.07287859171628952,0.15917599201202393,-0.32146528363227844,-0.19382482767105103,0.03678277134895325,0.26361095905303955,0.10569418966770172,0.10984852910041809,-0.23211240768432617,-0.0242060124874115,-0.04499842971563339,0.14197778701782227,0.09061001241207123,-0.11235348880290985,-0.0172463059425354,-0.00823122262954712,-0.012981120496988297,0.016529999673366547,0.1839054524898529,0.04883936420083046,0.006448656320571899,0.17162197828292847,-0.11228694021701813,0.009330901317298412,-0.1362801045179367,0.22331322729587555,0.15200188755989075,0.11658850312232971,-0.14875823259353638,0.13222691416740417,0.2716726064682007,-0.389901340007782,0.017534418031573296,-0.14410500228405,-0.29470860958099365,0.03811684995889664,-0.031652726233005524,0.20858368277549744,0.16640886664390564,-0.19185873866081238,0.08953376859426498,0.287482351064682,-0.24616491794586182,-0.05031256377696991,-0.04739008843898773,0.18959811329841614,-0.216350719332695,0.025731176137924194,0.1367938071489334,-0.2519615888595581,0.26174551248550415,0.13152801990509033,0.1416347771883011,0.09440180659294128,0.10215464234352112,-0.19399619102478027,0.1857881397008896,0.16489878296852112,0.3690129220485687,-0.005971170961856842,-0.12263636291027069,-0.0020455941557884216,-0.13107985258102417,0.02533339336514473,0.06293237954378128,0.15513691306114197,-0.028570637106895447,0.0657576471567154,-0.13711751997470856,-0.237516850233078,0.010705925524234772,-0.2697657346725464,-0.17336922883987427,0.2874198853969574,-0.025687754154205322,-0.13074463605880737,0.189179927110672,-0.023993300274014473,-0.34274905920028687,-0.14322438836097717,-0.15209488570690155,-0.06453101336956024,0.05351090431213379,0.23402340710163116,0.29358386993408203,0.25786107778549194,0.43908968567848206,0.0227445550262928,0.1758609414100647,0.006319195032119751,0.25974327325820923,-0.02266734465956688,-0.05212748050689697,0.023002976551651955,0.03491737321019173,-0.009737100452184677,0.11992673575878143,-0.017565645277500153,0.02276839315891266,0.20181995630264282,0.3021514415740967,0.18299448490142822,0.1457597315311432
NCT06953713,0.05119531229138374,0.023547783493995667,-0.09083089977502823,0.14569784700870514,0.020986855030059814,-0.14635556936264038,-0.1624268740415573,-0.03715406730771065,-0.26019343733787537,0.001058494090102613,-0.09161641448736191,0.04073293134570122,-0.015248551964759827,0.09172073006629944,-0.2979089021682739,0.2308705598115921,-0.08757132291793823,0.045235276222229004,0.16887426376342773,0.1740872859954834,-0.21698172390460968,-0.24539874494075775,-0.06500799208879471,-0.25981834530830383,0.03698552027344704,-0.08618394285440445,0.07222652435302734,0.02227751351892948,-0.014251579530537128,0.057736754417419434,0.12158507108688354,-0.11467266082763672,-0.09910307079553604,-0.06760973483324051,-0.17317812144756317,-0.1575383096933365,0.38576793670654297,0.017175644636154175,-0.18074798583984375,-0.23872898519039154,0.013594354502856731,-0.12206574529409409,-0.05064810439944267,0.12791474163532257,0.030072182416915894,-0.22779834270477295,0.022981105372309685,-0.002027492970228195,0.07437676936388016,-0.31720292568206787,0.2102918177843094,-0.04897722601890564,0.2212497740983963,-0.03858913853764534,-0.03537626937031746,0.2541562616825104,-0.3648718297481537,0.08818215876817703,-0.03206947445869446,-0.10080907493829727,0.043468546122312546,0.17130906879901886,0.1040031835436821,-0.027722233906388283,0.008768148720264435,0.09688547253608704,0.34671029448509216,-0.31822726130485535,0.14751119911670685,-0.11548135429620743,-0.06467477232217789,-0.012303334660828114,-0.19215160608291626,-0.12860125303268433,0.07929250597953796,0.09570547193288803,0.06945949047803879,-0.045356471091508865,-0.08490069955587387,-0.1354946345090866,-0.25824248790740967,0.03263607621192932,0.24243612587451935,0.2210223227739334,0.10111597180366516,0.009594063274562359,-0.1912587285041809,0.1505710929632187,0.05707752704620361,-0.19339852035045624,0.2171308994293213,-0.2781961262226105,0.18354292213916779,0.016949303448200226,-0.1389206051826477,-0.026723166927695274,-0.23933355510234833,-0.09889353066682816,0.25120967626571655,-0.0329449288547039,-0.02688947506248951,0.21310167014598846,-0.12311103194952011,-0.048098381608724594,0.13928568363189697,-0.34799572825431824,-0.3652014434337616,0.062236811965703964,0.4238605499267578,0.21054808795452118,0.013817086815834045,0.2712981402873993,-0.041900139302015305,0.027393855154514313,0.21867139637470245,0.22094030678272247,-0.07004832476377487,-0.11587614566087723,-0.07388873398303986,0.022060111165046692,0.019809583202004433,-0.19043366611003876,0.06385019421577454,-0.18312139809131622,0.24176178872585297,0.01731744222342968,-0.004427524749189615,0.2373775690793991
NCT06953219,0.15540561079978943,-0.02559700235724449,-0.14782440662384033,0.07386598736047745,-0.020518776029348373,0.07327954471111298,-0.14386509358882904,-0.100794717669487,-0.16478122770786285,0.09070875495672226,0.001377210021018982,-0.14760150015354156,-0.02765965834259987,0.10141320526599884,-0.2283433973789215,0.08727434277534485,0.13869142532348633,0.021252330392599106,0.19224168360233307,0.12212101370096207,-0.07551541179418564,-0.045217692852020264,-0.08122745156288147,-0.3326936364173889,-0.04603347182273865,-0.1252031773328781,0.1196800097823143,-0.22246570885181427,0.09565319865942001,-0.09925372898578644,0.137003093957901,0.03682143613696098,0.06725354492664337,-0.1842690408229828,-0.09615182131528854,-0.08638890087604523,0.12466637790203094,-0.1039886623620987,-0.005507957190275192,-0.15790268778800964,0.08787600696086884,-0.03174823895096779,0.08033289015293121,0.18239696323871613,0.01974385976791382,-0.040025003254413605,0.06184051185846329,0.1905456930398941,0.062180064618587494,-0.402839720249176,0.34143367409706116,0.11182771623134613,0.37795764207839966,-0.20086339116096497,-0.09523415565490723,0.2024036943912506,-0.2636149823665619,0.0835656002163887,-0.11496289074420929,-0.12380924075841904,-0.059500884264707565,-0.008179167285561562,0.16452836990356445,0.07997822016477585,-0.22096796333789825,0.005896712653338909,0.11051206290721893,-0.4576737880706787,0.13347849249839783,-0.0730055719614029,0.024657268077135086,-0.23733215034008026,0.044681597501039505,0.17333105206489563,-0.0855022519826889,0.06004170700907707,0.334879070520401,0.006061053369194269,-0.12535850703716278,-0.16611120104789734,-0.1850830465555191,-0.06567414849996567,0.2936781644821167,0.3317610025405884,0.11902210861444473,-0.005518259946256876,0.04326248914003372,-0.03969573229551315,-0.05412996932864189,-0.12299349159002304,0.4002510905265808,-0.3190850019454956,0.20068247616291046,0.06847230345010757,-0.2920011878013611,-0.05555705353617668,-0.3621056377887726,-0.2457612007856369,0.030372262001037598,0.009300457313656807,-0.03773212432861328,0.0662311241030693,-0.06282113492488861,0.03142527490854263,-0.07297040522098541,-0.13823458552360535,-0.10821163654327393,-0.035357486456632614,0.02819213643670082,0.3662785291671753,0.08291532844305038,0.27136313915252686,-0.10457227379083633,-0.05750667303800583,0.03596806898713112,0.24793800711631775,0.04476255550980568,-0.082338348031044,-0.07096529006958008,-0.16758623719215393,0.05100810527801514,-0.014457223005592823,-0.07373256236314774,0.010822506621479988,0.09166403114795685,-0.08665432780981064,0.01850390061736107,0.24574407935142517
NCT06951321,0.06172622740268707,-0.10214804857969284,0.03508828580379486,-0.04479747265577316,-0.17963823676109314,-0.09809571504592896,-0.23318079113960266,-0.17282767593860626,-0.10898115485906601,0.1946808099746704,-0.14212432503700256,-0.23136264085769653,0.04003691300749779,0.15322017669677734,-0.3052869141101837,0.08971212804317474,0.08526833355426788,-0.06632677465677261,-0.05122721195220947,0.05834069103002548,-0.1067625880241394,-0.00882091373205185,-0.04212447255849838,0.004763472825288773,-0.12608318030834198,-0.21440452337265015,0.21158413589000702,-0.4304393529891968,-0.06966555118560791,-0.2486458420753479,-0.04998238384723663,-0.2236422300338745,0.15822911262512207,0.04132606089115143,-0.028434619307518005,-0.16469982266426086,0.014141753315925598,0.17876318097114563,0.14326933026313782,0.013439524918794632,-0.03567253053188324,0.23973292112350464,0.1512015461921692,0.09739707410335541,0.1316455602645874,0.009475070983171463,-0.04674592614173889,0.1223909854888916,0.011100471019744873,-0.10232458263635635,0.05173498019576073,0.20487985014915466,0.2924175262451172,-0.12260038405656815,-0.2522507905960083,0.13682185113430023,-0.19680830836296082,-0.0929574966430664,0.1974228024482727,-0.24999646842479706,0.12267017364501953,0.21920455992221832,0.18795721232891083,0.19035202264785767,-0.1319328099489212,0.020144421607255936,0.04298193007707596,-0.19658349454402924,-0.11700578778982162,0.06467126309871674,0.13660457730293274,-0.019921451807022095,-0.06846389174461365,0.03327262029051781,0.05128449201583862,0.4011615812778473,0.30748069286346436,0.08291932195425034,0.13918277621269226,-0.0823960229754448,-0.13611173629760742,-0.03004990890622139,0.08418260514736176,0.0777437835931778,0.04490518569946289,0.025012105703353882,0.13110724091529846,-0.17481102049350739,0.2836076021194458,0.13491584360599518,0.09070808440446854,-0.05635109171271324,0.004766261205077171,-0.0018484406173229218,-0.2333909422159195,-0.017336033284664154,-0.22579367458820343,-0.04241163656115532,0.03049292415380478,-0.008576549589633942,-0.10796269029378891,-0.009476494044065475,0.0685272365808487,-0.055409982800483704,-0.05954462289810181,0.0006666518747806549,-0.09772174060344696,-0.1399180144071579,0.12777283787727356,-0.08136851340532303,0.18679291009902954,0.10033124685287476,0.0800904631614685,0.1021660566329956,0.10766655951738358,0.1624048948287964,-0.0015842169523239136,-0.2270316481590271,0.012257995083928108,-0.06876315921545029,-0.020607739686965942,-0.1733933985233307,0.22114016115665436,0.004708871245384216,0.1641564965248108,0.12716616690158844,0.07677550613880157,-0.05095123499631882
NCT06950554,0.10965746641159058,-0.26100990176200867,-0.16918186843395233,-0.018942013382911682,-0.007281655911356211,-0.004699841141700745,-0.0616285502910614,-0.11951030045747757,-0.1809370517730713,0.21721966564655304,0.13000117242336273,-0.15554390847682953,0.040997233241796494,0.007856972515583038,-0.17724446952342987,-0.05700105056166649,0.15856489539146423,-0.10772118717432022,0.1348930150270462,0.11819693446159363,-0.18214328587055206,-0.014210558496415615,-0.08366618305444717,-0.157706156373024,-0.15734274685382843,-0.12836095690727234,0.16182510554790497,-0.36153653264045715,-0.06408640742301941,-0.14757974445819855,0.09271097183227539,0.16558623313903809,0.03654119744896889,0.01830100081861019,-0.023992732167243958,-0.0772629976272583,-0.1382046490907669,-0.020744672045111656,0.10886111110448837,-0.01982411928474903,0.06207383796572685,0.03236699849367142,0.02474840171635151,0.25102171301841736,0.14814041554927826,0.06179698929190636,-0.08578365296125412,0.10232546180486679,0.21789191663265228,-0.3402341306209564,0.24228955805301666,0.25400733947753906,0.4067942202091217,-0.09531337022781372,-0.1889006495475769,0.10788401961326599,-0.23032931983470917,-0.004378745798021555,-0.09943469613790512,-0.04114225134253502,0.03189681097865105,-0.03903071954846382,0.2781764268875122,0.1568250060081482,-0.1523713618516922,0.022597068920731544,0.21764333546161652,-0.3837001323699951,-0.04468663036823273,-0.057259220629930496,0.08419647067785263,-0.2016168087720871,0.11602586507797241,0.18255770206451416,-0.08149271458387375,0.09418032318353653,0.3616001307964325,0.24314481019973755,-0.006096482276916504,-0.2147154062986374,-0.15383636951446533,-0.08182833343744278,0.3929668962955475,0.2817879021167755,0.2611038386821747,-0.010779757983982563,0.1995995193719864,-0.009422206319868565,0.09248261898756027,0.12202338129281998,0.13110224902629852,-0.16543717682361603,0.1437879055738449,0.09346669167280197,-0.06797074526548386,0.02135290950536728,-0.2003909945487976,-0.17792855203151703,0.04136976972222328,-0.13386483490467072,-0.06814602762460709,-0.07699893414974213,-0.07773175090551376,0.07515782117843628,-0.20488780736923218,-0.09544491022825241,-0.15011902153491974,-0.14798611402511597,-0.05753491818904877,0.07832085341215134,0.09058678895235062,0.16698181629180908,0.010482956655323505,0.014314253814518452,-0.028709715232253075,0.14904247224330902,0.046342309564352036,0.0011383990058675408,-0.16698980331420898,-0.1799570769071579,0.0019802276510745287,-0.036287080496549606,0.006976241711527109,-0.17387671768665314,-0.04847772419452667,-0.05541864037513733,0.1582442969083786,0.07486695796251297
NCT06948240,0.10652253031730652,0.045605454593896866,-0.16418996453285217,0.013534565456211567,-0.1787623018026352,-0.13867804408073425,0.07222366333007812,-0.040570590645074844,-0.09754106402397156,0.22312714159488678,0.02016712725162506,-0.14803409576416016,0.08842607587575912,-0.16189327836036682,-0.26850759983062744,0.21854937076568604,-0.074290432035923,0.023493053391575813,0.019100993871688843,0.08581063151359558,-0.04085436835885048,-0.1736273318529129,-0.0197591632604599,-0.04980716109275818,0.057995740324258804,-0.1966223120689392,-0.0008325129747390747,-0.318888396024704,-0.028177671134471893,-0.1360238641500473,0.10866249352693558,-0.13980619609355927,-0.07636619359254837,0.11047171801328659,-0.04188146814703941,-0.30339792370796204,0.07966943830251694,0.026718631386756897,0.10737991333007812,-0.2687368094921112,-0.062131982296705246,0.027480630204081535,-0.003980974201112986,0.0735955610871315,0.20988668501377106,-0.17021967470645905,-0.004724288824945688,0.046424683183431625,0.21480703353881836,-0.08659259229898453,0.1516004204750061,-0.10269814729690552,0.08168982714414597,-0.020974421873688698,-0.22118155658245087,0.08243435621261597,-0.2507089674472809,-0.08215705305337906,-0.05485723912715912,-0.06262364238500595,0.3584578037261963,0.2297297567129135,0.10038557648658752,0.1406051516532898,0.11172971874475479,-0.0690189078450203,0.4203786849975586,-0.2145588994026184,0.05648566409945488,-0.09600693732500076,-0.01928091049194336,0.03941105678677559,-0.16432224214076996,-0.23414409160614014,0.05420327186584473,0.2557224929332733,0.1274247169494629,0.10206648707389832,0.015727529302239418,-0.21373902261257172,-0.21335601806640625,-0.023074788972735405,0.24640975892543793,-0.10087623447179794,0.06413612514734268,0.08918371051549911,-0.03121013380587101,0.1466769129037857,0.3134915828704834,0.3179818093776703,0.12429968267679214,-0.06439220160245895,0.05065922811627388,0.11596173793077469,-0.1321685016155243,-0.15006090700626373,-0.265513151884079,0.05451686680316925,0.08586225658655167,0.06319011002779007,-0.07017472386360168,0.020175069570541382,-0.18600738048553467,-0.12333378940820694,0.09369384497404099,-0.014469921588897705,-0.29546135663986206,-0.012281305156648159,0.21078766882419586,-0.07470692694187164,-0.024647628888487816,-0.010421596467494965,0.1323198676109314,0.023051517084240913,0.12874126434326172,0.22895395755767822,-0.16393698751926422,-0.10435722023248672,-0.2506597638130188,-0.048929035663604736,-0.1568540781736374,-0.18943779170513153,0.23518003523349762,-0.22112834453582764,0.08161356300115585,-0.07110775262117386,0.06953103095293045,0.026444485411047935
NCT06948682,-0.025787368416786194,-0.08293964713811874,-0.0799182876944542,0.0817226842045784,-0.18374766409397125,-0.0065268478356301785,-0.09500978142023087,-0.08005446940660477,-0.29289793968200684,0.09752263873815536,-0.07933580130338669,0.030933836475014687,0.038744717836380005,0.1640651524066925,-0.3330595791339874,-0.07225067913532257,0.019818728789687157,-0.01215865183621645,0.13930962979793549,0.22667042911052704,-0.1283424198627472,-0.026983117684721947,-0.10468555241823196,-0.2979132831096649,-0.08407757431268692,-0.16752474009990692,0.119759202003479,-0.09560379385948181,-0.04109304025769234,0.009460666216909885,-0.008431593887507915,-0.05958949401974678,0.06581117957830429,-0.1331808716058731,-0.20856237411499023,-0.04418438300490379,0.24435697495937347,0.13961941003799438,-0.0442533902823925,-0.24188841879367828,0.05676426365971565,0.22034549713134766,0.02472063899040222,0.09326401352882385,-0.02209225483238697,-0.28013595938682556,-0.2500641942024231,-0.033816128969192505,0.16063787043094635,-0.4442906081676483,0.1587788462638855,0.06430232524871826,0.3104497194290161,-0.04776403307914734,-0.004744574427604675,0.048690229654312134,-0.1951303333044052,0.00836586207151413,-0.009436975233256817,-0.1049889400601387,0.2223280668258667,0.11292842775583267,0.19016210734844208,0.23896153271198273,0.014700430445373058,-0.01769867166876793,0.17305636405944824,-0.3398047685623169,0.08301303535699844,-0.05981844291090965,0.08465179055929184,0.015877487137913704,-0.10356948524713516,-0.09565635770559311,-0.003155479906126857,0.09409424662590027,0.28828373551368713,0.15533098578453064,-0.02190547250211239,-0.11993119865655899,-0.27138158679008484,-0.032645903527736664,0.13277143239974976,0.14050602912902832,0.14195896685123444,-0.09699515253305435,0.07172123342752457,-0.09965944290161133,0.1990310102701187,-0.12594614923000336,0.2617068588733673,-0.3980555236339569,0.1651284247636795,0.2131412774324417,-0.30438992381095886,0.019510528072714806,-0.2965176999568939,-0.06456773728132248,0.19485200941562653,-0.06563892215490341,-0.05056653544306755,-0.07575612515211105,-0.040321242064237595,-0.09674251824617386,-0.06130266189575195,-0.10481914132833481,-0.12387868016958237,0.0042009055614471436,0.10218005627393723,-0.056500960141420364,0.020035451278090477,0.23594005405902863,-0.05976830795407295,-0.10487273335456848,0.15328706800937653,0.19854553043842316,0.06894273310899734,0.0012985914945602417,-0.02890859730541706,0.09781990200281143,-0.025295497849583626,-0.3232415020465851,0.12571874260902405,-0.06957069784402847,0.2879731357097626,0.1150590255856514,0.08293236792087555,0.11354043334722519
NCT06949358,0.05655820667743683,-0.06663531064987183,-0.03181769698858261,-0.06940092891454697,-0.18672296404838562,-0.13992561399936676,-0.12064417451620102,-0.26242339611053467,-0.06972444802522659,0.08108390867710114,-0.17261242866516113,-0.25302261114120483,-0.09327956289052963,0.11978163570165634,-0.40393728017807007,0.11687324941158295,0.09577761590480804,0.024105951189994812,0.06313034892082214,0.10689029097557068,0.019281990826129913,-0.052552729845047,0.04454658925533295,0.09886922687292099,-0.17976443469524384,-0.0093158558011055,0.12204430997371674,-0.42293581366539,-0.09832388907670975,-0.09437233209609985,-0.0545872300863266,-0.05362928286194801,0.10676242411136627,0.0026253126561641693,-0.1097438782453537,0.042086418718099594,-0.03242196515202522,0.126257061958313,0.20923474431037903,-0.0646495670080185,-0.046082936227321625,0.15668678283691406,0.05585556849837303,0.4189779758453369,0.009543763473629951,-0.026476137340068817,-0.009593196213245392,-0.04241788014769554,0.12829142808914185,-0.254173219203949,-0.03189390152692795,0.051991868764162064,0.22415903210639954,-0.23025265336036682,0.05339653044939041,0.18269214034080505,-0.2694684565067291,-0.05543272942304611,0.08169965445995331,-0.1020561158657074,0.060263924300670624,0.021677741780877113,0.1193382740020752,0.16310130059719086,-0.008915817365050316,0.09394848346710205,0.19004085659980774,-0.30552080273628235,-0.012407947331666946,0.1654292345046997,0.013824215158820152,-0.07796105742454529,0.10212218016386032,0.056047141551971436,-0.048781439661979675,0.34166914224624634,0.3409016728401184,0.41492900252342224,0.22898225486278534,-0.253948837518692,-0.2420119345188141,0.031816501170396805,0.1331576704978943,-0.0193322766572237,0.20099897682666779,-0.1187097504734993,0.11146797239780426,-0.06684413552284241,0.27203938364982605,0.102804996073246,-0.052773963660001755,-0.2229064702987671,-0.0713265985250473,0.02613738365471363,0.09950842708349228,0.017557911574840546,-0.27492237091064453,-0.2684514820575714,0.05749747157096863,-0.07717570662498474,-0.1591152548789978,-0.08151747286319733,-0.1555103361606598,-0.1291205883026123,0.016497544944286346,-0.004002925008535385,-0.1430288553237915,-0.07596014440059662,0.028025690466165543,-0.18623578548431396,-0.0715027004480362,0.3444136381149292,0.10562172532081604,0.0034660957753658295,0.032303567975759506,0.2555321455001831,-0.015117883682250977,-0.00478600338101387,-0.10211794078350067,-0.0776701420545578,-0.10179665684700012,-0.14453241229057312,-0.028443574905395508,-0.19315746426582336,0.14510898292064667,0.36782705783843994,0.24029603600502014,-0.13409483432769775
NCT06949332,-0.11005004495382309,-0.04507538676261902,0.04172559455037117,-0.02157430909574032,-0.1493055522441864,0.029709244146943092,-0.05945916101336479,-0.013199311681091785,-0.24917574226856232,0.1110498309135437,-0.18478643894195557,-0.1186927780508995,0.02937384881079197,0.03079589642584324,-0.1779569834470749,0.048051655292510986,0.22498802840709686,-0.07409919798374176,0.26470082998275757,0.17406246066093445,-0.12079659849405289,-0.09945590794086456,-0.1372486650943756,-0.18659304082393646,-0.17974857985973358,-0.037366364151239395,0.15201453864574432,0.03731969743967056,-0.008743012323975563,-0.04558221250772476,0.07855571806430817,0.0025179877411574125,0.11780492216348648,-0.2522222399711609,-0.053590189665555954,0.04024277999997139,-0.0272853784263134,-0.03667197749018669,-0.14206142723560333,-0.1564464271068573,-0.027308303862810135,0.1907963752746582,0.07604126632213593,0.1471337229013443,-0.040488872677087784,-0.1799096018075943,-0.10259638726711273,-0.08902113139629364,0.05596296861767769,-0.2694547772407532,0.12597711384296417,0.056202519685029984,0.4160568118095398,-0.10841000080108643,-0.12853994965553284,0.16606250405311584,-0.19916999340057373,0.19394531846046448,-0.174385666847229,-0.24592609703540802,-0.1271197497844696,-0.008897480554878712,0.14344778656959534,0.08429470658302307,-0.33004552125930786,0.10003697872161865,-0.023226851597428322,-0.35812702775001526,0.01651807501912117,-0.03328689932823181,0.13639402389526367,-0.24685434997081757,-0.057736754417419434,-0.021932000294327736,-0.06481263041496277,-0.07091037184000015,0.1564490795135498,0.07069601863622665,-0.06665198504924774,-0.13600236177444458,-0.2401547133922577,0.012011152692139149,0.22168147563934326,0.16008307039737701,0.12272033840417862,0.004867034964263439,0.03095972165465355,0.02582690492272377,-0.05547875165939331,-0.015964623540639877,0.21520471572875977,-0.263183057308197,0.2205403745174408,0.21426907181739807,-0.12239144742488861,0.10351582616567612,-0.31016960740089417,-0.07842833548784256,0.032516561448574066,-0.05979634448885918,-0.08475779742002487,-0.1040164977312088,0.1414068192243576,0.03012261353433132,-0.09762000292539597,0.002664125058799982,-0.330292671918869,0.058190178126096725,0.07088011503219604,0.1774226576089859,0.12219750881195068,0.1520342379808426,0.00761141162365675,-0.05074327439069748,0.022524792701005936,0.050340019166469574,0.03664758428931236,0.06932143121957779,-0.08393887430429459,0.09434051811695099,0.06087009236216545,-0.058147769421339035,-0.0009553164127282798,0.08328168094158173,0.18444781005382538,0.0861537829041481,0.14023756980895996,0.3017394542694092
NCT06950047,0.04046769440174103,0.10303781181573868,-0.2512553036212921,0.040302325040102005,0.0021758030634373426,0.036051858216524124,-0.2593119442462921,-0.20385682582855225,-0.3136051595211029,0.23293320834636688,-0.06430307030677795,-0.04851661995053291,0.0019055878510698676,0.12418701499700546,0.029887737706303596,0.13123518228530884,-0.09368289262056351,0.04710118845105171,0.1041017398238182,0.10857067257165909,-0.11099227517843246,-0.10463500767946243,0.12057723850011826,-0.3980292081832886,0.03808334469795227,-0.09533146023750305,0.10365106910467148,-0.2071058303117752,-0.07422211021184921,-0.0316789411008358,0.05359935760498047,-0.11188238859176636,0.13041391968727112,0.025060871616005898,-0.3180494010448456,-0.33679863810539246,0.36639904975891113,0.05455141142010689,-0.08273033052682877,-0.20196564495563507,0.024370059370994568,-0.05524343624711037,0.08537552505731583,0.17256875336170197,-0.0816667377948761,-0.24210123717784882,-0.02935001067817211,0.20577020943164825,0.14969414472579956,-0.40830090641975403,0.27936267852783203,0.14546355605125427,0.30053475499153137,-0.018671153113245964,-0.10307959467172623,0.14763613045215607,-0.24623417854309082,0.028196701779961586,-0.06888797134160995,-0.09499109536409378,0.12926225364208221,0.23674540221691132,0.2636009752750397,0.061740364879369736,-0.016194146126508713,-0.018716687336564064,0.06292644143104553,-0.3122052550315857,0.10700555890798569,-0.32356560230255127,0.01846497692167759,-0.03795943409204483,-0.12462610751390457,0.09082318097352982,0.2108267992734909,0.34223008155822754,0.23357804119586945,-0.006693849805742502,0.020995547994971275,-0.19623297452926636,-0.38261333107948303,-0.09699908643960953,0.24856539070606232,0.16890664398670197,0.4052521288394928,-0.23500828444957733,0.0779779776930809,0.03346022590994835,0.11798528581857681,-0.03940291330218315,0.4764101207256317,-0.3395373821258545,-0.009750664234161377,0.08979394286870956,-0.3440495431423187,-0.18399089574813843,-0.3652331829071045,-0.11958856135606766,0.28638756275177,0.12252238392829895,-0.07115160673856735,0.11170303076505661,-0.3562380075454712,0.024991542100906372,-0.005390390753746033,-0.2066243290901184,0.04566091299057007,-0.07390839606523514,-0.026981426402926445,0.19843818247318268,0.06515049189329147,0.1784593015909195,-0.14370815455913544,-0.05907033756375313,-0.11241830140352249,0.18443043529987335,-0.09160914272069931,0.0559375025331974,-0.18805192410945892,-0.0509861595928669,0.12788112461566925,-0.07896071672439575,0.09919875860214233,-0.13668827712535858,0.013179962523281574,-0.08910539001226425,-0.031842056661844254,0.13068567216396332
NCT06947486,0.2015535980463028,-0.035467445850372314,-0.2264992892742157,-0.03582458570599556,-0.12664726376533508,-0.0500793382525444,-0.26882150769233704,-0.2305445373058319,-0.13897188007831573,0.2436658889055252,-0.04521724209189415,-0.2826961874961853,-0.008416669443249702,-0.18013066053390503,-0.2966379225254059,0.1745099425315857,-0.04471439868211746,0.06611000001430511,0.06816816329956055,0.10315386950969696,0.041610751301050186,-0.1443972885608673,0.00016709230840206146,-0.13077716529369354,0.041713960468769073,-0.04016704857349396,-0.03126734495162964,-0.3978252410888672,-0.002437777817249298,-0.12998603284358978,0.10842988640069962,-0.2294982522726059,0.048360731452703476,-0.005071960389614105,-0.09004683792591095,-0.3384334444999695,0.2585194408893585,0.09016236662864685,-0.10815488547086716,-0.19091971218585968,0.033472802489995956,-0.0663701742887497,0.3766593039035797,0.1949925720691681,0.10960426181554794,-0.046653568744659424,0.05589377135038376,0.04638144373893738,0.1216905415058136,-0.1496204435825348,0.074894979596138,0.21960441768169403,0.3445666432380676,-0.04690444841980934,-0.2658615708351135,0.2953188419342041,-0.29578015208244324,-0.04786600172519684,-0.04102885723114014,-0.25419893860816956,0.166488915681839,0.16927853226661682,0.2179448902606964,0.13929693400859833,-0.19729022681713104,0.09030548483133316,0.19839483499526978,-0.24881939589977264,-0.007962634786963463,-0.20217444002628326,0.0008549299091100693,-0.015838127583265305,-0.05672421306371689,-0.03247450292110443,0.18023598194122314,0.09809895604848862,0.13531577587127686,0.05164036899805069,0.04603566974401474,-0.34015679359436035,-0.25949758291244507,-0.0022683003917336464,0.2986782193183899,0.0651528611779213,0.20140354335308075,0.0969017744064331,0.0650128647685051,0.007142994552850723,0.19963181018829346,0.251600056886673,0.22786937654018402,0.004027009010314941,0.10999292135238647,-0.06913519650697708,-0.15131978690624237,-0.07540696859359741,-0.2441294938325882,-0.06415311992168427,0.11742749810218811,-0.024256590753793716,-0.022109635174274445,0.01892739348113537,0.0029317066073417664,-0.008410756476223469,0.057226043194532394,-0.07817327231168747,-0.516607403755188,-0.13878916203975677,0.35308516025543213,0.28069213032722473,0.1183575838804245,0.17503443360328674,0.10443133115768433,0.08956317603588104,-0.021035626530647278,0.25270649790763855,-0.09920354187488556,-0.1199568584561348,-0.2520032823085785,-0.1204708069562912,0.12597450613975525,-0.1273684948682785,0.08817341178655624,-0.15909165143966675,0.20252873003482819,-0.10042862594127655,0.03062961995601654,0.01820598915219307
NCT06947395,0.17347010970115662,-0.018758239224553108,0.13062523305416107,-0.11492682993412018,0.06757462024688721,-0.09613440930843353,0.015733154490590096,0.17258566617965698,-0.18568545579910278,0.20282502472400665,-0.0764656513929367,-0.07545403391122818,-0.06792061030864716,0.0008382461965084076,-0.2669661343097687,0.2787328362464905,0.07017195224761963,-0.0619858056306839,-0.07532341778278351,0.10671797394752502,-0.16009271144866943,-0.12249818444252014,0.047717154026031494,0.179124653339386,-0.1299564689397812,-0.15272974967956543,0.3817380368709564,-0.28784266114234924,-0.12831661105155945,-0.18736666440963745,0.000235632061958313,-0.010273808613419533,0.12279848754405975,0.07834768295288086,0.022986989468336105,-0.0024758614599704742,0.11574915051460266,-0.048384010791778564,0.19308649003505707,0.075367271900177,-0.067576102912426,-0.021339911967515945,-0.11983827501535416,0.39711159467697144,0.07486533373594284,0.1502283811569214,0.10795854777097702,0.29054778814315796,0.044003553688526154,-0.18524587154388428,0.06607748568058014,0.05359024927020073,0.1424601674079895,-0.10375227779150009,-0.20209470391273499,0.15726713836193085,-0.3291636109352112,-0.04491184651851654,-0.03583843261003494,-0.0937829315662384,0.01465563289821148,0.18206599354743958,0.05343332141637802,-0.03181960806250572,-0.026422955095767975,0.21932081878185272,0.2916949987411499,-0.11391185224056244,-0.13648056983947754,0.07165870070457458,0.07536810636520386,-0.15191875398159027,0.05928922817111015,0.024592770263552666,0.08377130329608917,0.2714436650276184,0.3902927041053772,-0.03321344777941704,0.28214848041534424,-0.01954716071486473,-0.16427406668663025,-0.24371804296970367,0.036810338497161865,0.07818175107240677,-0.005451062694191933,-0.04067998379468918,0.19587132334709167,0.2796231508255005,0.2022397220134735,-0.17657089233398438,-0.06072454899549484,-0.051334936171770096,-0.03226630762219429,-0.010387491434812546,-0.007911615073680878,0.004665695130825043,-0.19484573602676392,-0.028680911287665367,0.1281464546918869,-0.013029377907514572,-0.17364062368869781,0.42717066407203674,-0.15482230484485626,0.20477497577667236,0.0914917141199112,-0.22485597431659698,0.021077781915664673,-0.07448345422744751,0.0433691069483757,0.0547904409468174,0.057343825697898865,0.25669217109680176,0.02537534385919571,0.02158879116177559,-0.06778792291879654,0.07362999767065048,-0.2251690924167633,-0.21055519580841064,0.04714611917734146,-0.244076669216156,-0.13485252857208252,-0.11889320611953735,0.043099500238895416,-0.37752148509025574,-0.030726395547389984,0.07810123264789581,0.2528310716152191,0.008206553757190704
NCT06946121,0.10273207724094391,0.007014382630586624,-0.12032264471054077,0.38168174028396606,-0.023005899041891098,-0.06915128976106644,-0.028940783813595772,0.08990217745304108,-0.09344877302646637,0.09004195779561996,-0.19279544055461884,-0.055934175848960876,-0.17596343159675598,0.3033270239830017,-0.4144381880760193,0.2274608463048935,-0.23400841653347015,0.14890602231025696,0.3237200975418091,0.1306024193763733,-0.26225244998931885,-0.20492103695869446,0.01963573507964611,-0.2697785496711731,-0.11765637993812561,-0.26203736662864685,0.0567580983042717,-0.08929164707660675,0.07175688445568085,0.024116866290569305,0.0386483259499073,-0.20431435108184814,-0.14025525748729706,-0.037984564900398254,-0.43214255571365356,0.0014923159033060074,0.5462425947189331,0.08692766726016998,-0.11346152424812317,-0.005698584020137787,0.04901177063584328,-0.023455291986465454,0.030565928667783737,-0.1116776242852211,0.19344723224639893,-0.2646389305591583,0.09535899758338928,-0.14003461599349976,0.162479430437088,-0.2700245976448059,0.27931034564971924,-0.09803341329097748,0.07323504984378815,-0.1430695652961731,-0.21674111485481262,0.3032589554786682,-0.4451313614845276,0.11154697835445404,0.04348505660891533,-0.1939210593700409,0.24138900637626648,0.20364728569984436,0.2778294086456299,-0.1051652729511261,0.2288641631603241,-0.06668570637702942,0.5272509455680847,-0.2286105453968048,0.17359894514083862,0.005295369774103165,-0.01914305053651333,-0.1018422394990921,-0.1512584388256073,-0.144737109541893,0.0011344552040100098,-0.002781614661216736,-0.014859011396765709,-0.1048632264137268,-0.09729993343353271,0.10738575458526611,-0.08237487822771072,0.11184611916542053,0.014538907445967197,0.2417968511581421,0.032837316393852234,0.11834076792001724,-0.1862044632434845,0.06975844502449036,-0.07775503396987915,-0.07861350476741791,0.24706034362316132,-0.4229259490966797,0.05329369008541107,-0.032767102122306824,-0.23529106378555298,0.04797106236219406,-0.36282357573509216,-0.07401696592569351,0.1494995653629303,-0.07084836065769196,-0.12304431200027466,0.2207372784614563,-0.17947080731391907,-0.24741218984127045,0.04539328068494797,-0.21379467844963074,-0.13503585755825043,0.0385822169482708,0.4642264246940613,0.012230277061462402,0.18700873851776123,0.2324265092611313,0.0003586346283555031,0.1367957592010498,0.2259192168712616,0.16724750399589539,0.04115850105881691,-0.029027486220002174,0.15475831925868988,-0.011784445494413376,0.1591906100511551,-0.13939762115478516,0.0933070257306099,-0.03640872612595558,0.1342821717262268,-0.04266965016722679,-0.09473797678947449,0.28581637144088745
NCT06947005,0.11350103467702866,-0.14483503997325897,0.18023428320884705,-0.14694449305534363,-0.05317239090800285,-0.10030802339315414,-0.11268578469753265,0.1462898850440979,-0.3506019711494446,0.23570552468299866,-0.04517262056469917,-0.09076360613107681,0.01508853118866682,0.11878688633441925,-0.37678295373916626,0.25660082697868347,0.12404783815145493,0.031583163887262344,0.28671321272850037,0.08299396932125092,-0.08093749731779099,0.05340401083230972,-0.2912285029888153,-0.0030338852666318417,-0.1219889298081398,-0.10979075729846954,0.16272740066051483,-0.015609145164489746,-0.011921493336558342,-0.09903477132320404,-0.10994203388690948,-0.13132256269454956,0.051795072853565216,0.08725516498088837,-0.14801640808582306,-0.0710180252790451,0.1932918280363083,0.1884693205356598,-0.05611506104469299,0.03695768490433693,0.008285710588097572,0.17105397582054138,0.09386762231588364,0.0984303206205368,0.04535696655511856,-0.24793954193592072,-0.17190833389759064,0.011851770803332329,0.02158750593662262,-0.25330644845962524,0.010662125423550606,0.14540410041809082,0.5018885731697083,-0.14162471890449524,-0.326927125453949,0.17228320240974426,-0.18797898292541504,0.04490118473768234,0.16614435613155365,-0.15619058907032013,0.17792268097400665,0.14135107398033142,0.17662328481674194,0.16673102974891663,-0.151662677526474,0.20319533348083496,0.34563836455345154,-0.25329482555389404,-0.22544077038764954,-0.048593513667583466,0.03320961818099022,-0.016834381967782974,-0.06265540421009064,-0.10941294580698013,-0.0784544125199318,0.13974052667617798,0.3271926939487457,0.09904645383358002,-0.0408346951007843,-0.16488543152809143,-0.161232590675354,0.012258978560566902,0.2376069575548172,0.1023530513048172,0.0671476274728775,-0.05791187286376953,0.1978527158498764,-0.0686761885881424,0.14544115960597992,0.019432444125413895,0.20991849899291992,-0.3591957092285156,0.29759806394577026,-0.0005549713969230652,-0.16964712738990784,-0.06674657016992569,-0.2752307951450348,-0.03807148337364197,0.23604893684387207,-0.2091388702392578,0.019973186776041985,0.2038128823041916,0.03015478327870369,-0.1719837635755539,-0.053880371153354645,-0.0741933211684227,-0.1258719116449356,-0.20045845210552216,0.042750436812639236,0.10934571176767349,0.21141526103019714,0.1872904896736145,0.050113119184970856,0.05046401172876358,-0.007381619419902563,0.16453459858894348,0.01713751256465912,-0.05156008154153824,0.11152060329914093,0.08809980005025864,-0.032049063593149185,-0.24376897513866425,0.12352557480335236,-0.06921593099832535,0.09083851426839828,0.1301225870847702,0.4675733149051666,0.17857949435710907
NCT06944886,0.13790321350097656,-0.18303482234477997,-0.15400879085063934,0.035536788403987885,0.028511719778180122,0.0012762801488861442,-0.08957850188016891,-0.09779862314462662,-0.13246959447860718,0.13071776926517487,-0.025168824940919876,-0.1911679059267044,0.05472036823630333,0.1316797435283661,-0.15187032520771027,0.11035562306642532,0.1495143324136734,-0.08302409201860428,0.1807030588388443,0.1545771062374115,-0.07743404805660248,-0.030885295942425728,-0.15808402001857758,-0.16734956204891205,-0.08552709966897964,0.038228750228881836,0.19171205163002014,-0.21962974965572357,-0.05864742770791054,-0.05372867360711098,0.09734537452459335,0.11736907809972763,0.024228950962424278,-0.04174858704209328,-0.008176577277481556,-0.14006923139095306,-0.012123770080506802,-0.11297915875911713,-0.13861767947673798,-0.15858404338359833,-0.02731737494468689,-0.10024691373109818,0.06610909849405289,0.1073032021522522,0.06794943660497665,-0.10357030481100082,0.1078547015786171,0.08330527693033218,0.02399373985826969,-0.2802014648914337,0.22883376479148865,0.13920913636684418,0.482206791639328,-0.03565555438399315,-0.2183407098054886,0.20872798562049866,-0.1535423994064331,0.10906746238470078,-0.041887883096933365,-0.20394520461559296,-0.0794484093785286,-0.11974762380123138,0.18423965573310852,0.024906303733587265,-0.2931930422782898,0.027288850396871567,0.08827150613069534,-0.41828566789627075,-0.034154750406742096,-0.1329152137041092,0.16414237022399902,-0.21100373566150665,0.004977092612534761,0.09930793195962906,0.028480930253863335,0.04502469301223755,0.20961548388004303,0.10147635638713837,0.02012963593006134,-0.18021933734416962,-0.21765121817588806,0.05880038067698479,0.41210025548934937,0.2402079552412033,0.13219405710697174,0.023506565019488335,0.1554930955171585,-0.04274597018957138,-0.05617018789052963,0.04992973059415817,0.3823034465312958,-0.19990353286266327,0.1774386167526245,0.08113572746515274,-0.1383845955133438,0.056981753557920456,-0.21295581758022308,-0.12349770963191986,0.03641948848962784,-0.006401871796697378,-0.034621190279722214,-0.030153831467032433,-0.051043327897787094,0.03107231855392456,-0.16447938978672028,-0.0604507252573967,-0.1173952966928482,-0.13560768961906433,0.07071729004383087,0.27991819381713867,0.1972370445728302,0.1720881164073944,0.02919829823076725,0.12516096234321594,-0.018658211454749107,0.16975167393684387,0.0013422311749309301,-0.048865653574466705,-0.15012291073799133,0.02686263620853424,0.09653264284133911,0.07778141647577286,-0.13855701684951782,0.04896899685263634,0.08334869146347046,-0.12791195511817932,-0.014889066107571125,0.238998144865036
NCT06945432,0.4090575873851776,0.06482923030853271,-0.0989929586648941,0.04431064426898956,-0.06634415686130524,-0.18947702646255493,0.008431009948253632,-0.04804406315088272,-0.1122085228562355,0.16708947718143463,-0.1679404228925705,-0.10967319458723068,-0.19024553894996643,-0.21096116304397583,-0.027578264474868774,0.2386886477470398,-0.13964956998825073,0.16450358927249908,-0.04746048524975777,0.11177895963191986,-0.08331865817308426,-0.26561564207077026,0.06066802889108658,-0.2114131599664688,-0.2087026983499527,-0.23685100674629211,0.029615536332130432,-0.08644970506429672,0.09028628468513489,0.01838652603328228,0.030498936772346497,-0.03888973593711853,0.2500707507133484,-0.03364384174346924,-0.062468234449625015,0.05405406281352043,0.24301865696907043,-0.01355026662349701,0.14226371049880981,0.047285296022892,-0.08682268112897873,0.016433365643024445,0.04489817097783089,0.39021843671798706,0.2051939070224762,-0.08450768887996674,-0.03728596866130829,0.15932945907115936,0.28870004415512085,-0.3527417480945587,0.12444357573986053,0.016307178884744644,0.09780310094356537,-0.004712492227554321,-0.20482340455055237,0.40324142575263977,-0.3208674192428589,-0.11661422997713089,0.1349211037158966,-0.3290693759918213,0.24839799106121063,0.15362805128097534,0.19221067428588867,-0.17289146780967712,-0.05237042158842087,0.07821053266525269,0.34179002046585083,-0.10776548087596893,0.10041612386703491,-0.09997709840536118,-0.11361430585384369,-0.0210578590631485,0.17469742894172668,-0.3250700831413269,0.004252567887306213,0.08295005559921265,-0.05504971742630005,0.0670018345117569,0.034683652222156525,-0.27115029096603394,-0.18611469864845276,-0.2193596065044403,-0.09793926030397415,0.1290503740310669,0.06768132746219635,-0.020448915660381317,0.29999610781669617,0.28681209683418274,0.10253320634365082,-0.17035256326198578,-0.009910069406032562,0.06735149770975113,-0.057598333805799484,0.2095247060060501,-0.10776615142822266,-0.19316165149211884,-0.2684638500213623,0.061890508979558945,0.05623924732208252,-0.04782573878765106,-0.06037144362926483,0.2496824711561203,-0.0182439386844635,0.008291497826576233,0.11490855365991592,-0.1549176573753357,-0.3250817358493805,0.21236665546894073,0.13249406218528748,0.22400392591953278,-0.04764162003993988,0.3776790499687195,-0.12118233740329742,-0.07167468219995499,-0.10646316409111023,0.1448967605829239,-0.12072823196649551,-0.3056785464286804,-0.02415473759174347,-0.3378079831600189,0.007576018571853638,-0.22332428395748138,0.17459221184253693,-0.4306056499481201,0.029728375375270844,-0.0006351694464683533,0.09968322515487671,0.2622874081134796
NCT06943339,0.05547058582305908,-0.14672528207302094,0.1419142484664917,-0.047314323484897614,-0.06290435791015625,-0.06882363557815552,-0.11506074666976929,0.0514930784702301,-0.11494090408086777,0.15648384392261505,-0.10898610204458237,0.07820011675357819,0.010911833494901657,0.019106203690171242,-0.4256688356399536,-0.010349325835704803,-0.05728504806756973,-0.09255833923816681,-0.1233043298125267,0.17480450868606567,-0.10643397271633148,0.026481803506612778,0.11492755264043808,0.09039859473705292,-0.09157940745353699,-0.04620271921157837,0.05661437660455704,-0.3287447392940521,-0.11235783994197845,-0.05185192450881004,-0.021794304251670837,-0.14874494075775146,0.08820297569036484,-0.12185408174991608,0.011702850461006165,-0.11484652757644653,0.330802321434021,0.16123417019844055,0.04942132532596588,-0.025259042158722878,-0.02216886542737484,0.06894417107105255,0.02934703230857849,0.2550962567329407,0.0808306410908699,0.0432959720492363,0.10004624724388123,0.07607925683259964,-0.0345478318631649,-0.2692083716392517,-0.11289249360561371,0.029295077547430992,0.221244215965271,-0.08855260908603668,-0.06927952915430069,0.22798025608062744,-0.29535847902297974,0.08681497722864151,-0.05409122258424759,-0.15015563368797302,0.05596354603767395,0.12767912447452545,0.16320621967315674,0.09285970777273178,-0.009308330714702606,0.19787143170833588,0.26079410314559937,-0.19511693716049194,-0.1542489230632782,-0.04743994027376175,0.04173974692821503,-0.006521839648485184,0.036911819130182266,-0.06214750558137894,0.09490890800952911,0.18716521561145782,0.18371644616127014,0.1748829185962677,0.1802206039428711,-0.10727493464946747,-0.13263674080371857,-0.07410725951194763,0.22305531799793243,0.21553310751914978,-0.06851550936698914,0.09395688772201538,0.15664201974868774,0.1519240438938141,0.24644072353839874,-0.010570644401013851,-0.19165612757205963,0.020532216876745224,0.014306295663118362,0.009652495384216309,-0.1299586445093155,0.03835569694638252,-0.0006114188581705093,-0.05176146328449249,0.15009547770023346,0.08067504316568375,0.04847759008407593,0.2910178303718567,-0.007397469133138657,-0.03285754472017288,-0.09508347511291504,-0.061608340591192245,-0.3168073892593384,-0.13558009266853333,0.28975677490234375,0.012428134679794312,0.01756463013589382,0.37631428241729736,0.19645866751670837,0.21124772727489471,-0.06009206548333168,0.28934741020202637,-0.06736268103122711,-0.1495312601327896,-0.008787019178271294,-0.30198895931243896,-0.05092364549636841,-0.058333732187747955,-0.11379201710224152,-0.32254230976104736,0.09113836288452148,0.026646651327610016,0.2634449005126953,-0.09573758393526077
NCT06943716,0.09240812063217163,-0.1573384553194046,-0.12795734405517578,0.027062851935625076,0.015449391677975655,0.004935499280691147,-0.11472171545028687,0.0038567539304494858,-0.236479252576828,0.1767408698797226,-0.04543732851743698,0.05802128463983536,0.1291409134864807,-0.0022877976298332214,-0.2798454165458679,0.006991323083639145,-0.10827724635601044,-0.022296078503131866,-0.004320977255702019,0.09037677943706512,-0.18443481624126434,-0.10756396502256393,0.0525081567466259,-0.17091338336467743,-0.05228389427065849,-0.19107428193092346,0.0825427770614624,-0.337141215801239,-0.10214591771364212,-0.07886187732219696,0.0056632403284311295,-0.09074476361274719,-0.013609517365694046,0.15919238328933716,-0.14202943444252014,-0.25026774406433105,0.1647147834300995,0.07102765887975693,0.0864037573337555,-0.15056559443473816,0.11626461148262024,0.016304228454828262,0.06290498375892639,0.14833760261535645,0.1821191906929016,-0.07867351174354553,-0.0239589624106884,0.1327875256538391,0.2617630660533905,-0.17444095015525818,0.12456455826759338,0.01721429079771042,0.11550763994455338,0.11519371718168259,-0.14667975902557373,0.1343575417995453,-0.26545092463493347,-0.10686184465885162,0.007239829748868942,-0.005221081897616386,0.39491307735443115,0.22665125131607056,0.2781119644641876,0.136270672082901,0.00996263138949871,-0.01618564873933792,0.4093170464038849,-0.26142990589141846,-0.05423726886510849,-0.1939443200826645,-0.027182970196008682,0.0002557486295700073,-0.0515972375869751,-0.11004573106765747,0.09436552226543427,0.23477806150913239,0.28892648220062256,0.14624761044979095,0.09106077253818512,-0.17674751579761505,-0.1336900144815445,-0.05461636185646057,0.2721005380153656,0.10255181789398193,0.17736709117889404,-0.012142203748226166,-0.018496163189411163,0.11062868684530258,0.1751977950334549,0.17266540229320526,0.08450578153133392,-0.13207559287548065,0.031677134335041046,0.03304208815097809,-0.15777021646499634,-0.061046186834573746,-0.1206069141626358,0.06572267413139343,0.21103042364120483,-0.06559395045042038,-0.05758973956108093,0.11045774817466736,-0.17030125856399536,-0.040394287556409836,-0.05368670076131821,-0.24871161580085754,-0.20580628514289856,-0.056766897439956665,0.2399781495332718,0.015745677053928375,0.1041853055357933,0.11974376440048218,0.014667566865682602,0.04208742082118988,0.020737387239933014,0.1032036766409874,-0.0879204124212265,-0.08705257624387741,-0.18095798790454865,-0.20413276553153992,-0.07553887367248535,-0.16330808401107788,0.11630699038505554,-0.409976989030838,0.08856169879436493,-0.027802497148513794,0.06448603421449661,0.016147658228874207
NCT06942546,-0.10679091513156891,-0.07973245531320572,-0.12202097475528717,-0.024767786264419556,-0.017152966931462288,-0.21756520867347717,-0.3057478070259094,-0.3867320418357849,-0.33486029505729675,0.06870245933532715,0.0697522759437561,0.021190673112869263,0.02492581307888031,0.054109662771224976,0.12563617527484894,-0.021529125049710274,0.07761108875274658,0.01661726087331772,0.13646996021270752,0.03132868558168411,-0.1736474335193634,-0.23207557201385498,-0.047000981867313385,-0.5262162685394287,-0.08442831039428711,-0.2926855683326721,0.35316038131713867,-0.19706785678863525,-0.04378124326467514,0.0214630626142025,-0.028888607397675514,0.21726438403129578,-0.10703292489051819,-0.05412827432155609,-0.03676649183034897,-0.28427398204803467,0.1569509506225586,0.05798314884305,-0.2181413769721985,-0.16212625801563263,-0.04137161374092102,-0.22092318534851074,0.09538466483354568,0.05232150852680206,0.05231314152479172,-0.02899818867444992,-0.1901387870311737,0.016487067565321922,0.12671813368797302,-0.38123905658721924,0.16260400414466858,0.20749089121818542,0.2880311906337738,-0.10761382430791855,-0.001248212531208992,0.12524506449699402,0.0073659345507621765,0.04134712368249893,-0.0352519154548645,-0.0374087393283844,0.01391587033867836,0.07880567014217377,0.46992549300193787,-0.013053007423877716,-0.1167714074254036,-0.06618800759315491,-0.015952443704009056,-0.44219809770584106,-0.06460190564393997,-0.23698121309280396,-0.05348094552755356,-0.19255833327770233,0.15662091970443726,0.14777818322181702,-0.03807162493467331,0.055529218167066574,0.24974575638771057,0.11291883885860443,-0.06012212485074997,-0.2956472635269165,-0.19358623027801514,-0.019963257014751434,0.1549932360649109,0.2830832004547119,0.4363732933998108,-0.23848208785057068,0.12976406514644623,0.0041355956345796585,0.04529530555009842,-0.07898414134979248,0.5413105487823486,-0.3276742100715637,0.06756143271923065,0.09409338980913162,-0.262931227684021,0.008325913920998573,-0.14992980659008026,-0.05551958829164505,0.2858662009239197,-0.2514481246471405,-0.16087403893470764,-0.10043631494045258,-0.26418453454971313,0.14644017815589905,0.007634017616510391,-0.1893189698457718,-0.12166424095630646,-0.1522999256849289,-0.2128390520811081,0.03803721070289612,0.08194343745708466,0.23051586747169495,-0.05059264227747917,-0.025780241936445236,-0.0741569846868515,0.10744541883468628,0.0910397544503212,0.07796794176101685,-0.1449020951986313,-0.050274718552827835,0.16966795921325684,-0.0843362882733345,0.07632054388523102,-0.0915134847164154,0.10868696868419647,0.13764801621437073,-0.22945964336395264,0.04398606717586517
NCT06941246,-0.010104311630129814,0.024228911846876144,0.012322783470153809,-0.12258115410804749,-0.22021372616291046,-0.2478671669960022,-0.09326985478401184,-0.15034213662147522,-0.10416651517152786,0.03692996874451637,-0.2075423300266266,-0.0585290901362896,-0.0009231846779584885,0.1300658881664276,-0.285810649394989,0.05398033186793327,0.021167315542697906,-0.0598914660513401,0.06990687549114227,0.15874417126178741,-0.20455142855644226,0.01832304149866104,0.1969950795173645,-0.06835359334945679,-0.055487364530563354,-0.15922877192497253,0.12091575562953949,-0.291385680437088,-0.1501350849866867,-0.01651073433458805,-0.09640049934387207,-0.06281387060880661,0.08984309434890747,-0.2806873917579651,-0.14354047179222107,0.047549664974212646,0.25885993242263794,0.11307331919670105,0.045017484575510025,-0.014759756624698639,-0.05679069459438324,-0.014770880341529846,-0.07635155320167542,0.3882412314414978,-0.03423229977488518,0.004830863326787949,-0.05059922859072685,-0.007507732138037682,0.018199585378170013,-0.29907429218292236,0.18736210465431213,0.18857935070991516,-0.005678746849298477,-0.15102364122867584,0.12067936360836029,0.1744650900363922,-0.3089134097099304,0.12361673265695572,-0.23583444952964783,-0.16681070625782013,-0.00527886301279068,0.012805160135030746,0.23249958455562592,0.10181371867656708,-0.021794393658638,0.10457563400268555,0.1124648004770279,-0.35904422402381897,0.1753658652305603,0.06744648516178131,-0.03908152133226395,0.1496036946773529,0.08856774866580963,0.044705942273139954,-0.09895861148834229,0.17787498235702515,0.26094093918800354,0.21568593382835388,0.10980796813964844,0.02080092951655388,-0.19088980555534363,-0.06816944479942322,0.04613635689020157,0.21338048577308655,0.041430287063121796,-0.10827969014644623,0.17333263158798218,-0.05019945651292801,0.2955385148525238,-0.157795250415802,-0.06540288776159286,-0.025117017328739166,0.04898685961961746,0.26091769337654114,-0.10463538020849228,-0.020917564630508423,-0.020068679004907608,-0.03347880020737648,0.17766690254211426,0.05095032975077629,-0.073731929063797,0.12499764561653137,-0.18986403942108154,-0.07213760912418365,-0.1737794280052185,0.020942024886608124,-0.019386358559131622,0.0212135910987854,0.004051003605127335,-0.12660285830497742,-0.06273328512907028,0.4429894685745239,0.16842448711395264,0.050740983337163925,0.27493521571159363,0.18539762496948242,-0.07128532230854034,-0.09859911352396011,-0.16454388201236725,-0.1216948926448822,0.0684274286031723,-0.12422885000705719,0.0023775622248649597,-0.1179853081703186,0.19657064974308014,0.05116773024201393,0.11909778416156769,0.05381109565496445
NCT06941051,-0.05445513501763344,-0.09756897389888763,0.13119332492351532,-0.06362689286470413,-0.11702850461006165,-0.10851581394672394,-0.1715250164270401,0.2301875650882721,-0.25139540433883667,0.12784549593925476,-0.35469141602516174,-0.17019453644752502,-0.02773900516331196,0.13408663868904114,-0.2660536468029022,-0.0033553261309862137,0.04251052066683769,-0.13014815747737885,0.1054641529917717,0.18378916382789612,-0.06686732918024063,-0.014813597314059734,0.030639758333563805,-0.030661074444651604,-0.15133404731750488,-0.055090006440877914,0.09315386414527893,-0.13265006244182587,-0.04520801454782486,-0.014215817674994469,0.07540066540241241,-0.16003799438476562,0.06123392656445503,-0.10502603650093079,0.06693948060274124,0.015350611880421638,0.06990048289299011,-0.07875305414199829,-0.08262655884027481,-0.021945469081401825,0.08400632441043854,0.1814483255147934,0.044869743287563324,0.15486235916614532,0.00025700032711029053,-0.11685708165168762,-0.09749813377857208,-0.11685621738433838,-0.2369849681854248,-0.25838595628738403,-0.06751008331775665,0.22114816308021545,0.5045926570892334,0.09388802945613861,-0.2349867969751358,0.1991652548313141,-0.24335896968841553,0.18408039212226868,0.021206170320510864,-0.19265080988407135,-0.027513183653354645,0.10314720124006271,0.14365622401237488,0.031817689538002014,-0.11249873787164688,0.20445673167705536,0.29959025979042053,-0.23482808470726013,-0.06776584684848785,-0.025678245350718498,0.1448403000831604,-0.05556575208902359,-0.14120040833950043,-0.03458564728498459,-0.06845404207706451,0.24533283710479736,0.1281399428844452,0.03842419385910034,0.10846544057130814,-0.04417701065540314,-0.04681815952062607,-0.11943322420120239,0.2503628134727478,0.2862965166568756,0.14580106735229492,0.07443492859601974,0.4688608646392822,-0.05550839751958847,0.16805219650268555,0.046376537531614304,0.027658572420477867,-0.15902552008628845,0.15973922610282898,0.1652769148349762,-0.13875889778137207,0.13047266006469727,-0.2832011580467224,-0.16807416081428528,0.26714542508125305,-0.1259426474571228,-0.02705352194607258,0.1273704469203949,-0.03354450315237045,0.033918045461177826,-0.07775420695543289,0.05204206705093384,-0.28149309754371643,-0.13477274775505066,0.04579120874404907,0.06340061873197556,0.1923314779996872,0.26006850600242615,0.042451053857803345,0.1631097048521042,-0.03696126863360405,0.2122441977262497,0.08970572054386139,-0.13331851363182068,-0.010491019114851952,0.08606752753257751,-0.01196223497390747,-0.008586332201957703,-0.06225906312465668,-0.023156696930527687,0.16852055490016937,0.057183533906936646,0.401993066072464,0.02541414275765419
NCT06937424,-0.006718549877405167,-0.03996790573000908,-0.0787673071026802,0.021886581555008888,-0.11328402906656265,0.014103129506111145,-0.27455979585647583,-0.05707992985844612,-0.35116350650787354,0.16026990115642548,-0.30713051557540894,-0.01074191927909851,-0.09850385040044785,0.04728303104639053,-0.1715063452720642,0.26774275302886963,-0.07486873865127563,-0.07724475860595703,0.10201510041952133,0.2512807548046112,-0.16947166621685028,-0.09859959781169891,-0.06671899557113647,-0.15581156313419342,-0.11631330847740173,-0.029106684029102325,0.12472745776176453,-0.19783858954906464,-0.12393613159656525,-0.015382885932922363,0.10894498974084854,-0.03846720606088638,0.2613663077354431,-0.23891936242580414,-0.1496419906616211,-0.15194036066532135,0.20164987444877625,0.10083315521478653,-0.10338979959487915,-0.041842930018901825,0.01731003262102604,0.06432488560676575,0.10114883631467819,0.09184478223323822,0.04807421565055847,-0.020289700478315353,0.03784066438674927,-0.009656555950641632,0.17274168133735657,-0.16640836000442505,0.24126097559928894,0.15407779812812805,0.08660577237606049,-0.07549744099378586,-0.05575490742921829,0.056091323494911194,-0.28266867995262146,-0.0744062140583992,-0.16926772892475128,-0.22900259494781494,0.26811155676841736,0.1068911999464035,0.2420031726360321,0.16839808225631714,-0.0990820825099945,0.015928976237773895,0.09497824311256409,-0.30026569962501526,-0.016037091612815857,-0.18534424901008606,0.05994853004813194,-0.0955694243311882,0.07221157848834991,0.014364438131451607,-0.07818979024887085,0.20059402287006378,0.12604080140590668,0.12860362231731415,-0.05006273090839386,-0.030777081847190857,-0.11284986138343811,0.09703788161277771,-0.012085586786270142,0.24400518834590912,0.11045293509960175,-0.2968650162220001,0.0648534893989563,-0.011094414629042149,0.049890704452991486,-0.0788193866610527,0.17314545810222626,-0.011068029329180717,0.20970569550991058,0.08444271981716156,-0.3078942894935608,-0.17056012153625488,-0.15960296988487244,-0.05645037442445755,0.3364231586456299,0.03866230696439743,-0.09080931544303894,-0.026109449565410614,-0.09696786105632782,-0.21219414472579956,-0.1342647671699524,-0.14329542219638824,-0.018520809710025787,0.10092093050479889,0.05050226300954819,0.16707465052604675,0.2205752432346344,0.33297285437583923,-0.0007837302982807159,0.03877458721399307,0.03428968787193298,0.116225466132164,-0.07661078870296478,0.12039981782436371,-0.0383385606110096,0.027568303048610687,0.08203907310962677,0.018595414236187935,-0.0567125529050827,-0.0578964501619339,0.28511330485343933,0.09457607567310333,0.2133263200521469,0.14912697672843933
NCT06937333,0.025635773316025734,-0.07484298944473267,-0.15763263404369354,0.03185546398162842,-0.02738945372402668,0.03649077191948891,-0.18424434959888458,-0.08716940134763718,-0.24253059923648834,0.018547145649790764,-0.13876134157180786,-0.16284799575805664,-0.024272983893752098,0.10462553054094315,-0.25125542283058167,0.028868617489933968,0.14829044044017792,0.06001229211688042,0.22437195479869843,0.1257735639810562,-0.06879374384880066,-0.05829484388232231,-0.1990003138780594,-0.28178951144218445,-0.18345622718334198,-0.08648183196783066,0.26296737790107727,-0.17065246403217316,-0.0005263686180114746,-0.0784606859087944,0.015914330258965492,0.003837304888293147,0.1656728982925415,-0.16937924921512604,-0.07346586138010025,0.0877431333065033,0.07126376032829285,0.026061296463012695,-0.026078328490257263,-0.15223126113414764,0.09020242840051651,0.21473784744739532,0.006785290781408548,0.1985543966293335,-0.09633340686559677,-0.10767804831266403,-0.1236576959490776,0.04522271826863289,0.18380029499530792,-0.4095773696899414,0.1495996117591858,0.09741582721471786,0.40354371070861816,-0.14359050989151,-0.08710026741027832,0.15926815569400787,-0.2799931764602661,0.04152299091219902,-0.010498170740902424,-0.1434946209192276,0.043870244175195694,0.06807523965835571,0.21776001155376434,0.13471131026744843,-0.2229936569929123,-0.007797872181981802,-0.0037878851871937513,-0.3663729429244995,0.0778423547744751,-0.011818848550319672,0.11738133430480957,-0.22118128836154938,-0.04186932370066643,0.07395300269126892,-0.02089199423789978,0.03360718488693237,0.25992223620414734,0.11009874939918518,-0.0032925407867878675,-0.19320447742938995,-0.17370657622814178,-0.08749377727508545,0.04605646803975105,0.20928187668323517,0.2313082367181778,-0.0747022032737732,0.10448417067527771,-0.05947750806808472,-0.028667887672781944,-0.1487124115228653,0.14630527794361115,-0.26885494589805603,0.06728687137365341,0.13364286720752716,-0.17976243793964386,0.023841286078095436,-0.30864524841308594,-0.13698773086071014,0.09662634134292603,-0.09150850772857666,-0.11691483110189438,-0.09406853467226028,0.028385967016220093,0.04381878301501274,-0.024541527032852173,-0.12320486456155777,-0.1371365487575531,-0.04016688093543053,0.033488545566797256,0.03787053003907204,0.18164664506912231,0.22770504653453827,-0.04590829089283943,-0.12110906839370728,0.043528083711862564,0.04733898118138313,0.03468341752886772,-0.10052082687616348,0.07237354665994644,-0.055715370923280716,0.12092209607362747,-0.16866165399551392,0.03903317078948021,-0.005164027214050293,0.191538468003273,0.18086957931518555,0.07749279588460922,0.15140819549560547
NCT06936982,0.055814146995544434,-0.024245845153927803,0.08225241303443909,0.011828240007162094,-0.10620672255754471,-0.11354129761457443,-0.056172728538513184,0.0008902831468731165,-0.14445297420024872,0.14356280863285065,-0.24875508248806,-0.20785671472549438,-0.04219643771648407,0.04622802883386612,-0.2952381372451782,0.15833544731140137,0.03654755279421806,-0.0967397689819336,0.10335095971822739,0.09967818856239319,-0.15626975893974304,-0.08052325248718262,-0.126458078622818,0.03611511364579201,-0.24851925671100616,-0.06876277923583984,0.24357441067695618,-0.20813404023647308,-0.056660667061805725,-0.07169929146766663,-0.09029140323400497,-0.163876011967659,0.09479006379842758,-0.08197596669197083,-0.09782864153385162,-0.0042510065250098705,0.11806581914424896,0.09813416004180908,-0.08367006480693817,-0.001558969379402697,-0.17915639281272888,0.20139211416244507,0.001697611529380083,0.26111459732055664,0.1581825464963913,-0.0748155415058136,0.03451856970787048,-0.009219242259860039,-0.0006902201566845179,-0.2627049386501312,-0.05155210942029953,-0.01019402127712965,0.2473953813314438,-0.14151541888713837,-0.11390528082847595,0.2010125368833542,-0.25525543093681335,0.04604417085647583,0.028394920751452446,-0.18023020029067993,0.04048094525933266,0.06928038597106934,0.20387710630893707,-0.03434644639492035,-0.0985628068447113,0.12553943693637848,0.1420566439628601,-0.26724445819854736,-0.06878115981817245,0.020149653777480125,-0.0049627092666924,-0.07883381843566895,-0.011263454332947731,-0.11482477188110352,0.041345059871673584,0.25491833686828613,0.1713743358850479,0.26823607087135315,0.08610067516565323,-0.11219333112239838,-0.1515377312898636,0.03655106574296951,0.12538541853427887,0.052927520126104355,-0.020023928955197334,-0.002312610624358058,0.3210342526435852,-0.026958035305142403,0.13856278359889984,0.1071268618106842,0.059487707912921906,-0.11921845376491547,-0.003309285966679454,0.17044872045516968,-0.13450929522514343,0.006556921638548374,-0.10164431482553482,0.06946508586406708,0.05472316965460777,-0.10601087659597397,-0.0046879928559064865,0.07821623235940933,-0.10074107348918915,-0.101320281624794,-0.05560242384672165,-0.0011252322001382709,-0.25056108832359314,-0.08732356876134872,0.08460136502981186,-0.08701521158218384,0.06428049504756927,0.2973214387893677,0.19388025999069214,0.12135831266641617,-0.036348845809698105,0.09031730890274048,-0.02602478116750717,-0.031299516558647156,0.034190867096185684,-0.0019003384513780475,0.025771986693143845,-0.07723985612392426,0.09278038144111633,-0.21942907571792603,0.023036504164338112,0.05985388532280922,0.24213430285453796,0.09999854117631912
NCT06936072,-0.14783743023872375,-0.1466580629348755,-0.21643060445785522,0.020396500825881958,-0.13808828592300415,0.06224389001727104,-0.12307685613632202,-0.11521969735622406,-0.2412189245223999,0.22080747783184052,-0.04107173532247543,0.09358439594507217,0.029751736670732498,0.1359630823135376,-0.18413662910461426,-0.09085781127214432,-0.1679089069366455,-0.053354036062955856,0.2097732424736023,0.3024267554283142,-0.12278138846158981,0.08148110657930374,-0.007145492359995842,-0.31214839220046997,-0.07298506796360016,-0.14005741477012634,-0.06037028506398201,-0.20932109653949738,-0.14282578229904175,0.09762123972177505,-0.09796907752752304,-0.19826605916023254,0.07075978815555573,-0.17106066644191742,-0.414916068315506,-0.15887011587619781,0.30863943696022034,0.16999875009059906,-0.04464326053857803,-0.1703060418367386,-0.03164903074502945,0.12527677416801453,0.03104851394891739,0.25334885716438293,-0.05472948029637337,-0.3226942718029022,-0.19041267037391663,0.021560758352279663,0.20039132237434387,-0.48995691537857056,0.14683659374713898,0.024649212136864662,0.2784479260444641,-0.1421424150466919,-0.03231941908597946,0.02360941469669342,-0.22649183869361877,0.08118648082017899,-0.07835846394300461,-0.1607586294412613,0.3410743474960327,0.09648337215185165,0.21637612581253052,0.2596171200275421,0.058728545904159546,-0.08355557918548584,0.19896110892295837,-0.27141880989074707,-0.06319570541381836,-0.10237301141023636,0.11907703429460526,0.02515086531639099,0.00019465945661067963,-0.023451827466487885,0.19126595556735992,0.17693310976028442,0.2141757607460022,0.23935160040855408,-0.07638633251190186,-0.26829463243484497,-0.4265616536140442,0.087775319814682,0.2441638708114624,0.18190598487854004,0.2350989133119583,-0.21094080805778503,-0.11693767458200455,0.08845233917236328,0.2542239725589752,-0.10268209874629974,0.270550400018692,-0.4549524486064911,0.09794113785028458,0.19068583846092224,-0.2749980688095093,0.0198160782456398,-0.1827475130558014,-0.08332324028015137,0.308227002620697,0.1184459775686264,-0.04333217442035675,-0.007508404552936554,-0.17459939420223236,-0.20518451929092407,-0.1355062574148178,-0.16082975268363953,-0.10916586220264435,0.052905671298503876,0.1380099505186081,0.01801096647977829,0.037300147116184235,0.19847728312015533,-0.14675197005271912,-0.18897953629493713,-0.011038634926080704,0.22628478705883026,0.027222465723752975,0.16128742694854736,-0.14869557321071625,-0.055652305483818054,0.07158984243869781,-0.25919443368911743,-0.020756997168064117,-0.18942567706108093,0.1359325647354126,0.05132913589477539,0.15980243682861328,0.00078592449426651
NCT06936332,0.30409252643585205,0.05928768217563629,0.015353353694081306,0.1682591289281845,-0.3810661733150482,-0.20110668241977692,-0.22949086129665375,0.0678248181939125,-0.14213548600673676,-0.015112883411347866,-0.26989349722862244,-0.06919445097446442,-0.21005091071128845,0.197858065366745,-0.4105531871318817,0.0864807739853859,0.016017058864235878,0.003263648133724928,-0.07941422611474991,0.39918628334999084,-0.17546428740024567,0.07891690731048584,-0.05875757709145546,-0.0765102282166481,-0.03460537642240524,0.10150239616632462,0.0797024667263031,-0.10539903491735458,-0.15884369611740112,-0.014257671311497688,0.09583772718906403,0.030367420986294746,0.1326080858707428,-0.212177574634552,-0.058699291199445724,0.09059888869524002,0.22311677038669586,0.15532392263412476,0.014416607096791267,-0.05166910961270332,0.0019125350518152118,0.18981462717056274,0.04778873920440674,0.22446176409721375,0.025785285979509354,0.12460957467556,-0.05573560670018196,-0.15978240966796875,-0.014266639947891235,-0.3414647877216339,0.20142890512943268,0.07990427315235138,0.15577037632465363,0.0019433394772931933,0.1859947293996811,0.11493779718875885,-0.34097859263420105,-0.07351335883140564,-0.268900066614151,-0.3889767825603485,0.22073227167129517,0.0007513008313253522,0.07142152637243271,0.1968204379081726,-0.01639775186777115,0.12225055694580078,0.24336035549640656,-0.2421104609966278,0.05920436605811119,0.21373026072978973,0.02061937376856804,-0.039386313408613205,0.04591415077447891,-0.08765533566474915,-0.21775496006011963,0.17009137570858002,0.21649593114852905,0.23242442309856415,0.1039547324180603,0.015043405815958977,-0.19429093599319458,0.05387285351753235,-0.014496449381113052,0.2035299837589264,-0.24996788799762726,-0.005577509757131338,0.15110105276107788,-0.10330626368522644,0.08896034210920334,-0.11059071868658066,0.07591430097818375,-0.1860341727733612,0.013483949936926365,0.15167352557182312,-0.21130256354808807,-0.07112733274698257,-0.23427730798721313,-0.24590545892715454,0.08347681909799576,0.02737489715218544,-0.15104341506958008,0.1388678401708603,0.19882754981517792,-0.2137347161769867,-0.12776677310466766,-0.01726783625781536,-0.21797114610671997,0.0637562945485115,0.23970955610275269,0.1366778314113617,0.009482471272349358,0.48060762882232666,0.017761966213583946,-0.027301805093884468,0.14938347041606903,0.2947896122932434,-0.16211584210395813,-0.30653321743011475,-0.11828643828630447,-0.16932879388332367,-0.050749521702528,-0.15507027506828308,-0.11211081594228745,0.031009064987301826,0.4533003568649292,0.2700859010219574,0.1542450487613678,0.16568629443645477
NCT06933485,0.04652141034603119,-0.06874971091747284,0.0863928496837616,-0.13829907774925232,-0.1391717493534088,0.010168202221393585,-0.2503258287906647,-0.1043601930141449,-0.2394154667854309,0.2294909805059433,0.013674234040081501,-0.0010854993015527725,0.1193724125623703,0.10016748309135437,-0.09810595214366913,0.041602764278650284,0.200449600815773,0.017361827194690704,0.13239407539367676,0.1670369654893875,-0.184356689453125,0.014053869992494583,-0.14586201310157776,-0.26821446418762207,-0.062514528632164,-0.21487563848495483,0.20546351373195648,-0.11993173509836197,0.05662070959806442,-0.03958108276128769,-0.028100257739424706,-0.06214115768671036,0.005590108223259449,-0.1466258317232132,-0.022831669077277184,-0.2402477264404297,0.0691804438829422,0.09462420642375946,-0.06640884280204773,-0.20869633555412292,-0.05858519673347473,0.1450226902961731,0.2151869535446167,0.13248413801193237,0.041757043451070786,-0.17794169485569,-0.14005307853221893,0.09167990833520889,-0.04488731920719147,-0.28396204113960266,0.20097792148590088,0.18930110335350037,0.5827528834342957,-0.08195535838603973,-0.18509624898433685,0.19934016466140747,-0.06508339941501617,0.1754751205444336,-0.005598932504653931,-0.1258978247642517,-0.08237269520759583,0.02311483398079872,0.22999435663223267,0.16497771441936493,-0.30683013796806335,0.07274113595485687,-0.020042801275849342,-0.4575083553791046,0.007358306087553501,-0.008262641727924347,-0.024685567244887352,-0.07817676663398743,0.016266152262687683,0.008451906964182854,-0.1652759313583374,0.08826180547475815,0.31108319759368896,0.08834630250930786,-0.030519818887114525,-0.14086636900901794,-0.1583276391029358,-0.07370822131633759,0.30981168150901794,0.19930623471736908,0.06868765503168106,-0.0194441769272089,0.09098958969116211,-0.09230196475982666,0.048958346247673035,-0.10589483380317688,0.37589672207832336,-0.22803422808647156,0.2865210771560669,0.15529491007328033,-0.28660646080970764,0.005674143321812153,-0.17739149928092957,-0.0411284938454628,0.08757514506578445,-0.028046902269124985,-0.010113143362104893,0.05486680567264557,0.07007120549678802,0.06399478763341904,-0.10515329986810684,-0.08216150104999542,-0.19076302647590637,-0.07432803511619568,-0.07295922935009003,0.22150008380413055,0.12053550779819489,0.25780147314071655,0.016980748623609543,-0.060982730239629745,0.005256622098386288,0.13588547706604004,-0.040198810398578644,-0.11604142934083939,-0.10489726811647415,-0.11311718076467514,0.09958930313587189,-0.18399678170681,0.06150152161717415,0.15477527678012848,0.16142037510871887,0.02779168263077736,0.01928907260298729,0.25361883640289307
NCT06933628,-0.006616989616304636,0.009539227001369,-0.14513732492923737,0.05529742315411568,-0.2230163812637329,-0.13172440230846405,-0.2844822108745575,-0.24309921264648438,-0.16250598430633545,0.1335698962211609,-0.07092736661434174,-0.07628937810659409,-0.09779710322618484,0.15485034883022308,-0.04937552288174629,0.09549745917320251,-0.027461955323815346,-0.06153136491775513,0.17405064404010773,0.2707973122596741,-0.07303228229284286,-0.03498957306146622,0.059619635343551636,-0.33708882331848145,0.0024317156057804823,-0.09333554655313492,0.03165774792432785,-0.3031405508518219,-0.09014817327260971,-0.046345483511686325,-0.09215796738862991,-0.05190199986100197,0.11505144834518433,-0.2634732127189636,-0.21074306964874268,-0.22408358752727509,0.31708040833473206,0.1344449669122696,-0.036429792642593384,-0.13037768006324768,-0.06951490789651871,-0.1357518881559372,0.15078283846378326,0.11702626943588257,-0.08663914352655411,-0.1070808470249176,-0.037958595901727676,0.020048892125487328,0.042998164892196655,-0.36410582065582275,0.25690287351608276,0.1673017293214798,0.2500859200954437,-0.16744868457317352,-0.041398677974939346,0.08480343967676163,-0.26123663783073425,0.11935939639806747,-0.11025389283895493,-0.27053913474082947,0.07518512010574341,0.10023825615644455,0.2872268855571747,0.13854730129241943,-0.02689703367650509,0.022544339299201965,0.035325225442647934,-0.3559018671512604,0.08190640807151794,-0.04270702227950096,0.0724853053689003,0.022184627130627632,0.0628250315785408,0.1660560518503189,0.028935963287949562,0.2321394830942154,0.1944981813430786,0.1250145137310028,0.05479392036795616,-0.14139379560947418,-0.2952788174152374,0.07698025554418564,0.06982124596834183,0.18441784381866455,0.20611362159252167,-0.18679161369800568,0.10024138540029526,-0.03322739526629448,0.26184576749801636,-0.1153688058257103,0.331358402967453,-0.2741413414478302,0.05896021053195,0.08492753654718399,-0.328753262758255,-0.02056618593633175,-0.20229493081569672,-0.1563970297574997,0.3232508897781372,0.0934375524520874,-0.11408516019582748,0.058722738176584244,-0.2221330851316452,-0.09706133604049683,-0.16758690774440765,-0.09709209203720093,-0.004568594042211771,0.019967714324593544,-0.008682608604431152,0.15828676521778107,0.08173280209302902,0.2762293815612793,-0.06059489771723747,-0.08643293380737305,0.0680370107293129,0.23856763541698456,-0.02589651383459568,0.038387756794691086,-0.1959465891122818,0.02852042019367218,0.1642579287290573,-0.145216166973114,-0.022488102316856384,0.022537952288985252,0.18721449375152588,0.06903668493032455,0.048304926604032516,-0.03501131013035774
NCT06933147,0.13672952353954315,-0.26942265033721924,-0.020933721214532852,-0.061404868960380554,-0.0064662788063287735,0.015712719410657883,0.0205853171646595,-0.10775801539421082,-0.15726308524608612,0.1848563700914383,0.17830033600330353,0.045838192105293274,0.16727396845817566,0.06762942671775818,-0.22196727991104126,-0.09144735336303711,0.16890977323055267,-0.10096322000026703,0.06185982748866081,0.14867079257965088,-0.16965684294700623,0.018268296495079994,-0.1418302208185196,-0.04116450995206833,-0.05440044403076172,-0.12811359763145447,0.14317166805267334,-0.19234362244606018,-0.08607608824968338,-0.1561175286769867,0.09391674399375916,0.23218926787376404,0.10998711735010147,0.06296658515930176,-0.0002429187297821045,-0.1302901804447174,-0.0560525581240654,0.14382918179035187,0.16889427602291107,-0.03880999609827995,-0.013307889923453331,0.11760169267654419,0.09622301906347275,0.2212654948234558,0.1927807331085205,-0.0038738977164030075,-0.11880163103342056,0.06122962757945061,0.2858087122440338,-0.23572316765785217,0.16275519132614136,0.1461547464132309,0.29765596985816956,-0.022487327456474304,-0.09191782027482986,0.09195028245449066,-0.15774530172348022,-0.05354771018028259,-0.09524153172969818,-0.14408576488494873,0.1791437268257141,-0.06934568285942078,0.2648857831954956,0.2719130516052246,-0.13281667232513428,-0.005110826343297958,0.26454591751098633,-0.522612452507019,-0.017727144062519073,-0.11952947080135345,0.1352553516626358,-0.07548730820417404,0.08074582368135452,-0.08166730403900146,-0.016249317675828934,0.1431238353252411,0.34278497099876404,0.2545323371887207,0.1112440973520279,-0.059681132435798645,-0.18284960091114044,-0.045210547745227814,0.3932410776615143,0.16799451410770416,0.03558429703116417,-0.05015113204717636,0.0609651543200016,-0.13113629817962646,0.010287448763847351,0.06542301177978516,0.15856972336769104,-0.20888948440551758,0.14566072821617126,0.06034153327345848,-0.2005568891763687,-0.034979380667209625,-0.213606595993042,-0.02680792286992073,-0.06633134186267853,-0.14270687103271484,0.006181497126817703,-0.0008471161127090454,0.07379931956529617,-0.05046047642827034,-0.3489443063735962,-0.19153910875320435,-0.08577872812747955,-0.043874211609363556,-0.046559419482946396,0.14320969581604004,0.032442640513181686,0.24093642830848694,0.04553024098277092,0.022361502051353455,-0.002592194825410843,0.16737954318523407,-0.06584718078374863,-0.1443612426519394,-0.1842459887266159,-0.17066967487335205,-0.0791478380560875,-0.09231311082839966,0.03543689101934433,-0.11932931840419769,0.04265192896127701,0.02100350707769394,0.056945040822029114,0.06336914747953415
NCT06932991,0.08906936645507812,-0.27173876762390137,-0.05907876789569855,-0.2339724898338318,-0.04093232750892639,-0.0027968045324087143,-0.16103579103946686,-0.1456300914287567,-0.09951239079236984,0.22213533520698547,0.0718129575252533,-0.08466912060976028,0.07829815149307251,0.09297594428062439,-0.11919285356998444,-0.024840235710144043,0.11539919674396515,-0.0350283682346344,0.023701824247837067,0.22079366445541382,-0.1372857391834259,0.15974245965480804,-0.0482458770275116,-0.10270337760448456,-0.004893440753221512,-0.19598668813705444,0.05141482874751091,-0.2927809953689575,-0.015081562101840973,-0.11793102324008942,-0.058143794536590576,0.062134094536304474,0.26891785860061646,0.060610055923461914,-0.06606243550777435,-0.07633582502603531,0.0381961390376091,0.18139758706092834,0.31322410702705383,0.028268735855817795,0.05447804927825928,0.35123613476753235,0.12628644704818726,0.3179699778556824,0.042823921889066696,-0.14937946200370789,-0.22748196125030518,0.20047366619110107,0.23757044970989227,-0.2933925688266754,0.19752106070518494,0.40009772777557373,0.519629955291748,0.058387842029333115,-0.3362572193145752,0.06810453534126282,-0.3319553732872009,-0.07056844234466553,0.21039354801177979,-0.10711324959993362,0.15942217409610748,0.10390482097864151,0.258749395608902,0.2610747516155243,0.07164710015058517,-0.048824384808540344,0.23182189464569092,-0.3320753574371338,0.12213940918445587,-0.03563394397497177,0.11765116453170776,0.17690688371658325,0.053731054067611694,0.023146506398916245,0.03619220852851868,0.2463270127773285,0.2433549165725708,0.3671472668647766,0.08691738545894623,-0.030303187668323517,-0.12176817655563354,-0.19063721597194672,0.29855191707611084,0.29146724939346313,0.3392314612865448,-0.14341574907302856,0.2844380736351013,-0.07681882381439209,0.2692614197731018,-0.13726602494716644,-0.0640559196472168,-0.10766980051994324,0.14045406877994537,0.11398389935493469,-0.19490623474121094,-0.00564984604716301,-0.25880947709083557,-0.11637293547391891,0.20182159543037415,-0.14332839846611023,0.11475562304258347,-0.03968436270952225,-0.016672540456056595,-0.017785951495170593,-0.19351541996002197,-0.10356651991605759,0.027814924716949463,-0.05914512276649475,-0.23626257479190826,0.02239745855331421,-0.005644243210554123,0.2119629681110382,-0.07323408871889114,-0.024364158511161804,0.05107123777270317,0.13556663691997528,-0.0010308325290679932,-0.05711977928876877,-0.10313644260168076,-0.08944433927536011,-0.004557721316814423,-0.35435789823532104,0.18081948161125183,-0.13672281801700592,0.045790135860443115,0.06600521504878998,0.2723507583141327,-0.07964563369750977
NCT06931587,0.04841148108243942,-0.03669806942343712,0.008343122899532318,-0.09284798055887222,-0.14091195166110992,-0.06413230299949646,-0.2583836317062378,-0.16207218170166016,-0.15214839577674866,0.27385616302490234,-0.13492965698242188,-0.20451316237449646,-0.0820733904838562,-0.0533975288271904,-0.3191143870353699,0.21092438697814941,-0.013407986611127853,0.00536920502781868,-0.02801705151796341,0.06659897416830063,-0.14946764707565308,-0.1946001648902893,0.05231717228889465,-0.05511891469359398,-0.1768268495798111,-0.22989755868911743,0.18886154890060425,-0.45226895809173584,-0.07308349013328552,-0.0830535888671875,0.018348000943660736,-0.12734979391098022,0.08784623444080353,0.17581124603748322,-0.0711183100938797,-0.03759591281414032,0.1600993573665619,0.11315551400184631,0.10579297691583633,-0.06065521389245987,0.08538409322500229,0.2053632289171219,0.11702810227870941,0.20610246062278748,0.14281781017780304,-0.05291232466697693,-0.07441164553165436,0.08550070226192474,0.15780796110630035,-0.07628381997346878,-0.026976946741342545,0.15585559606552124,0.25657016038894653,-0.08787451684474945,-0.14022734761238098,0.17471522092819214,-0.2507070302963257,-0.17736083269119263,0.19614273309707642,-0.005588440224528313,0.17683178186416626,0.1820145696401596,0.22582606971263885,0.13957855105400085,0.006959116086363792,0.04927365481853485,0.2687433660030365,-0.07467822730541229,-0.09401148557662964,0.013119246810674667,0.017029933631420135,-0.09068603068590164,0.04647962003946304,-0.028469383716583252,0.059690363705158234,0.2375842034816742,0.2658340334892273,0.20598821341991425,0.12776240706443787,-0.22793275117874146,-0.06244821846485138,-0.05577510595321655,-0.03654758632183075,0.025099653750658035,0.2516193985939026,-0.04425066336989403,0.13383877277374268,0.01300240308046341,0.27272921800613403,0.10816166549921036,-0.015659352764487267,-0.019619490951299667,0.06979269534349442,-0.06269344687461853,-0.12033920735120773,-0.013704754412174225,-0.2939901649951935,-0.03730781003832817,0.2317763864994049,-0.25681403279304504,-0.10341700911521912,-0.052322614938020706,-0.11029978096485138,-0.06623581051826477,0.15852203965187073,-0.041464079171419144,-0.18939997255802155,-0.13628579676151276,0.14786066114902496,-0.14294348657131195,0.0743640661239624,0.2149914801120758,0.0802360326051712,0.05665864795446396,-0.07049573957920074,0.12834495306015015,0.04161924496293068,-0.08565813302993774,-0.01948944851756096,-0.08307696878910065,-0.14188086986541748,-0.2397482991218567,0.12825095653533936,-0.32096293568611145,0.1552545577287674,0.29979586601257324,0.13815978169441223,-0.1435948610305786
NCT06932159,0.1498398631811142,0.009140091948211193,0.05604448914527893,0.12857069075107574,-0.07705826312303543,-0.06771693378686905,-0.1093856692314148,0.2622440755367279,-0.10660313814878464,0.3555935323238373,-0.13657300174236298,-0.2658577263355255,-0.16410847008228302,0.09784170985221863,-0.39298757910728455,0.08024035394191742,0.03765338659286499,-0.32906973361968994,0.1039508581161499,0.21379278600215912,-0.18789701163768768,-0.04475322365760803,0.1553718000650406,0.12839263677597046,-0.2158031016588211,0.10683391243219376,0.0679260641336441,-0.31486761569976807,-0.09331277757883072,-0.2261580228805542,-0.05113288760185242,0.020378151908516884,-0.00740919029340148,-0.09242803603410721,-0.10171347856521606,-0.1876712441444397,0.07834577560424805,-0.11082050949335098,0.13917678594589233,0.08368458598852158,-0.09220675379037857,0.13457034528255463,0.06959307938814163,0.3103615343570709,0.09937387704849243,0.011002474464476109,0.006724432110786438,-0.11746173352003098,-0.018341049551963806,-0.09321444481611252,0.01035220269113779,-0.05808594450354576,0.3045724928379059,-0.22422760725021362,-0.11246341466903687,0.0951879695057869,-0.33482202887535095,0.014013774693012238,-0.16532458364963531,-0.12977778911590576,-0.0199812613427639,-0.06913163512945175,0.10048457235097885,0.02107563056051731,0.060036029666662216,0.23590373992919922,0.3168849050998688,-0.2300453633069992,-0.062185078859329224,0.0719684287905693,0.1414518803358078,-0.17962868511676788,0.10811933875083923,0.08747569471597672,0.013334865681827068,0.3123699724674225,0.20976848900318146,0.12731848657131195,0.1728695183992386,-0.05044936761260033,-0.25039151310920715,0.20423924922943115,0.3325369358062744,0.012095729820430279,-0.051703523844480515,0.10120165348052979,0.32958611845970154,0.02751258574426174,0.20913131535053253,0.20955364406108856,-0.09985528141260147,-0.300876647233963,-0.09099362045526505,0.07833231985569,-0.07221212238073349,0.06030942127108574,-0.21710561215877533,-0.1643671840429306,0.2615654468536377,-0.23156459629535675,-0.1674216389656067,0.1815391331911087,-0.1819421797990799,-0.1648567169904709,-0.31275928020477295,-0.09644061326980591,-0.21831445395946503,-0.0862681046128273,0.1559341698884964,0.14165596663951874,0.23532472550868988,0.2078552097082138,0.10281908512115479,-0.0004822785558644682,-0.15915031731128693,0.1357116848230362,-0.1562679558992386,-0.025109848007559776,-0.14930318295955658,0.010370667092502117,-0.054419055581092834,0.04309621825814247,-0.059303779155015945,-0.22899697721004486,-0.05232337489724159,0.10914298892021179,0.27936282753944397,-0.09389004856348038
