nct_id,emb_0,emb_1,emb_2,emb_3,emb_4,emb_5,emb_6,emb_7,emb_8,emb_9,emb_10,emb_11,emb_12,emb_13,emb_14,emb_15,emb_16,emb_17,emb_18,emb_19,emb_20,emb_21,emb_22,emb_23,emb_24,emb_25,emb_26,emb_27,emb_28,emb_29,emb_30,emb_31,emb_32,emb_33,emb_34,emb_35,emb_36,emb_37,emb_38,emb_39,emb_40,emb_41,emb_42,emb_43,emb_44,emb_45,emb_46,emb_47,emb_48,emb_49,emb_50,emb_51,emb_52,emb_53,emb_54,emb_55,emb_56,emb_57,emb_58,emb_59,emb_60,emb_61,emb_62,emb_63,emb_64,emb_65,emb_66,emb_67,emb_68,emb_69,emb_70,emb_71,emb_72,emb_73,emb_74,emb_75,emb_76,emb_77,emb_78,emb_79,emb_80,emb_81,emb_82,emb_83,emb_84,emb_85,emb_86,emb_87,emb_88,emb_89,emb_90,emb_91,emb_92,emb_93,emb_94,emb_95,emb_96,emb_97,emb_98,emb_99,emb_100,emb_101,emb_102,emb_103,emb_104,emb_105,emb_106,emb_107,emb_108,emb_109,emb_110,emb_111,emb_112,emb_113,emb_114,emb_115,emb_116,emb_117,emb_118,emb_119,emb_120,emb_121,emb_122,emb_123,emb_124,emb_125,emb_126,emb_127,cluster
NCT03059992,0.2505545318126678,-0.0606447160243988,0.1300450712442398,0.0044627892784774,-0.3530605435371399,-0.1120726093649864,-0.0536850988864898,-0.1182958111166954,-0.1174516677856445,0.1384517848491668,-0.0620673336088657,-0.0464355498552322,-0.0131690893322229,0.1454548239707946,-0.2134628742933273,0.2054396718740463,0.1258159428834915,-0.0357913598418235,-0.2312246561050415,0.2297152727842331,-0.2382915616035461,-0.0980180203914642,-0.1265485733747482,0.1473536491394043,-0.0155873615294694,-0.0675009712576866,0.3345566391944885,-0.253436416387558,-0.156952679157257,-0.1639233976602554,-0.0615913569927215,0.0005626662750728,0.1660261452198028,0.0141636254265904,0.0733521059155464,-0.0600849501788616,-0.0010939397616311,0.222599059343338,0.21784009039402,-0.1041558757424354,-0.0978939235210418,0.1856777369976043,-0.0244888756424188,0.2985866069793701,-0.0040734717622399,-0.0568235926330089,0.0794475674629211,0.0966857522726059,0.1801502853631973,-0.1846816390752792,0.1800523400306701,0.0055431565269827,0.2426225692033767,-0.0892295092344284,-0.0399904288351535,0.0933072566986084,-0.1911588758230209,-0.0276340711861848,0.0315094701945781,-0.1825305819511413,0.1196509674191474,0.0175945796072483,0.0891058444976806,0.2264097929000854,-0.0932399630546569,0.1714117228984832,0.0670460760593414,-0.1759529560804367,0.0041311681270599,0.170358806848526,0.0499153211712837,-0.0892799943685531,-0.0359045900404453,-0.0321151912212371,-0.0908161699771881,0.2937532365322113,0.2318341881036758,0.2015332728624344,0.2296139597892761,0.0607127398252487,-0.1749366521835327,0.0472347103059291,0.0060672950930893,-0.0509661585092544,-0.1758983880281448,0.0194963067770004,0.0335936956107616,0.0345788300037384,0.2195586413145065,-0.1082533672451973,-0.0385112278163433,-0.0419119000434875,0.0312779396772384,0.0051051881164312,-0.1114471554756164,0.0644786432385444,-0.0897780358791351,0.0060844160616397,0.0643408149480819,0.00202796026133,-0.1200916543602943,0.1393906474113464,0.108640156686306,-0.1056370586156845,-0.0994793400168418,-0.0633411407470703,-0.0213491320610046,0.0984635949134826,0.2727232575416565,-0.0540746003389358,0.1258623152971267,0.3061288893222809,0.0724893435835838,-0.0130968512967228,0.1856178790330886,0.0638277679681778,-0.2845000028610229,-0.339337557554245,-0.104299247264862,-0.0951642617583274,-0.1011380925774574,-0.235011950135231,0.0627749487757682,-0.0323497019708156,0.289281278848648,0.2288359105587005,0.0648147463798523,0.1121453493833541,1
NCT03257033,0.1569954007863998,-0.0848408415913581,0.012297268025577,0.0076387324370443,-0.0843219086527824,-0.1052053570747375,-0.1067503169178962,0.074496291577816,-0.2574465274810791,0.0377804152667522,-0.1000142470002174,-0.1347389072179794,-0.1251147240400314,-0.0289323031902313,-0.1642364710569381,-0.0066276863217353,0.0232318136841058,-0.0158100649714469,0.0056384704075753,0.242085114121437,-0.0946211442351341,-0.1400175839662552,-0.0584061741828918,-0.0708520784974098,-0.1461274772882461,-0.11753461509943,0.2175169438123703,-0.0446689017117023,-0.1712430715560913,-0.1600230932235717,-0.0312099996954202,0.0468992702662944,0.247990608215332,0.0818420872092247,0.0015564361819997,0.0205716416239738,0.0837585553526878,0.0136587647721171,0.0757765769958496,0.098148338496685,-0.0537628345191478,0.1430312991142273,-0.0214229226112365,0.2801226675510406,0.1328323483467102,0.0117769241333007,-0.2254938632249832,0.1410719007253646,0.1664447486400604,-0.1789479106664657,-0.0864469036459922,-0.0183860603719949,0.2441905289888382,-0.0269311387091875,-0.1073001399636268,0.0960744023323059,-0.1085337400436401,-0.1570912152528762,0.2120852917432785,-0.2158361673355102,0.223611295223236,0.0874257981777191,0.1805605441331863,0.0015212023863568,-0.0744002386927604,0.1529067307710647,0.1220732554793357,-0.0907921120524406,-0.1745864003896713,-0.0236580017954111,0.1236808821558952,-0.1198298931121826,0.0772082507610321,-0.1858363896608352,0.0551815517246723,0.1796148270368576,0.1614383161067962,0.0190278496593236,0.1233070865273475,-0.1657563596963882,-0.1920480877161026,-0.0328734815120697,0.0287402626127004,0.0398466810584068,0.0409662835299968,-0.0853011235594749,0.1966761350631714,0.145978108048439,0.1507436335086822,-0.1249600574374198,-0.0024598024319857,-0.1742016524076461,-0.0183297712355852,0.0869537070393562,-0.1769451349973678,0.0760129615664482,-0.1908876448869705,0.0723092555999755,0.1140322312712669,-0.1013246551156044,-0.1472167372703552,0.2335405498743057,0.0098954075947403,-0.0018676606705412,0.0213309843093156,-0.1156985983252525,-0.1408299207687378,0.0422360263764858,0.1462056785821914,0.054612647742033,0.1870316267013549,0.1800187230110168,-0.1734180003404617,0.0340080745518207,0.0802877023816108,0.0878748372197151,-0.128647044301033,-0.252973735332489,-0.0086390702053904,0.0960034653544426,-0.1316340416669845,-0.2715040147304535,0.1439261585474014,-0.2403078824281692,0.180644229054451,0.1563011407852172,0.165337935090065,-0.0577992312610149,4
NCT03363841,0.1256953328847885,-0.1100226491689682,-0.0557745248079299,-0.0701553747057914,-0.1742301881313324,-0.1139642149209976,-0.1093011200428009,-0.0788326784968376,-0.180160790681839,0.0564067997038364,-0.1633560955524444,-0.1484629511833191,-0.0826407074928283,0.1279942393302917,-0.2603688836097717,0.1230479851365089,0.0225657131522893,0.0141916926950216,0.0731837972998619,0.1975376456975937,-0.0480556935071945,-0.0549112260341644,-0.1371162086725235,0.0492342486977577,-0.1201346665620803,-0.1475721597671508,0.3274211883544922,-0.3139370083808899,-0.1362282037734985,-0.1619263738393783,-0.0942143574357032,-0.0064914338290691,0.2007472217082977,0.0553597919642925,-0.1451764851808548,-0.0587656646966934,-0.0385735817253589,0.0886086225509643,0.1067547276616096,-0.093535803258419,0.003423772752285,0.1316681504249572,0.0056116059422492,0.222618818283081,0.0068582780659198,0.0181356649845838,-0.0998589843511581,-0.0607631094753742,0.1703837215900421,-0.1577473282814026,0.1353092491626739,0.213660717010498,0.125259667634964,-0.0039335303008556,-0.1100881397724151,-0.0439157150685787,-0.2158666551113128,-0.1356905698776245,0.0040021687746047,-0.1260005831718444,0.2910947799682617,0.1348748505115509,0.1965958476066589,0.1468167901039123,-0.130711942911148,0.0924874991178512,0.1104317605495452,-0.2623722851276397,0.0008448716253042,0.0120602175593376,0.1101450026035308,-0.0706333220005035,-0.0105649046599864,-0.0174469426274299,-0.1200771704316139,0.305491179227829,0.2478399872779846,0.2547436356544494,0.1702304780483245,0.0205935128033161,-0.1073606684803962,0.0610369965434074,-0.0467106997966766,0.0311595182865858,0.1193165853619575,-0.1522981226444244,0.1395578533411026,-0.1033937186002731,0.2254532128572464,-0.0113384183496236,0.0442392528057098,-0.2109497487545013,0.0457626394927501,0.0625976920127868,-0.1209025979042053,0.0242691282182931,-0.2355835735797882,-0.0666388794779777,0.2039033323526382,-0.0812290906906127,-0.2244352251291275,0.0250530894845724,-0.121692344546318,-0.0549603514373302,-0.0609782338142395,0.0071639977395534,0.0948575139045715,0.0142346415668725,0.0577905066311359,-0.1805191487073898,0.191908597946167,0.2708528637886047,0.0559303723275661,0.0134853776544332,0.10706327855587,0.0522241592407226,-0.0718868151307106,-0.1303299814462661,-0.0844619944691658,0.1186219304800033,-0.025730688124895,-0.1639035046100616,0.082927256822586,-0.1263087093830108,0.2811371088027954,0.2697683274745941,0.1517161428928375,-0.077541284263134,0
NCT03417102,0.1283093392848968,-0.0657546669244766,0.0148051995784044,0.1611798405647277,-0.1384821385145187,-0.2282171696424484,0.0621839873492717,-0.0642367154359817,-0.0831774175167083,0.1296666413545608,-0.0442133843898773,-0.0453734695911407,-0.0566232316195964,0.0208222400397062,-0.393778383731842,0.1107106059789657,0.0654768124222755,-0.110679492354393,-0.0316978022456169,0.094450294971466,-0.1408415138721466,-0.2044793516397476,-0.0833050906658172,0.02904031611979,-0.1429437398910522,-0.0976885855197906,0.0672555491328239,-0.2490259408950805,-0.05085414275527,-0.103192962706089,0.0331828109920024,0.0367727912962436,0.1051396653056144,0.0632906183600425,-0.0604124180972576,0.0055424300953745,0.1874609738588333,0.1389472186565399,0.06833316385746,-0.0608068704605102,-0.108533076941967,0.0512326210737228,0.0400249324738979,0.1377259939908981,0.1569190323352813,-0.054702490568161,-0.1018813475966453,-0.1055190712213516,0.1673344224691391,-0.2673027813434601,0.0434285663068294,-0.0563990399241447,0.1111339405179023,-0.1309767514467239,-0.0291557032614946,0.1873857825994491,-0.2503552436828613,-0.0530018284916877,0.0346074514091014,-0.1501653641462326,0.1666878014802932,0.0975724384188652,0.163592904806137,0.0571984127163887,0.0822077468037605,0.0404230765998363,0.2511222064495086,-0.2574585080146789,-0.0629929453134536,-0.1347463428974151,0.088122583925724,-0.1064424291253089,-0.0165146570652723,-0.1243714913725853,0.0365808643400669,0.1555607914924621,0.2541781663894653,0.0654611736536026,0.0767108052968978,-0.1138259023427963,-0.1760117709636688,0.0056767030619084,0.0646983757615089,0.0037722445558756,0.0215566921979188,-0.0103250341489911,0.1824216246604919,-0.0253494270145893,0.2819693088531494,0.1201438456773758,0.0762291997671127,-0.1297502815723419,0.0416158325970172,0.0012372792698442,-0.1809981018304824,-0.0039501301944255,-0.2300268560647964,-0.0484645590186119,0.0420452058315277,-0.1127861812710762,-0.130078911781311,0.0025812189560383,-0.0398026369512081,-0.0418875776231288,-0.0764310210943222,-0.0143620213493704,-0.3276019692420959,0.020128309726715,0.2698916792869568,-0.1400515586137771,0.0460605695843696,0.2689700722694397,0.1302866637706756,0.1255914866924286,0.0510751530528068,0.227550595998764,0.0763630047440528,-0.1147658675909042,-0.0214653275907039,0.051965657621622,-0.1350599527359008,-0.1287588626146316,0.1543540507555008,-0.2807306051254272,0.1008196026086807,0.0972758457064628,0.1453398466110229,0.0831132382154464,3
NCT03425279,0.2008314877748489,-0.0037441353779286,-0.0525334328413009,-0.0346709080040454,-0.2277797907590866,-0.1374131888151168,-0.1283104568719864,-0.0388082228600978,-0.1872001141309738,0.0534891225397586,-0.1126203536987304,-0.1717534512281417,-0.1211883947253227,-0.0398075766861438,-0.1605075746774673,0.0942314192652702,0.0178198516368865,0.0711361765861511,-0.0261385049670934,0.3079801797866821,-0.0121551407501101,-0.0852103754878044,-0.0244463738054037,-0.0432445965707302,-0.1386269330978393,-0.0999964773654937,0.1809916049242019,-0.1278296262025833,-0.1899828761816024,-0.1608226746320724,-0.0686229169368743,0.0238079205155372,0.2554254829883575,0.0288063827902078,-0.002830586163327,0.0372102558612823,0.101530872285366,0.056082185357809,0.1482710093259811,-0.0129696428775787,-0.1012157201766967,0.1652778387069702,-0.0429063737392425,0.3372459709644317,0.0733156353235244,-0.0444133430719375,-0.1729455590248108,0.0780250430107116,0.1981222480535507,-0.2980464696884155,-0.0887795388698577,-0.0655408650636673,0.2668816149234772,-0.0673846676945686,-0.1118209734559059,0.1150821447372436,-0.1538952142000198,-0.1195667013525962,0.2175465375185012,-0.2377237528562545,0.2577058970928192,0.0990515723824501,0.117311954498291,0.0636105015873909,0.0174484625458717,0.1650219112634658,0.1244710907340049,-0.1151232421398162,-0.1468439698219299,0.0431488640606403,0.0714235380291938,-0.0896981880068779,0.049790158867836,-0.1749571561813354,0.0419036410748958,0.2619576156139374,0.1346691995859146,0.1238006576895713,0.1257562637329101,-0.2863652408123016,-0.3000182807445526,0.0058726617135107,-0.0063113346695899,-0.0606746189296245,0.0818665400147438,-0.1163074970245361,0.2229538410902023,0.15407295525074,0.2874378859996795,-0.1141283735632896,-0.0153066031634807,-0.1502357721328735,-0.0842459127306938,0.1624833792448043,-0.1383772641420364,0.0470498614013195,-0.2120925039052963,0.0144382147118449,0.1150135025382042,-0.0562842227518558,-0.1669730991125106,0.2097905427217483,-0.0653315111994743,-0.0608350150287151,0.0676579847931861,-0.032794713973999,-0.1485833376646042,0.0485436916351318,0.074591189622879,0.002932570874691,0.0850418806076049,0.1638990044593811,-0.1402387171983719,0.0054355729371309,0.0529049448668956,0.1436036974191665,-0.2064262479543686,-0.1917069405317306,-0.0511434487998485,0.0445788167417049,-0.1116139888763427,-0.3077766895294189,0.0848826542496681,-0.2491588741540908,0.1596881747245788,0.2213282585144043,0.1767141819000244,-0.1469092965126037,4
NCT03464019,0.0100938137620687,-0.146437868475914,-0.1197379902005195,-0.1410181522369384,-0.0956401079893112,-0.0952160507440567,0.0362567454576492,-0.0973752811551094,-0.2317619025707245,0.1186733320355415,-0.0154384290799498,-0.1813937723636627,0.0458069667220115,0.0063077798113226,-0.2182239890098571,0.0557654537260532,0.0830445364117622,0.1144156977534294,0.1773763597011566,0.1969455033540725,-0.0225242469459772,-0.1093312874436378,-0.2518006861209869,0.0321400314569473,-0.0620709098875522,-0.1238617002964019,0.2465566843748092,-0.1677010655403137,-0.1142864748835563,-0.0794148594141006,0.0216497182846069,-0.1180368214845657,0.1736138463020324,0.0395125895738601,-0.1718887239694595,0.0130647215992212,0.0167650207877159,0.1347950845956802,-0.0742237120866775,-0.1252931207418441,0.0182253774255514,0.1706034243106842,0.0398293770849704,0.253187358379364,0.0105364089831709,-0.1701086312532425,-0.1937864124774933,-0.0282630324363708,0.1811285763978958,-0.1225253269076347,-0.0189500637352466,0.242769569158554,0.2503044307231903,-0.033231746405363,-0.2445623576641082,-0.0056844749487936,-0.1706662029027938,-0.0509971193969249,0.0317608937621116,-0.1303985267877578,0.3701920807361603,0.1192869991064071,0.1395869106054306,0.2204999327659607,-0.1633838564157486,0.0665417909622192,0.1572637259960174,-0.1723838597536087,-0.1116282045841217,-0.0476663708686828,0.1413376033306121,-0.0408482477068901,-0.1332771331071853,-0.1724617779254913,0.1225396692752838,0.1368619501590728,0.1055440902709961,0.2917630076408386,0.1349401623010635,-0.209623783826828,-0.2395540177822113,-0.0171316098421812,0.1012191027402877,-0.0943191051483154,0.2218337804079055,-0.0952870845794677,0.1196917816996574,0.0554245524108409,0.2358755320310592,0.0382428206503391,0.0328960791230201,-0.1875335276126861,0.2138849794864654,0.0603920072317123,-0.0704472064971923,-0.0330964773893356,-0.274397999048233,0.0492580533027648,0.1824007630348205,-0.0983903855085372,-0.1114105284214019,0.0131081938743591,-0.0651750788092613,-0.0522431209683418,0.1142687946557998,0.0230366587638854,-0.0890380218625068,-0.0927168056368827,0.1639702171087265,-0.125923290848732,0.1619500964879989,0.2093302607536316,0.0757460668683052,-0.0019148054998368,0.0830107778310775,0.0116924932226538,-0.1336804777383804,-0.0867298394441604,-0.0750219672918319,0.1825202107429504,0.0192159935832023,-0.3128244578838348,0.1225803717970848,-0.1963815838098526,0.268896609544754,0.12065289914608,0.2683460116386413,-0.0604983568191528,0
NCT03504488,0.1530480980873108,-0.0821263492107391,-0.0894642993807792,-0.0149975810199975,-0.1392715871334076,-0.1621743738651275,-0.1377614140510559,-0.0131101962178945,-0.2040679901838302,0.0466318614780902,-0.1162766963243484,-0.1922934353351593,-0.1029993370175361,0.0158613212406635,-0.1297105550765991,-0.024368917569518,0.0323285870254039,0.0467457845807075,-0.0013016834855079,0.2446338683366775,-0.0481695160269737,-0.097194880247116,-0.0552303493022918,-0.0776816308498382,-0.2020327299833297,-0.1438452005386352,0.208559513092041,-0.1656819581985473,-0.159599557518959,-0.1505220681428909,-0.1017558127641677,-0.0052957851439714,0.3124881386756897,0.0584593601524829,-0.049600712954998,0.0808509960770607,0.055563535541296,0.0549048706889152,0.0990407913923263,0.0595859140157699,-0.0269749052822589,0.203696995973587,0.0227292701601982,0.3012834191322326,0.1122210323810577,-0.0188410077244043,-0.2707289755344391,0.0407970622181892,0.2251431494951248,-0.1935433894395828,-0.0876450762152671,0.0910966694355011,0.2365148663520813,0.0092566963285207,-0.1849345266819,0.0905172973871231,-0.1484147012233734,-0.1630095541477203,0.208812341094017,-0.2064495831727981,0.2916942834854126,0.1021889448165893,0.1985807716846466,0.0378622449934482,-0.0243364367634058,0.1130229905247688,0.1501337438821792,-0.1037705913186073,-0.1529376953840255,0.0184283480048179,0.0750937387347221,-0.08366060256958,0.0939573869109153,-0.2171037793159485,0.0731866210699081,0.1898993849754333,0.1361767351627349,0.1801287084817886,0.1478288918733596,-0.2434232234954834,-0.1837155818939209,-0.0321325920522213,-0.0867315158247947,-0.0143042365089058,0.1252283155918121,-0.0970509499311447,0.2928079664707184,0.1043270379304885,0.2596225142478943,-0.0835712850093841,-0.0810316205024719,-0.1158288791775703,-0.0075880512595176,0.1318838596343994,-0.1501094400882721,0.0620144717395305,-0.1556913554668426,0.039750836789608,0.1091838926076889,-0.1361011266708374,-0.2024078071117401,0.1343788206577301,-0.0157414488494396,-0.0398239269852638,0.0136209055781364,-0.0231427140533924,-0.1407601237297058,0.0502970516681671,0.1214099302887916,-0.0867114812135696,0.1531022638082504,0.2456405162811279,-0.1128601431846618,0.0405941680073738,0.0623299852013587,0.0954231470823288,-0.1251078099012375,-0.2279737293720245,-0.0221957694739103,0.0681694447994232,-0.0795816257596015,-0.3109158873558044,0.111504316329956,-0.2963414192199707,0.1724767535924911,0.2120257169008255,0.1821999549865722,-0.1646680980920791,4
NCT04003467,0.1494975239038467,-0.1085649579763412,-0.0478858426213264,0.0710043683648109,-0.1477257311344146,-0.0377653911709785,-0.2345548123121261,-0.1449298709630966,-0.1127738580107688,0.0974968075752258,0.0394876226782798,0.0182773824781179,0.0192641876637935,0.2059547007083892,-0.3339885771274566,-0.1143368631601333,-0.039028350263834,-0.0677965730428695,0.0212626401335001,0.2992927730083465,-0.2074736356735229,0.1198185235261917,-0.1595019102096557,-0.1683129072189331,-0.1670664101839065,-0.0726120918989181,0.1217543631792068,-0.3152266144752502,-0.0475086644291877,-0.0021307468414306,-0.2059067040681839,-0.1846973448991775,0.0073185949586331,-0.1149007529020309,-0.2259221524000167,0.0138631761074066,0.2798290550708771,0.3052801489830017,-0.0101842386648058,-0.1609958708286285,-0.1805842816829681,0.1833982765674591,-0.0301190558820962,0.2189822196960449,0.0639388635754585,-0.1371053010225296,-0.0971215218305587,0.0431970469653606,0.0357185117900371,-0.4064823687076568,-0.015034670010209,-0.0884757786989212,0.3569188416004181,-0.220546692609787,0.053514264523983,-0.0164825022220611,-0.2091595232486724,-0.0332163870334625,0.1016789525747299,-0.0638016909360885,0.1689856052398681,0.0494318269193172,0.1059084683656692,0.2628453373908996,0.1195199489593505,0.0973328500986099,0.0603746175765991,-0.1937760561704635,-0.1618842333555221,0.1527495980262756,-0.0854772478342056,-0.0630385130643844,0.0751063227653503,0.0044507943093776,-0.0015741467941552,0.2119384258985519,0.2519878447055816,0.2423969060182571,0.0215691067278385,-0.2562887370586395,-0.2387722283601761,0.1301150172948837,0.0079163070768117,0.0406416542828083,0.0161105655133724,-0.0856709703803062,0.1243665963411331,-0.0632772147655487,0.3112111687660217,-0.0683923512697219,0.0836722701787948,-0.2948019504547119,-0.0943832993507385,0.2328066825866699,-0.2573325037956238,0.0951871573925018,0.0785688012838363,-0.0704360753297805,0.1095992550253868,-0.0292616449296474,-0.0622971653938293,0.1150074377655983,-0.1183459982275962,-0.0757401138544082,-0.0152996452525258,0.0025278062094002,-0.0928434133529663,-0.0803226977586746,0.0511187203228473,-0.1504245996475219,0.020438278093934,0.2806087434291839,0.0346273556351661,-0.0409694835543632,0.0531079284846782,0.1621709316968917,0.0827558487653732,0.0429946295917034,0.0364396460354328,-0.1117026358842849,-0.0114074414595961,-0.3276823461055755,-0.0424554534256458,-0.1043893545866012,0.0847726315259933,0.1699053943157196,0.1022595167160034,-0.0239503234624862,2
NCT04153149,0.1732916831970214,-0.0567447692155838,-0.0829698368906974,-0.0546296425163745,-0.2012667804956436,-0.0878970548510551,0.0129172690212726,-0.0521360002458095,-0.2284885197877884,0.151257574558258,-0.0346155017614364,-0.246504545211792,-0.0116867972537875,-0.0141012668609619,-0.2867331504821777,0.2393827587366104,0.0935107544064521,0.0291617419570684,0.1252810508012771,0.2500508427619934,0.0237299967557191,-0.1144706383347511,-0.271748274564743,0.1506869047880172,-0.0597125887870788,-0.0180903542786836,0.2480671405792236,-0.251932829618454,-0.126321479678154,-0.159927561879158,0.0034010435920208,-0.0278438013046979,0.0874090492725372,-0.0426930896937847,-0.0394861213862896,-0.0728452503681182,-0.0394819229841232,0.1181696951389312,0.0104722781106829,-0.159014344215393,-0.1006379425525665,0.0824725702404975,-0.0476076751947402,0.2628764808177948,-0.0148741537705063,-0.0913409814238548,0.0578436106443405,-0.0372413694858551,0.1715833097696304,-0.1354917138814926,-0.0022309224586933,0.0439302325248718,0.2061839699745178,-0.1166334822773933,-0.0893065333366394,0.0355326868593692,-0.2572104930877685,-0.0184362381696701,-0.0513025820255279,-0.1193300411105156,0.2539964616298675,0.0275341589003801,0.0787374079227447,0.235381469130516,-0.1145419478416442,0.105309821665287,0.2004287987947464,-0.1918183714151382,-0.074467234313488,0.0294171515852212,0.068057544529438,-0.0565052814781665,-0.0743115171790123,-0.0596513301134109,0.0181528273969888,0.3116039335727691,0.1462257504463195,0.3181032240390777,0.1404967755079269,-0.1552088558673858,-0.3054178059101105,0.1159635484218597,0.1138669848442077,-0.1360161900520324,0.0470691211521625,-0.0627186223864555,0.15401591360569,0.0029024842660874,0.2914831340312958,0.1614538878202438,0.0142477275803685,-0.1376406997442245,0.0766631290316581,0.0295405033975839,-0.0630264654755592,-0.0798209086060524,-0.1618176847696304,-0.0326072089374065,0.1708121746778488,-0.0393218994140625,-0.074411891400814,0.1011456847190857,-0.1693791300058365,-0.1568055003881454,0.030934065580368,-0.0331866294145584,-0.1184526160359382,-0.0749176517128944,0.1519252657890319,-0.0351803302764892,0.1761594265699386,0.1670998185873031,0.1103455796837806,0.0319417119026184,0.122704304754734,0.1099919900298118,-0.2289411872625351,-0.1157619431614875,-0.0920849442481994,0.171445682644844,-0.0909824296832084,-0.2056455612182617,0.040510706603527,-0.1814437955617904,0.2297491431236267,0.192782923579216,0.2642283737659454,-0.0831002593040466,0
NCT04163185,0.1345376968383789,-0.08090341091156,0.0062055122107267,0.0330594293773174,-0.3650890588760376,-0.0077337026596069,-0.0696211978793144,0.0324572697281837,-0.1902773678302765,0.20313560962677,-0.0822453200817108,-0.2041027545928955,-0.1231417208909988,0.0720798298716545,-0.3021232783794403,0.0388775169849395,0.0376921147108078,0.0585020408034324,0.1060439571738243,0.257382333278656,-0.0551006570458412,-0.0490225031971931,-0.1201274991035461,-0.0917323753237724,-0.0789810866117477,-0.2273444086313247,0.1793579161167144,-0.1727799475193023,-0.1319807022809982,-0.1838893890380859,0.0232014320790767,0.0659955292940139,0.1065469682216644,-0.0039125941693782,-0.1077942326664924,0.0148092806339263,-0.0073420330882072,0.0933452174067497,0.0895008742809295,-0.0689110830426216,0.0872061401605606,0.2646928429603576,0.0185645837336778,0.1438838839530944,0.0338739603757858,-0.0621265843510627,-0.196208968758583,-0.0393557362258434,0.2314910292625427,-0.1896378397941589,0.1301990747451782,0.1686737239360809,0.2092956602573394,-0.0811081677675247,-0.1220985129475593,-0.0467495657503604,-0.2444023787975311,-0.0587974078953266,-0.0093046799302101,-0.1992188692092895,0.2810818552970886,0.0968091189861297,0.2083829343318939,0.1803496032953262,-0.0179934278130531,0.1324719041585922,0.2487721294164657,-0.1311559230089187,0.0186935178935527,0.1457970887422561,0.12354277074337,-0.1098362356424331,-0.0316014476120471,-0.0770101547241211,-0.1856731176376342,0.1025722473859787,0.2452984750270843,0.2099059373140335,0.0671145617961883,-0.0153058441355824,-0.2225744128227234,0.0755256935954094,0.0395906940102577,-0.0158781930804252,0.1352891772985458,-0.0124556384980678,0.0433530248701572,0.0637753456830978,0.2551154196262359,0.0273884031921625,0.1527696847915649,-0.251742422580719,0.1130332350730896,0.1220098361372947,-0.1535677760839462,0.0781543925404548,-0.3562267422676086,-0.0852878466248512,0.2077365219593048,-0.1878379583358764,-0.1441600322723388,0.0390755981206893,-0.0517624765634536,-0.0805591940879821,-0.0466404035687446,0.008487207815051,-0.0274706296622753,-0.0582016110420227,0.0713058859109878,-0.1037942320108413,0.1760989874601364,0.1416667997837066,-0.0135575393214821,-0.0542054735124111,0.0605795234441757,0.0751716941595077,-0.1448559612035751,-0.0194963384419679,-0.062821477651596,0.1672171652317047,-0.1319519132375717,-0.3217885792255401,0.1460653990507125,-0.1036358177661895,0.2559693455696106,0.2109359204769134,0.2398338317871093,-0.016057139262557,0
NCT04180488,0.1933729201555252,-0.0972170159220695,-0.0754345878958702,0.0874743834137916,-0.2259573191404342,-0.0920689031481742,-0.0836030095815658,-0.0558760240674018,-0.1620719581842422,0.1133003309369087,-0.0321114249527454,-0.2191197574138641,-0.076012298464775,0.1383002251386642,-0.2763151228427887,-0.0026873892638832,0.0781031772494316,0.0423124618828296,0.0149203175678849,0.2500622868537903,-0.1262777000665664,-0.0161622371524572,-0.1890593618154525,-0.0399024225771427,-0.1697956025600433,-0.0837621539831161,0.2394727617502212,-0.2737348079681396,-0.0876486450433731,-0.1208192259073257,-0.0306425094604492,-0.0797001048922538,0.2298728227615356,-0.0277300309389829,-0.1032690554857254,0.114527516067028,-0.0080427257344126,0.1496690362691879,0.07393329590559,-0.0258902106434106,-2.95788049697876e-05,0.2854394316673279,0.0566413812339305,0.2753852903842926,0.0488346554338932,0.0033106340561062,-0.156935229897499,0.0129192601889371,0.2125154286623001,-0.260265976190567,0.060557298362255,0.1201024204492569,0.2403592020273208,-0.1054311394691467,-0.1121876165270805,0.033078022301197,-0.2248921692371368,-0.1428661346435547,0.06606075912714,-0.165006399154663,0.2725580632686615,0.0163914673030376,0.1852958053350448,0.1941370218992233,-0.0459684468805789,0.11533073335886,0.1644997596740722,-0.1654296964406967,-0.1261762380599975,0.0902338996529579,0.0848174169659614,-0.1217796355485916,0.0427799224853515,-0.0339514650404453,0.0025835591368377,0.2077982425689697,0.2456376254558563,0.2534619867801666,0.1317173391580581,-0.1605723947286605,-0.1765102446079254,0.0401725694537162,-0.0883883610367775,0.0337569005787372,0.0297674667090177,-0.067946083843708,0.2147131264209747,-0.0296322982758283,0.2211560308933258,-0.0233628656715154,0.0259897410869598,-0.1737542152404785,0.1107253581285476,0.0771460756659507,-0.20350381731987,0.0001915288885356,-0.1884094327688217,-0.0973642393946647,0.0774726867675781,-0.1076212897896766,-0.1808232069015503,0.0309788864105939,0.0024146202486008,-0.1043770834803581,-0.0519400648772716,0.0150447273626923,-0.056246280670166,-0.0262526515871286,0.172588437795639,-0.1299515217542648,0.1614683717489242,0.3116760551929474,-0.026549432426691,-0.0363128595054149,0.1044736579060554,0.1461464911699295,-0.0741593018174171,-0.1975114047527313,0.010138327255845,0.0196848008781671,-0.0283676423132419,-0.2738641202449798,0.0510513745248317,-0.1910107135772705,0.2401310205459594,0.1770239770412445,0.2310591638088226,-0.0377104356884956,0
NCT04524273,0.1838758289813995,0.0161658450961112,0.025949228554964,-0.0132044805213809,-0.2951296269893646,-0.0350821129977703,-0.0895275920629501,0.017644053325057,-0.1935513317584991,0.1532970517873764,-0.1827126741409301,-0.1362009942531585,-0.0856833234429359,0.0275550130754709,-0.1510087996721267,0.242599532008171,0.0543032400310039,0.0194660667330026,0.0436269231140613,0.3036032319068908,-0.0120882140472531,-0.0460913106799125,-0.1771596074104309,0.0321769602596759,-0.1414504945278167,-0.114904835820198,0.3295727372169494,-0.2449212074279785,-0.1082952618598938,-0.1745387017726898,-0.0094451550394296,-0.0683837085962295,0.2590973973274231,-0.1378436386585235,-0.008768580853939,0.1143839359283447,-0.0228677149862051,0.0620827674865722,0.0858475416898727,-0.1460883915424347,-0.0771029442548751,0.1461147964000702,-0.0090757962316274,0.2959504723548889,-0.0903817042708396,-0.0553242787718772,0.0451967008411884,0.0289481468498706,0.1581023186445236,-0.2620543539524078,0.0605592913925647,0.1475755721330642,0.2633052766323089,-0.0214492492377758,-0.2025128901004791,0.0381242260336875,-0.2996999323368072,0.0136788906529545,0.0379487387835979,-0.1938967406749725,0.2560760676860809,0.1829318255186081,0.0906460434198379,0.1702938973903656,-0.1648629009723663,0.1909962594509124,0.0178756192326545,-0.1775666326284408,-0.0249885562807321,0.0689613968133926,0.132360890507698,-0.0934520661830902,-0.1262908279895782,0.0163529217243194,0.0306908376514911,0.3050470948219299,0.176447793841362,0.184551328420639,0.16242516040802,-0.0495978370308876,-0.2739681005477905,-0.001294533140026,-0.0547588653862476,0.0128884790465235,0.0419941022992134,-0.0750065818428993,0.2564414441585541,-0.0004047501715831,0.2560961842536926,-0.0362829491496086,0.0445565804839134,-0.1046044379472732,0.0153002347797155,-0.0188956968486309,-0.2291805446147918,0.0109025854617357,-0.3301915526390075,-0.0266770459711551,0.2416036576032638,0.0398411974310874,-0.1560402959585189,0.1753357052803039,-0.0600643046200275,-0.0228955559432506,0.019438873976469,-0.0334510020911693,0.0025455430150032,-0.0286566168069839,0.0853180214762687,-0.046898353844881,0.1769501864910125,0.2223577797412872,-0.0414081253111362,-0.0129584046080708,-0.0237794276326894,0.0305655561387538,-0.1446512043476104,-0.1913351118564605,0.0350741855800151,0.1361342370510101,-0.0173474811017513,-0.2407714426517486,0.0682786852121353,-0.2020621746778488,0.2167178839445114,0.2215700149536132,0.3178941309452057,-0.0392854437232017,0
NCT04544293,0.1398867219686508,-0.1921208053827285,-0.1092167422175407,-0.1182874739170074,-0.1229690238833427,-0.0266240257769823,-0.2349896878004074,-0.1345583349466323,-0.2137782573699951,0.1289893984794616,-0.0132738351821899,-0.2232821136713028,0.0137251354753971,0.0223017539829015,-0.2560548782348633,0.0566676892340183,0.1027154996991157,-0.0782787501811981,0.0505761466920375,0.2208472341299057,-0.053704772144556,0.0570209398865699,-0.2458150535821914,0.0460390709340572,-0.1058280542492866,0.0705875381827354,0.1096200942993164,-0.2110273838043213,-0.0722882226109504,-0.0951864793896675,0.0338695496320724,-0.1359055489301681,0.0812095031142234,-0.0725888535380363,-0.0453921444714069,-0.1271350383758545,0.0085383569821715,0.2043931484222412,-0.036990288645029,-0.0625790655612945,-0.1423289328813552,0.1987266540527343,0.1562112122774124,0.1696410626173019,0.0871610566973686,0.0170311741530895,-0.0868332460522651,-0.0273243859410285,-0.0092710265889763,-0.1862671375274658,-0.0628119185566902,0.186017706990242,0.4817699491977691,-0.0264365132898092,-0.1888463050127029,0.1055308803915977,-0.1530352681875229,-0.0336213335394859,0.0326307453215122,-0.199773296713829,0.1943166255950927,0.0347081646323204,0.0867709144949913,0.2875692546367645,-0.1436135172843933,0.039398968219757,0.0083697075024247,-0.1846593767404556,-0.224009022116661,0.0539685972034931,0.0998641476035118,-0.0630150809884071,-0.0296912975609302,-0.0389561094343662,0.0240929946303367,0.1896262168884277,0.0654471293091774,0.2274882942438125,0.110021062195301,-0.2226574867963791,-0.1924595236778259,0.070832759141922,0.1721759438514709,0.0449831709265708,0.1203377917408943,-0.035727210342884,0.2365782707929611,-0.1246242746710777,0.1206260696053505,0.0847436040639877,0.0237034037709236,-0.0656335353851318,0.0352126285433769,0.1422781497240066,-0.1489009261131286,-0.0120942508801817,-0.0791645497083664,-0.110751174390316,0.0661833137273788,-0.0205730404704809,-0.0257712062448263,0.0336995683610439,0.0897556692361831,-0.0309186168015003,-0.0191253293305635,0.041785143315792,-0.2476464807987213,-0.1897318959236145,0.1664523482322693,0.0977202951908111,0.2203937172889709,0.2014874070882797,0.0768638849258422,0.1242245957255363,0.0277978405356407,0.1055720299482345,-0.0921123921871185,-0.1485838294029235,-0.0670022517442703,-0.0267485566437244,0.1321439892053604,-0.137463241815567,-0.0738646313548088,0.081070527434349,0.1821627467870712,0.0849262624979019,0.1528212428092956,-0.1079717352986335,2
NCT05059223,0.1012027338147163,-0.0230002552270889,0.0661987513303756,-0.027567034587264,-0.2940544784069061,0.0123656652867794,-0.0867008566856384,-0.0008023064583539,-0.2857493758201599,0.20589280128479,-0.1616003066301345,-0.2329028248786926,-0.1181806996464729,0.0427038446068763,-0.30089271068573,0.2053388804197311,0.0472498647868633,0.0793083310127258,0.1810254901647567,0.2445304989814758,0.0548277683556079,-0.1340150088071823,-0.1336954683065414,0.0128642842173576,-0.1159563213586807,-0.19142846763134,0.2972013354301452,-0.2325071096420288,-0.1535942703485489,-0.1615972369909286,-0.0427096895873546,-0.0484494045376777,0.1264202147722244,-0.0932356640696525,-0.082734577357769,0.0695752948522567,-0.0398174449801445,0.0645555853843689,0.0888832658529281,-0.098672978579998,0.0893841832876205,0.2324543595314026,0.0158274248242378,0.2484863996505737,-0.1164481937885284,-0.1072541549801826,-0.0642602741718292,0.0112230200320482,0.1984801441431045,-0.1450091004371643,0.0799576416611671,0.1168014556169509,0.1987454891204834,-0.1323416531085968,-0.1184212118387222,0.0775498747825622,-0.2675706148147583,-0.0018935017287731,0.0595460124313831,-0.1187469139695167,0.1943291127681732,0.0790517628192901,0.2565392851829529,0.156137153506279,-0.1898698955774307,0.169907733798027,0.154227077960968,-0.1561563611030578,-0.0290703047066926,0.1301478743553161,0.1005960777401924,-0.1061987206339836,-0.0518488399684429,0.0063649760559201,-0.1447272002696991,0.2323031723499298,0.2646541893482208,0.2252882719039917,0.1294585168361663,-0.0419052578508853,-0.1923123598098755,0.1074775606393814,-0.030822318047285,-0.031048908829689,0.1453299522399902,-0.0559969395399093,0.0394318103790283,0.059595800936222,0.1639257073402404,0.0374016389250755,0.0273536499589681,-0.1762904375791549,0.0916310399770736,0.0357472002506256,-0.1031430810689926,0.0266611464321613,-0.3237919807434082,-0.0302684269845485,0.2070541083812713,-0.1685329228639602,-0.1428838521242141,0.0910751968622207,-0.1022403389215469,-0.1295034885406494,0.0228679087013006,-0.0024077892303466,0.0263024270534515,-0.0673131346702575,0.1101742908358573,-0.0811645686626434,0.2418499439954757,0.2305591851472854,0.0361765548586845,-0.0622142553329467,0.0814143940806388,0.034807126969099,-0.1931004673242569,-0.0951235890388488,0.0108164483681321,0.136501282453537,-0.0753609240055084,-0.2727319300174713,0.1003929823637008,-0.1390028297901153,0.2875602841377258,0.3276531994342804,0.2780513763427734,-0.012222159653902,0
NCT05085366,0.0871602743864059,-0.1076672822237014,-0.0787095800042152,-0.0779235959053039,-0.1531463712453842,-0.0561860837042331,-0.0595476068556308,-0.0074555925093591,-0.2147531509399414,0.1053277850151062,-0.0497405901551246,-0.1990603953599929,-0.0338766723871231,0.0260874386876821,-0.1809792667627334,0.1428695023059845,0.1375741958618164,0.0470010712742805,0.1596415489912033,0.2745161652565002,-0.0280880015343427,-0.0756911262869834,-0.2188803702592849,0.0829067677259445,-0.108735516667366,-0.116789236664772,0.2970434129238128,-0.2235629111528396,-0.1333986222743988,-0.1639990359544754,0.0615092366933822,-0.0838236361742019,0.2721001505851745,-0.0649390816688537,-0.0764771848917007,0.1295629739761352,-0.0882616490125656,0.0967225506901741,0.0369489304721355,-0.0887813493609428,0.0185373406857252,0.1783697754144668,0.0497659854590892,0.3429639935493469,-0.0382391847670078,-0.0293341688811779,-0.1425092369318008,-0.0034727312158793,0.1549078524112701,-0.1907505393028259,0.0119151072576642,0.2802960276603699,0.2842931449413299,0.0111994389444589,-0.2639016807079315,0.0082875257357954,-0.2706416845321655,-0.0961749479174614,0.032711923122406,-0.1266569942235946,0.3342747390270233,0.1410640478134155,0.1254422813653946,0.2305541485548019,-0.1852459907531738,0.1698338240385055,0.1101623028516769,-0.2369416505098343,-0.0723274275660514,0.0016260581323876,0.1779853552579879,-0.0994568839669227,-0.0781653150916099,-0.0328079089522361,0.0352388843894004,0.2651948630809784,0.1647098958492279,0.2261461168527603,0.1687205731868744,-0.0947894603013992,-0.2095864713191986,-0.0205880869179964,-0.0202292669564485,0.0033721013460308,0.1529869437217712,-0.1393970251083374,0.2406477332115173,-0.0084167839959263,0.2191133946180343,-0.0172391887754201,-0.0372780598700046,-0.1634894460439682,0.1509928256273269,-0.0026526995934545,-0.1467046588659286,0.0136240953579545,-0.3294488191604614,-0.0546438135206699,0.1962650567293167,-0.1098638176918029,-0.1910610347986221,0.0859008058905601,-0.0583170168101787,-0.0264623295515775,0.0130346240475773,-0.0784644111990928,-0.0211199801415205,-0.0367853008210659,0.0877253040671348,-0.0251011494547128,0.2287599891424179,0.2604764997959137,-0.0418864451348781,-0.0061980434693396,0.0635699927806854,0.0015755580971017,-0.1484131813049316,-0.2083905935287475,-0.0411675013601779,0.1605196446180343,0.0015065255574882,-0.2857609987258911,0.0465931892395019,-0.1884117722511291,0.2681328952312469,0.2355866581201553,0.318773865699768,-0.1139646396040916,0
NCT05109091,0.1027423366904258,-0.1709724813699722,-0.0592845566570758,-0.0802533105015754,-0.045361865311861,0.0049387887120246,-0.0176559183746576,-0.0303660575300455,-0.2404454350471496,0.1917458027601242,0.0260093659162521,-0.1881216615438461,-0.0227977130562067,0.0507301948964595,-0.2454178929328918,-0.0264249164611101,0.0565809309482574,0.0921395346522331,0.174177348613739,0.2106536775827407,-0.0600382275879383,-0.0359537862241268,-0.1328982561826706,0.0229306239634752,-0.152434766292572,-0.156526044011116,0.1649531871080398,-0.1951966136693954,-0.1074087992310524,-0.1030549108982086,0.0270087514072656,0.0010538498172536,0.1903733611106872,0.0517680533230304,-0.192877784371376,0.1413632780313491,0.044866606593132,0.1715091913938522,0.1371050029993057,0.0114666894078254,0.1053332090377807,0.2689769268035888,0.0311946254223585,0.3766702711582184,0.0297599155455827,-0.1071818172931671,-0.2565013468265533,0.0578505210578441,0.2286547273397445,-0.2592292726039886,0.0053696706891059,0.2380665987730026,0.2809007465839386,0.0116649763658642,-0.1362853050231933,0.0613079629838466,-0.2802335023880005,-0.0473588705062866,0.0295979622751474,-0.0660118833184242,0.2897587716579437,0.0941319689154625,0.202779933810234,0.2451498508453369,-0.0324622057378292,0.0207723882049322,0.2997276484966278,-0.1788845062255859,-0.0947680249810218,0.0127766178920865,0.0994056686758995,-0.0607195049524307,-0.01696995832026,-0.104704201221466,0.0522523634135723,0.1820994168519973,0.2148696929216385,0.326423317193985,0.2006810456514358,-0.164611205458641,-0.2645823359489441,-0.1061649024486541,0.0924827829003334,0.0346906818449497,0.3148242533206939,-0.1676245182752609,0.213413119316101,0.0522099025547504,0.1862628906965255,0.0137380389496684,-0.1115912199020385,-0.196966290473938,0.035669520497322,0.0706904232501983,-0.0800103768706321,-0.0549175255000591,-0.3076521158218384,-0.0995787009596824,0.1698213964700698,-0.169265791773796,-0.1069986447691917,0.0871255025267601,-0.0993717387318611,-0.031348530203104,0.0355239063501358,-0.100013829767704,-0.0627606287598609,-0.0993097946047782,0.0514381527900695,-0.0441201142966747,0.0962829366326332,0.3134178817272186,-0.0527678281068801,-0.0464283041656017,-0.0306934919208288,0.0921594128012657,-0.078945018351078,-0.0767020061612129,-0.0086326012387871,0.0348618775606155,-0.0448224358260631,-0.3243990242481231,0.0606228858232498,-0.2943019568920135,0.1024127230048179,0.1907363086938858,0.2601012289524078,-0.1708431243896484,0
NCT05208944,0.2450896203517913,-0.0867810621857643,-0.0700618550181388,-0.0080849844962358,-0.0994291380047798,-0.1599306911230087,0.0229687299579381,-0.1002469286322593,-0.0998874977231025,0.0927315428853035,-0.003359168767929,-0.1430143266916275,-0.0998468771576881,-0.1414219588041305,-0.3720781505107879,0.0728171616792678,0.0236569549888372,-0.1158252730965614,-0.1506102383136749,0.1555682122707367,-0.000276904029306,-0.1330973207950592,-0.0448527224361896,0.0236132889986038,-0.1319619566202163,0.0423616059124469,0.0652992725372314,-0.2240138351917266,-0.0095574539154767,-0.1453471630811691,-0.0900972709059715,0.1777747571468353,0.1536090224981308,0.1086285561323165,-0.0437338761985302,-0.159203290939331,0.201573833823204,0.0839317291975021,0.2256252616643905,-0.0638075992465019,-0.1789668053388595,0.1473026126623153,0.0880264490842819,0.1569314301013946,0.1549675911664962,-0.0180107522755861,-0.059374202042818,0.0277554430067539,0.251133382320404,-0.1906864792108535,0.0092266267165541,-0.0957044959068298,0.1609703302383422,-0.1224594861268997,-0.0731594786047935,0.059986550360918,-0.2232231795787811,-0.1371486932039261,0.1580551415681839,-0.2290921360254287,0.2091217935085296,-0.0040416461415588,0.1524565517902374,0.0579218864440918,0.0767523497343063,0.0552806071937084,0.1822817027568817,-0.1876378208398819,-0.0777707919478416,-0.1483159363269806,0.0253510028123855,-0.0026405304670333,0.1732731014490127,-0.2057859003543853,0.0526357963681221,0.156150534749031,0.2055850774049759,0.1209832280874252,0.119182713329792,-0.2083915323019027,-0.2296554297208786,0.0171556323766708,0.1184229105710983,-0.0838184505701065,0.0582951791584491,-0.0629722699522972,0.2758218646049499,0.1295894831418991,0.2070563286542892,-0.0025869992095977,-0.0313683114945888,-0.0014099223772063,-0.0429249629378318,0.0994089469313621,-0.1360609829425811,-0.0578252002596855,-0.1902192682027816,0.0696388557553291,0.0411795414984226,-0.0856439694762229,-0.0115066980943083,0.0574291050434112,-0.1230383366346359,0.0222052503377199,-0.007752007804811,0.0702639296650886,-0.2614556849002838,0.0699755772948265,0.0594155192375183,0.0086080217733979,-0.0014541106065735,0.2299097329378128,0.0670937746763229,0.0516743697226047,-0.0344388037919998,0.2134407609701156,-0.0119432276114821,-0.0731181725859642,-0.0803532004356384,0.0133054470643401,-0.0984880253672599,-0.1217328757047653,0.1249768286943435,-0.305210679769516,0.095367707312107,-0.0304462574422359,0.1790174394845962,-0.0526667274534702,3
NCT05291091,0.0946667790412902,-0.1189432516694068,-0.1579165607690811,-0.0886148810386657,-0.0958415269851684,-0.0240710042417049,-0.044105052947998,-0.0547861158847808,-0.2131683528423309,0.1750015765428543,0.0030875855591148,-0.2307297140359878,0.0828447714447975,0.0555308051407337,-0.2730741202831268,0.0578471682965755,0.0633560270071029,0.0928442329168319,0.1676065921783447,0.2300914376974105,-0.0404317565262317,-0.0618239045143127,-0.253821462392807,0.059907529503107,-0.1486793309450149,-0.0932446792721748,0.2780534923076629,-0.2757851481437683,-0.1214581653475761,-0.1031586304306984,-0.0335844904184341,-0.1853302717208862,0.1650234907865524,0.0415955446660518,-0.1359550505876541,0.0095633333548903,-0.0105298776179552,0.1121508255600929,0.0177366342395544,-0.1595011204481125,0.0766587778925895,0.2418079376220703,0.0615414194762706,0.3202315270900726,0.0154004544019699,-0.1402401626110077,-0.1650083065032959,-0.0124297617003321,0.1427962481975555,-0.2128264605998993,-0.0470749549567699,0.1773992627859115,0.3435909152030945,-0.0088885445147752,-0.275272786617279,0.0323172956705093,-0.2219520658254623,-0.0715266913175582,-0.0003193388110958,-0.0968810766935348,0.3501047790050506,0.0392325781285762,0.126197263598442,0.2387578785419464,-0.1179976910352706,0.0786481723189354,0.250844269990921,-0.2346481829881668,-0.1733300387859344,-0.002497048350051,0.1021030098199844,-0.0681855827569961,-0.0766218230128288,-0.107047900557518,0.0760014429688453,0.2944197654724121,0.1556719094514846,0.3412181735038757,0.1431644409894943,-0.2128742039203643,-0.1884275823831558,0.0022905436344444,0.0613171085715293,-0.0685281977057457,0.1746483296155929,-0.0918587297201156,0.2089741975069046,-0.0218146611005067,0.2274443954229354,0.1031686440110206,-0.0257791280746459,-0.2025794088840484,0.1819018572568893,0.1349011659622192,-0.0882107019424438,-0.0142353689298033,-0.1869012415409088,-0.085367776453495,0.1326733827590942,-0.1488629430532455,-0.1564913094043731,0.0165750011801719,-0.1094708517193794,-0.0886424258351326,-0.0155371408909559,0.0276405699551105,-0.0838516727089881,-0.1023906990885734,0.1540766805410385,-0.114298328757286,0.1908825933933258,0.27284637093544,0.1038935706019401,-0.0141541929915547,0.0145436534658074,0.0586283169686794,-0.1608988493680954,-0.1494567096233368,-0.05903235450387,0.0849365144968032,0.0463408455252647,-0.2427075952291488,-0.0632929354906082,-0.1879107654094696,0.2028364837169647,0.2029743939638137,0.2656165063381195,-0.1398942023515701,0
NCT05357950,0.1100703701376915,-0.0660697743296623,-0.0289654321968555,0.0027476369868963,-0.2490318566560745,-0.1198690310120582,-0.187253713607788,-0.2429961264133453,-0.0706849545240402,0.0942919999361038,-0.0467390790581703,-0.123078629374504,-0.0625737011432647,0.0527774021029472,-0.4499943256378174,0.1435190588235855,0.0441595204174518,-0.0427542850375175,-0.0554909296333789,0.2120869904756546,-0.039719384163618,0.0219116583466529,-0.0989177599549293,0.0144453737884759,-0.0631043761968612,-0.0139430835843086,0.1235936731100082,-0.3605979382991791,-0.0875155702233314,-0.1438987702131271,-0.0826344862580299,-0.0391223654150962,0.1365571469068527,-0.0169845875352621,0.0029153823852539,-0.1302823573350906,0.1345445662736892,0.2393479794263839,0.140951782464981,-0.1341956555843353,-0.117300309240818,0.1869567334651947,0.0478374287486076,0.2019396722316742,0.0472600720822811,-0.058913916349411,-0.0289179626852273,0.0670594125986099,0.1769032180309295,-0.3101286590099334,-0.0245389845222234,-0.0693811029195785,0.2955757081508636,-0.2449941933155059,-0.0053223567083477,0.0816863924264907,-0.1984302103519439,-0.1189365163445472,0.1910477429628372,-0.1270620822906494,0.1491482555866241,0.0978909134864807,0.1305663734674453,0.2395910918712616,0.0739383921027183,0.124231532216072,0.1223464980721473,-0.2349323779344558,-0.120011068880558,0.0883918479084968,0.0209602527320384,-0.0267265699803829,0.038575317710638,0.0032166435848921,0.0442446991801261,0.2897717654705047,0.2162495553493499,0.2496220171451568,0.1296498775482177,-0.2433439046144485,-0.2147914469242096,0.1589456796646118,0.0818974822759628,0.0141021665185689,0.008976656012237,-0.0737804397940635,0.0947119742631912,-0.0754594057798385,0.3538902401924133,0.0144855733960866,0.0671371668577194,-0.1450493335723877,-0.0189411044120788,-0.0043528405949473,-0.1885251998901367,0.0181415826082229,-0.1711311042308807,-0.1054660901427269,0.0986033976078033,-0.0558550134301185,-0.0131251467391848,-0.0079994853585958,-0.0486179515719413,-0.1790444552898407,-0.0056617585942149,-0.04025474563241,-0.1420583426952362,-0.0780609622597694,0.1381112188100814,-0.1425374299287796,0.0297205690294504,0.2068860977888107,0.050147395581007,0.0782101452350616,0.0944603681564331,0.2809027433395386,-0.0269969291985034,-0.1092926040291786,-0.002489261329174,-0.0133596882224082,-0.1275388449430465,-0.2576558589935303,0.0347931422293186,-0.0890841335058212,0.1591073423624038,0.2640195488929748,0.1578230410814285,-0.173690527677536,3
NCT05481879,0.0549929365515708,-0.0660520419478416,5.64694419153966e-05,-0.1055978164076805,-0.2817995548248291,-0.0701817274093627,-0.0358656421303749,-0.1472324430942535,0.0274877548217773,0.1763734668493271,-0.0669177919626236,-0.1188675388693809,-0.1296468526124954,-0.0073744403198361,-0.2966013252735138,0.0787134319543838,0.0310990624129772,-0.0368564538657665,-0.0788562595844268,0.2960628867149353,-0.1696865260601043,-0.0515481047332286,0.0132707227021455,0.07830511033535,-0.1460129767656326,0.0089890360832214,0.21488618850708,-0.350486695766449,-0.1215093880891799,-0.0824069008231163,-0.0443082377314567,0.0188799519091844,0.1540540903806686,0.010360263288021,-0.0770479887723922,-0.0600843541324138,0.0660787001252174,0.1468593776226043,0.0863784402608871,-0.0400530397891998,-0.0909592434763908,0.1963219791650772,0.1222415119409561,0.298608124256134,0.0561615005135536,-0.0409417264163494,-0.0480875745415687,-0.0703425258398056,0.1821549385786056,-0.2262775152921676,1.598745620867703e-05,0.0324374958872795,0.3059800267219543,-0.1849596798419952,-0.1130159646272659,-0.0075407624244689,-0.1519320458173751,-0.0551563911139965,0.0260363109409809,-0.254983901977539,0.176316887140274,0.0510412082076072,0.0769704580307006,0.1379458904266357,-0.0301883183419704,0.2151347398757934,0.1612108647823333,-0.0940703600645065,-0.1236266493797302,0.0937354415655136,0.1554972827434539,-0.2035071402788162,0.1080843359231948,-0.0939104631543159,0.0916159600019455,0.0386345610022544,0.1199140176177024,0.2749952375888824,0.1647297143936157,-0.2188592404127121,-0.2462464570999145,0.1246363148093223,0.085850141942501,0.0448787435889244,0.0653757899999618,-0.0356801711022853,-0.015003110282123,0.1844734996557235,0.1792706251144409,-0.0651229172945022,0.0238534715026617,-0.1940704882144928,0.1060948222875595,0.0699876993894577,-0.0399524681270122,0.1692393571138382,-0.305507481098175,-0.127668485045433,0.1604204177856445,-0.053893107920885,-0.1135603040456771,0.0389345437288284,-0.0504177697002887,-0.0082885269075632,-0.0579552873969078,0.0510550513863563,-0.1735892593860626,-0.0068452050909399,0.1769666373729705,-0.0751776471734047,0.0038888691924512,0.3295105993747711,0.0155249116942286,0.0097435265779495,-0.1305118799209594,0.1803735941648483,-0.0965244397521019,-0.0601782575249671,-0.1096714735031127,-0.0869895592331886,-0.0577659904956817,-0.1438708007335662,-0.1279421746730804,-0.1045384854078292,0.1623128652572631,0.2077961266040802,0.1656503230333328,-0.1096362322568893,3
NCT05693142,0.1259741783142089,-0.102112092077732,-0.0409713350236415,-0.0782089978456497,-0.1566057354211807,-0.0196982081979513,-0.0425656884908676,-0.1091268658638,-0.1925076991319656,0.206613227725029,0.0017602381994947,-0.1648947149515152,0.0202464554458856,0.059001337736845,-0.1601775139570236,0.119144894182682,0.1526261568069458,-0.0238972809165716,-0.0056180711835622,0.2066595703363418,-0.0543231517076492,0.0498215556144714,-0.1307439059019088,0.0797388851642608,-0.0737571343779563,0.0106306923553347,0.1479861289262771,-0.2861968576908111,-0.0650957897305488,-0.0509197302162647,0.0166591983288526,-0.0330661348998546,0.1573784798383712,-0.0358672142028808,-0.0011639842996373,-0.0933059453964233,-0.0536391697824001,0.1543966382741928,0.0430030338466167,-0.1000318154692649,-0.0717284455895423,0.1538825184106826,0.0972595438361167,0.2935936450958252,0.0297555346041917,-0.1120857000350952,0.0238571781665086,0.0503141433000564,0.1001705452799797,-0.3106305003166199,0.0595107823610305,0.1201023384928703,0.4286694824695587,-0.1463430523872375,-0.1673556119203567,0.1516539007425308,-0.17168490588665,0.069134421646595,0.0081044314429163,-0.2101472020149231,0.1163014769554138,-0.0584117360413074,0.0815829485654831,0.1942262202501297,-0.1283292174339294,0.1684608906507492,0.1855942606925964,-0.2832525670528412,-0.127785250544548,0.0493952743709087,0.0564677827060222,-0.1913646906614303,0.0619594305753707,-0.0613384060561656,0.0491584055125713,0.2393611818552017,0.2101236134767532,0.3047991991043091,0.0926458239555358,-0.2472323626279831,-0.2798779010772705,-0.0081415111199021,0.2870345711708069,0.0672595426440239,0.0746006742119789,-0.0682422593235969,0.1850571781396865,0.0719686970114708,0.1462593525648117,0.0546783544123172,0.1487503796815872,-0.1716172695159912,0.1579408794641494,0.0659961402416229,-0.0819489732384681,-0.0668089166283607,-0.2447261810302734,-0.174396276473999,0.0753703042864799,-0.00333619187586,-0.0375011600553989,0.0381343588232994,-0.0540736801922321,-0.037915900349617,-0.1200658306479454,-0.0472713708877563,-0.1236547231674194,-0.1078744530677795,0.0333147346973419,0.1290705502033233,0.0623287372291088,0.311719536781311,0.0131614105775952,0.019652584567666,-0.1025057435035705,0.2437196224927902,-0.1880688667297363,-0.0926531553268432,-0.0813779607415199,-0.1094655096530914,-0.0390849374234676,-0.0577002465724945,-0.1436095386743545,-0.0571127533912658,0.1249928846955299,0.0588016062974929,0.3256868720054626,0.1179748475551605,2
NCT05696717,0.0151441609486937,-0.1414682567119598,-0.0378828831017017,-0.0817633718252182,-0.0884502306580543,0.0360099375247955,0.0286292042583227,-0.0207957830280065,-0.2527096271514892,0.1544755846261978,-0.0251554157584905,-0.0702328979969024,0.1037936583161354,0.1247730925679206,-0.2253909558057785,-0.0195034798234701,0.113490991294384,0.0766308158636093,0.1272540837526321,0.2012679874897003,-0.0722169950604438,-0.0710757449269294,-0.2192876189947128,-0.0295440405607223,-0.0599638149142265,-0.1442224681377411,0.2982247471809387,-0.1662873029708862,-0.1539949923753738,-0.033000323921442,-0.0023124751169234,-0.0871453136205673,0.2123344987630844,0.0209646727889776,-0.1462180167436599,0.1225907430052757,0.0041354754939675,0.1284569352865219,0.0085841044783592,-0.1643406301736831,0.1561268866062164,0.2992992997169494,-0.0023721840698271,0.2504781484603882,-0.0489166267216205,-0.2258900254964828,-0.2572724223136902,0.0161525420844554,0.1992812305688858,-0.2216448783874511,0.0381108410656452,0.2238626331090927,0.291509211063385,0.0117040975019335,-0.1876688003540039,-0.0223438553512096,-0.189306765794754,-0.0326245538890361,0.0396689139306545,-0.0604105256497859,0.2891804277896881,0.0065977848134934,0.1610869914293289,0.267973244190216,-0.1093881800770759,0.1180190965533256,0.1960871219635009,-0.1713755875825882,-0.078372523188591,-0.0093609895557165,0.1362507343292236,-0.0846417695283889,-0.1019123420119285,-0.0926379784941673,0.0297962818294763,0.1321595013141632,0.1649132817983627,0.259737879037857,0.1010856628417968,-0.0977897495031356,-0.1857429444789886,-0.0341388992965221,0.0401091054081916,0.0038345807697623,0.1698810160160064,-0.0889369696378707,0.1056922674179077,0.0372582338750362,0.1839130222797393,-0.0425874665379524,0.0189727712422609,-0.201354369521141,0.2507559955120086,0.1372898668050766,-0.1307053864002227,0.0241980161517858,-0.2483879178762436,-0.0191062930971384,0.2062840610742569,-0.1779677718877792,-0.0978955253958702,-0.0077495607547461,-0.0390008687973022,-0.0393412411212921,0.0115260863676667,0.0152091598138213,0.0236845072358846,-0.0692982226610183,0.109645165503025,-0.1490916013717651,0.1383121609687805,0.2829999923706054,0.0617914497852325,-0.0534834079444408,0.0449870340526104,0.0134306550025939,-0.1080295369029045,-0.0627852901816368,-0.0244962964206933,0.1542206555604934,-0.0134045351296663,-0.3308700919151306,0.0188832841813564,-0.1532928198575973,0.2488613426685333,0.1621214896440506,0.2561407387256622,-0.0003951894468627,0
NCT05731544,0.1892638653516769,-0.0921120643615722,-0.1464151591062545,-0.029341435059905,-0.1318316012620926,-0.0640666335821151,-0.1416129171848297,-0.0484153553843498,-0.1534333527088165,0.1159157902002334,-0.1552263647317886,-0.3501695394515991,-0.090760238468647,0.0728373527526855,-0.2662782073020935,0.0899569392204284,0.0273327194154262,-0.0171545296907424,0.1161023005843162,0.2087206095457077,-0.102178931236267,-0.0024077906273305,-0.1033645719289779,0.0430314056575298,-0.2069025486707687,-0.0062689124606549,0.2419672757387161,-0.3146814703941345,-0.0946660190820694,-0.1774241924285888,-0.114459678530693,-0.1198736876249313,0.0612594112753868,0.00433508772403,-0.2438744008541107,-0.0480468645691871,0.0182927977293729,0.0523801930248737,0.0650147646665573,-0.0383687429130077,-0.0875630751252174,0.2085475623607635,0.0438184328377246,0.3968225419521332,0.0349343009293079,-0.034397292882204,-0.0351045615971088,-0.0539836771786212,0.0862189382314682,-0.227072075009346,-0.0209082681685686,0.1434576213359832,0.3954904675483703,-0.0498730018734931,-0.1836244463920593,0.040619883686304,-0.2864895761013031,-0.0444604828953743,0.0027027428150177,-0.1276427060365677,0.1216678172349929,0.0585412085056304,0.1310800909996032,0.1030555516481399,-0.0951344445347786,0.211130291223526,0.131655216217041,-0.2398208081722259,0.0035025267861783,0.1167909055948257,0.0379614345729351,-0.1005656123161315,-0.0223513543605804,-0.0040107844397425,0.0686554163694381,0.2508307099342346,0.2234188020229339,0.3628459274768829,0.2208385467529297,-0.1559620201587677,-0.2502967715263366,0.0090936180204153,0.1519241333007812,-0.0517806783318519,0.247360497713089,-0.0684295669198036,0.377133160829544,-0.0016697526443749,0.1711078882217407,0.015002611093223,-0.0285270102322101,-0.2057816237211227,-0.0621801801025867,0.1692002117633819,0.0010856240987777,0.071626029908657,-0.1480881720781326,-0.0382167920470237,0.1602896749973297,-0.1240583211183548,-0.1139119267463684,0.0957380384206771,-0.1760858446359634,0.0327033810317516,-0.0162592492997646,0.0162540040910244,-0.0690697282552719,-0.1134952530264854,0.0601951777935028,-0.1090092882514,0.1204354986548423,0.286596417427063,0.1062168702483177,0.0328650400042533,-0.0335203036665916,0.0111783146858215,-0.2282319515943527,-0.0981420278549194,-0.0942160040140152,0.0522104017436504,0.0890495032072067,-0.1605364382266998,0.0149289490655064,-0.209403708577156,0.1371835172176361,0.1110044494271278,0.243678480386734,-0.1701177060604095,0
NCT06079736,0.2349357455968856,-0.1000885963439941,-0.1482718735933303,0.0139891309663653,-0.2101819664239883,-0.1162105798721313,0.0002285465598106,-0.1721702963113784,0.0866195857524871,0.1346620470285415,0.0875033140182495,-0.12651889026165,-0.0877430066466331,0.0819265246391296,-0.4768235683441162,0.1068982109427452,0.0490644909441471,0.0437112338840961,-0.0135363191366195,0.3201179504394531,-0.0007602001423947,0.0532623790204525,-0.0909340158104896,0.1483546793460846,-0.074498638510704,0.0559423118829727,0.1155149340629577,-0.4629348218441009,-0.1490119844675064,-0.1042310893535614,-0.0722715333104133,-0.0501980371773242,0.1014963760972023,0.0187047440558671,-0.0639651045203208,-0.0244302377104759,0.1276342123746872,0.2250655889511108,0.1902040690183639,-0.1758264154195785,-0.1195816919207573,0.100485511124134,0.0877717807888984,0.3508093655109405,0.0077838897705078,-0.0611559748649597,0.041078832000494,-0.0245931502431631,0.1669553965330124,-0.3448094129562378,0.0100440857931971,-0.1183635592460632,0.3025040924549103,-0.2892142832279205,-0.0413559786975383,0.0860872492194175,-0.2384044378995895,-0.0768043175339698,0.0369315259158611,-0.183304950594902,0.165039524435997,-0.0225590243935585,0.0642240867018699,0.2316953539848327,0.071363940834999,0.1520438939332962,0.3204081356525421,-0.1935069561004638,-0.1459647268056869,0.1646456867456436,0.0585078299045562,-0.0977284088730812,0.1449465304613113,-0.0374310947954654,0.1144754588603973,0.1760539561510086,0.2565784454345703,0.3301552832126617,0.1788839548826217,-0.3003492653369903,-0.3178417682647705,0.1507686376571655,0.1371620297431945,-0.0828627124428749,-0.0290783885866403,0.0074775791727006,-0.0037736792583018,0.0936258137226104,0.3627422153949737,0.0221017766743898,-0.02178605645895,-0.2511888742446899,-0.022871509194374,0.0121703399345278,-0.0214706715196371,0.0482141375541687,-0.1979606598615646,-0.269847422838211,0.0074112168513238,-0.0049756518565118,-0.1202910542488098,0.1129840239882469,-0.1006144881248474,-0.1100786924362182,-0.0702735632658004,-0.0513221472501754,-0.1864990592002868,-0.07161445915699,0.1914777904748916,-0.0591082870960235,-0.0340911261737346,0.3100501000881195,0.1388835608959198,-0.0184592697769403,-0.0157944466918706,0.2935613989830017,-0.1491014510393142,-0.1135812327265739,-0.1263197511434555,-0.2040645033121109,-0.1235283985733985,-0.251237154006958,-0.1803002804517746,-0.1897477358579635,0.1587473303079605,0.2434950023889541,0.1917393952608108,-0.1138388589024543,3
NCT06185673,0.0294339619576931,-0.1072871312499046,-0.1233825087547302,0.0578076839447021,-0.1792943477630615,-0.0817506313323974,-0.1816819906234741,-0.0527373626828193,-0.0840383470058441,0.0468667410314083,-0.106507234275341,-0.123134508728981,-0.0727804526686668,0.112010434269905,-0.4703685343265533,0.1431284248828888,0.0774425342679023,-0.2425077557563781,-0.0119058331474661,0.24644136428833,-0.2266630381345749,0.0518682859838008,0.0360794961452484,-0.0547273494303226,0.0056633809581398,0.0239383541047573,-0.0292209070175886,-0.2763683497905731,-0.0856100991368293,-0.0705099701881408,0.0821885094046592,-0.0344905443489551,0.0531105436384677,-0.2849109768867492,-0.0609972812235355,-0.0917591080069542,0.1208654567599296,0.0829102769494056,0.0501195378601551,-0.0504657253623008,-0.030284084379673,0.115952581167221,0.0036029245238751,0.2844638228416443,0.0205628797411918,0.0347891375422477,0.0696073919534683,0.0451486781239509,-0.0504176057875156,-0.2999762594699859,0.256869375705719,0.0992650538682937,0.2517869770526886,-0.2289272546768188,-0.0275941286236047,0.1476741284132003,-0.3659017086029053,0.0814211070537567,-0.2154157757759094,-0.2261684536933899,-0.0842273607850074,0.0660347864031791,0.0117764817550778,0.189904049038887,-0.0596772022545337,0.1238774806261062,0.2049003541469574,-0.2551528811454773,0.1451737582683563,0.1809633374214172,0.0540805421769619,-0.0933015793561935,0.0634688884019851,0.1054557859897613,-0.0380515977740287,0.0424564555287361,0.2178727984428405,0.0896568596363067,-0.0354470014572143,-0.0218374282121658,-0.22124645113945,0.0284706018865108,0.3407957851886749,0.2845597565174103,-0.0045716506429016,0.1138378530740737,-0.0557395853102207,0.083604447543621,0.1981741786003112,-0.1601940095424652,-0.058318842202425,-0.098178319633007,0.1556344330310821,0.1444820314645767,-0.0752344578504562,0.053218375891447,-0.1258843839168548,-0.2610765993595123,0.092033177614212,0.0743103101849556,-0.0546808764338493,0.0186857897788286,0.0700542703270912,-0.0209872312843799,-0.1926651895046234,-0.0971087291836738,-0.2532178461551666,0.0218158084899187,0.2737323641777038,0.1505204886198043,0.0833484008908271,0.2796842753887176,0.0445641465485096,-0.0729555338621139,0.2425976246595382,0.175982192158699,-0.0171347297728061,-0.0250815711915493,-0.1642628908157348,-0.2447421699762344,-0.067522682249546,-0.036697681993246,-0.0106855789199471,0.0006147154490463,0.2405877858400344,-0.0641905888915062,0.2175486385822296,0.2439844012260437,1
NCT06204809,0.1413856148719787,-0.1098789796233177,-0.0788143873214721,-0.2139917165040969,-0.2106920927762985,-0.041485846042633,0.0915680527687072,-0.0915358662605285,-0.1198705956339836,0.0814259722828865,0.0260444898158311,-0.0645805299282074,-0.0226707607507705,-0.0398867949843406,-0.3758953809738159,0.1264887899160385,0.092732049524784,-0.0262675341218709,0.0735314264893531,0.3445360362529754,0.1299628466367721,0.0277139190584421,-0.1226940229535102,0.1703609675168991,-0.0598834045231342,0.0874797478318214,0.1700069308280944,-0.2331019788980484,-0.1842349767684936,-0.1484069526195526,-0.0422520041465759,0.20352803170681,0.1354855895042419,0.0462156198918819,-0.032176736742258,-0.0713222101330757,0.0343654938042163,0.1027230247855186,0.1588036715984344,-0.1515088081359863,-0.0245803073048591,0.0169158671051263,0.0101208239793777,0.2562075853347778,-0.1369315832853317,-0.0382868126034736,-0.0863657221198082,-0.0710280165076255,0.2161147594451904,-0.2907912731170654,0.0158587545156478,0.071588821709156,0.2612974345684051,-0.1249324306845665,-0.0637160614132881,-0.0066206404007971,-0.1973877400159835,0.0332450680434703,0.0202433969825506,-0.1333550959825515,0.2467412501573562,0.0197211597114801,0.1391021460294723,0.2249452620744705,-0.095264732837677,0.1466133594512939,0.1692098528146743,-0.2438224703073501,-0.101379781961441,0.0462799407541751,0.1923756003379821,-0.0521447658538818,0.0740614607930183,-0.0608500130474567,-0.0180398020893335,0.1643440276384353,0.2556651532649994,0.31993567943573,0.1892958432435989,-0.1512926369905471,-0.272047758102417,0.1185525432229042,0.1770837903022766,-0.0126333637163043,0.1491629928350448,-0.1352509260177612,0.0124646872282028,0.1015571951866149,0.2257246822118759,-0.0239814687520265,0.0044077113270759,-0.224769115447998,0.0350196212530136,-0.05666483938694,0.0482719540596008,0.0660362169146537,-0.3257254660129547,-0.1554107218980789,0.2296781986951828,0.0199321284890174,-0.0510340183973312,0.0758279114961624,-0.1854704618453979,-0.0433686636388301,-0.0862539783120155,-0.0112706525251269,-0.0144240064546465,-0.0910325720906257,0.0251207295805215,-0.0541424639523029,0.0222104396671056,0.247718334197998,0.0585728920996189,-0.0169644933193922,-0.0933779254555702,0.211935207247734,-0.1388864368200302,-0.0281480606645345,-0.1075470969080925,0.05121910572052,-0.0255042165517807,-0.1854167431592941,-0.159812331199646,-0.12967549264431,0.2215194702148437,0.3031424283981323,0.236480712890625,-0.1146765053272247,3
NCT06255782,0.0386076122522354,-0.0655639618635177,0.0923464223742485,-0.0372455231845378,-0.0680451542139053,-0.0847229361534118,-0.0525832399725914,-0.1177190393209457,-0.1206884011626243,0.2376701384782791,-0.1094570159912109,-0.0570812933146953,-0.0790832787752151,-0.0168442912399768,-0.4050053060054779,0.1215647235512733,0.0449504666030406,-0.0259493943303823,-0.0444847755134105,0.1405295133590698,-0.105455681681633,-0.1798878014087677,0.1063098162412643,0.0777847319841384,-0.1464560031890869,-0.056169856339693,0.1440847367048263,-0.3369382917881012,-0.1312201917171478,-0.0406163595616817,0.0438802614808082,-0.0360695645213127,0.1076723560690879,0.0730563476681709,-0.0210764650255441,-0.051345370709896,0.1844034940004348,0.1307673007249832,0.1343684196472168,-0.0565458536148071,0.0030415535438805,0.1561102420091629,0.0443768315017223,0.2778853476047516,0.1099089980125427,-0.0731687545776367,-0.0695296823978424,-0.0233541522175073,0.203988716006279,-0.1819755584001541,-0.0990039333701133,0.0270982421934604,0.1651589423418045,-0.0641020685434341,-0.0173647440969944,0.2664311528205871,-0.2748869955539703,-0.0761837512254715,0.0749771669507026,-0.0726828724145889,0.1555962115526199,0.0983672440052032,0.1531684100627899,0.12634839117527,0.0603220537304878,0.0990674644708633,0.332411915063858,-0.1799803227186203,-0.1437388956546783,-0.0387031249701976,0.0279468037188053,-0.1291849911212921,0.0360315851867198,-0.1007522195577621,0.0630830079317092,0.2066992074251175,0.185788869857788,0.2300574034452438,0.2275819033384323,-0.2215831726789474,-0.1809931546449661,-0.0195905249565839,0.0877877101302146,0.0280585177242755,0.1556927412748336,-0.04447902739048,0.0533860027790069,0.183629423379898,0.2028534114360809,0.0607506856322288,-0.163617730140686,-0.0411109291017055,0.048799630254507,-0.0342376418411731,-0.0158940963447093,0.0010380536550655,-0.2021228075027465,-0.0802734866738319,0.1454373300075531,-0.1113964542746543,-0.1026192456483841,0.0658333748579025,-0.0952447801828384,-0.0715447142720222,0.0382713414728641,-0.0775200724601745,-0.2549691796302795,-0.0576319471001625,0.2643328607082367,-0.1303098946809768,-0.0018615782028064,0.3555860221385956,0.0909475907683372,0.1628524512052536,-0.0720244869589805,0.2174978703260421,-0.0856115669012069,-0.0355059243738651,-0.0192099753767251,-0.1342479437589645,-0.1163437142968177,-0.1143688559532165,-0.0122541841119527,-0.3116495013236999,0.0827092677354812,0.2412222921848297,0.1652318984270095,-0.0867300927639007,3
NCT06377930,0.0071138311177492,-0.1014803051948547,0.0561085678637027,-0.0202207416296005,-0.1376401484012603,-0.0344944186508655,0.0808591842651367,-0.0490936003625392,-0.1543246209621429,0.1206295788288116,-0.0546039640903472,-0.0785086303949356,-0.0193716846406459,-0.0088376589119434,-0.4609811902046203,0.176788255572319,0.1834182441234588,-0.0862696394324302,0.0347906798124313,0.0775863677263259,-0.1061973944306373,-0.1150268465280532,-0.113535076379776,0.0344112701714038,-0.1275281608104705,-0.1366736441850662,0.1187701895833015,-0.1881597340106964,-0.1022566333413124,-0.208686351776123,-0.1164639145135879,0.0732478871941566,0.2067209929227829,0.0366477444767952,-0.0397564768791198,0.0361831858754158,0.0793911516666412,0.0878556817770004,0.3502333164215088,-0.0213025398552417,0.131276398897171,0.3483071327209472,-0.009491054341197,0.1777621060609817,-0.0301328245550394,-0.1111162900924682,-0.1050171181559562,0.0428945198655128,0.3729532361030578,-0.2578494250774383,0.0998922437429428,-0.0119379013776779,0.2135755717754364,-0.2651489973068237,-0.1314838528633117,0.0836869478225708,-0.2469311356544494,-0.0534445717930793,0.1001869514584541,-0.1078034043312072,0.1244323700666427,0.0747380405664444,0.2316025197505951,0.1533253192901611,0.1192692518234252,0.0864502191543579,0.2712000608444214,-0.2704604864120483,0.0268452446907758,0.0524609163403511,0.0790074914693832,-0.0752277597784996,0.0705844536423683,-0.0573352575302124,0.0175947472453117,0.1283640265464782,0.3305650949478149,0.2025330662727356,0.1261742264032364,-0.1092937141656875,-0.1023238524794578,0.033871442079544,0.1000591218471527,0.0482902526855468,0.1391565203666687,-0.0621361173689365,0.0461689457297325,0.0994530022144317,0.2209027111530304,-0.0974809899926185,-0.1386798173189163,-0.2192122340202331,0.1046092808246612,0.0175349116325378,-0.0795281305909156,0.0182372406125068,-0.3728566467761993,-0.0795248001813888,0.1580102443695068,-0.3025608658790588,-0.0009205788373947,-0.0447439141571521,-0.0125331599265336,-0.1183652654290199,-0.0965419858694076,-0.0652230829000473,-0.0471753478050231,-0.0532127618789672,0.0908218920230865,-0.1752645969390869,0.0444793924689292,0.1863206177949905,-0.0025760196149349,-0.0436618812382221,0.0040426980704069,0.1073247194290161,-0.0724354535341262,0.0024519907310605,0.0483571179211139,-0.0299059674143791,-0.1720912307500839,-0.2744569182395935,0.1238773241639137,-0.2762544751167297,0.135333850979805,0.2218604832887649,0.3878441452980041,-0.008158067241311,3
NCT06601192,0.0504745580255985,-0.0984502956271171,-0.0684872418642044,0.0210163295269012,-0.1368989795446396,0.0430034957826137,-0.0126086398959159,-0.0902929231524467,-0.048661395907402,0.0948729813098907,-0.0540237016975879,-0.2418299168348312,-0.1206224337220192,0.0870625972747802,-0.3756392896175384,0.0533713847398757,0.032808531075716,-0.0265041347593069,0.0480197481811046,0.1072334125638008,-0.1186251118779182,-0.0246243029832839,-0.1404695808887481,0.0685881376266479,-0.1448804587125778,-0.0389444455504417,0.3444092273712158,-0.3224484026432037,-0.1299893409013748,-0.1806951910257339,0.0775246396660804,-0.0327442921698093,0.0760765746235847,0.0853772982954979,-0.191484734416008,0.0585867874324321,-0.0105836270377039,0.1695427149534225,0.054088044911623,-0.0637380257248878,-0.1026352271437645,0.2081657201051712,-0.1488393992185592,0.2501436471939087,0.2269609570503235,0.0125056132674217,-0.1230284348130226,0.0089774215593934,0.1463322788476944,-0.1534908562898636,0.0597570724785327,0.0141714019700884,0.1391877382993698,-0.0636795759201049,-0.0374065600335598,-0.157096728682518,-0.2625638246536255,-0.1800608187913894,0.0036704987287521,-0.1161861717700958,0.216989979147911,0.1702426522970199,0.0185777638107538,0.195884108543396,-0.0840702727437019,0.0102253006771206,0.0612214654684066,-0.0384123586118221,-0.1027571484446525,0.0383406654000282,0.1375399231910705,-0.1931290030479431,-0.1749113053083419,-0.0306694712489843,-0.0134002594277262,0.1976671069860458,0.2018003016710281,0.1247664391994476,0.1520010083913803,-0.1394934803247451,-0.2486017197370529,0.0107213528826832,0.0714076384902,-0.1371698230504989,0.1236412748694419,-0.1510481834411621,-0.0443574674427509,-0.0225086119025945,0.0964164733886718,0.0454207807779312,0.0817673578858375,-0.1749455481767654,-0.0091088041663169,0.1942554265260696,-0.0766408890485763,0.0335973761975765,-0.2730734646320343,-0.0557243637740612,-0.0006549507379531,-0.0519892610609531,-0.2060732096433639,0.0872042551636695,-0.1291993111371994,0.0006941631436347,0.135640874505043,0.0395322255790233,-0.0390474610030651,-0.0071528851985931,0.1560369282960891,-0.103700578212738,0.0354609452188015,0.1348787993192672,0.0100537864491343,0.0649998858571052,0.1466377526521682,0.095471404492855,-0.0021009955089539,-0.0139406025409698,-0.067531518638134,0.1343917399644851,-0.078875221312046,-0.21736741065979,0.1841877251863479,-0.0295763220638036,0.1310431510210037,0.0760006308555603,0.0612160749733448,-0.1096967831254005,0
NCT06663137,0.2867113053798675,-0.1137121021747589,-0.1152582466602325,-0.0283774435520172,-0.1575769484043121,-0.1880569010972976,-0.0601285956799984,-0.1599229425191879,-0.1070326492190361,0.0820245146751403,-0.0471916012465953,-0.0850118398666381,-0.1311388462781906,0.0112730907276272,-0.3571878969669342,0.1919944882392883,-0.022384176030755,0.008349485695362,-0.1409201025962829,0.3114145398139953,-0.1059954762458801,-0.038774199783802,-0.0857886746525764,0.0977135300636291,-0.1547113806009292,-0.0279025882482528,0.1687493920326233,-0.3755181133747101,-0.0979190841317176,-0.0829195976257324,-0.0874298885464668,0.0667625069618225,0.1231818422675132,0.0657857060432434,0.0179131031036376,-0.0715772733092308,0.1543786972761154,0.1580803096294403,0.1654990166425705,-0.1147506311535835,-0.1712294369935989,0.0749363824725151,-0.1699637174606323,0.3030846416950226,0.0915982127189636,-0.0638308003544807,0.0430756509304046,0.0236904900521039,0.2666176259517669,-0.2894743680953979,0.0299140736460685,-0.0528388507664203,0.2472817152738571,-0.1495037674903869,-0.056217323988676,0.0884067118167877,-0.2709148824214935,-0.1372290700674057,0.2460539937019348,-0.1865441352128982,0.2306671142578125,0.0467857532203197,0.0134507035836577,0.1642824560403823,0.0931756421923637,0.1548443436622619,0.257001131772995,-0.1723151206970214,-0.0805767551064491,0.0162982400506734,0.0079095289111137,-0.0978504046797752,0.074148453772068,-0.1338234692811966,0.0072540640830993,0.2501306235790252,0.2046456784009933,0.2059913277626037,0.1400917768478393,-0.2422081977128982,-0.2647257149219513,0.0285348761826753,0.0438904464244842,0.0317088924348354,0.1329874247312545,-0.1366858333349228,0.1693301945924759,0.145041674375534,0.3606318235397339,-0.1810609549283981,-0.0368319116532802,-0.0490557290613651,0.0083686904981732,0.052277386188507,-0.0456972904503345,0.0186508689075708,-0.1454896330833435,-0.0099527733400464,0.1999741047620773,0.0560838729143142,-0.0752925798296928,0.140001431107521,-0.1675158143043518,-0.0540426783263683,0.076419286429882,-0.050812479108572,-0.1042616069316864,0.0499006025493145,0.1359333544969558,-0.0726645961403846,-0.0085551291704177,0.2835964858531952,-0.0307894255965948,0.0443911515176296,0.1537653356790542,0.2432297617197036,-0.1142447292804718,-0.1698727756738662,0.0217445641756057,-0.0439924299716949,-0.1515932530164718,-0.2084965705871582,0.0486552901566028,-0.2256203144788742,0.2063897252082824,0.1827969998121261,0.2664287984371185,-0.0550330318510532,3
NCT06736509,0.0691704154014587,-0.0296430345624685,0.0002908060851041,-0.0188870634883642,-0.2476007342338562,-0.054131731390953,-0.1563151776790619,-0.0919999554753303,-0.2164804339408874,0.0978118777275085,-0.1869022101163864,-0.2332860678434372,-0.1066094636917114,0.0890964642167091,-0.2500124275684356,0.2470403164625167,0.0501762218773365,-0.0233287047594785,0.1158932149410247,0.2002639174461364,-0.0132985189557075,-0.1005526781082153,-0.1397313624620437,0.0126525983214378,-0.0780218616127967,-0.1324104219675064,0.30742147564888,-0.2357275635004043,-0.1823234558105468,-0.165308877825737,0.0269795954227447,0.0002744595112744,0.1931215524673462,-0.0852391496300697,-0.0398230701684951,0.0492000393569469,-0.0741266384720802,0.0955604091286659,0.134504809975624,-0.0641218945384025,-0.0088401734828948,0.2518394887447357,-0.0756331011652946,0.2709594070911407,-0.004149014595896,-0.0075725293718278,-0.109964944422245,0.0406213551759719,0.1467691212892532,-0.2330833673477172,0.1374362856149673,0.1644634008407592,0.1769452840089798,-0.125328704714775,-0.0862280651926994,0.0055281422100961,-0.2819377183914184,-0.1013686433434486,0.0685628801584243,-0.1312611550092697,0.1505954563617706,0.1518132239580154,0.1778698414564132,0.1466846615076065,-0.1143595799803733,0.0732998773455619,0.0558138824999332,-0.186260387301445,0.023427689447999,0.0954335108399391,0.1540408730506897,-0.0676293596625328,-0.074700690805912,0.0896048620343208,-0.1160434111952781,0.3192282617092132,0.219412699341774,0.1715113371610641,0.0704703032970428,0.0530985705554485,-0.1452218890190124,0.0839853063225746,0.0047610900364816,0.0854006186127662,0.1227025985717773,-0.1500201076269149,0.1090145483613014,-0.0716601088643074,0.1773160248994827,-0.0336589105427265,0.0762090608477592,-0.1771075278520584,-0.0256849098950624,0.0895502269268035,-0.1823616772890091,0.0100065125152468,-0.3518339693546295,-0.0920547023415565,0.1967403888702392,-0.1645049005746841,-0.124561071395874,-0.0043987133540213,-0.0508682914078235,-0.1444359719753265,0.0045276186428964,-0.0441962592303752,0.0851441100239753,-0.0522293634712696,0.0097110522910952,-0.1066087111830711,0.1827347129583358,0.1485121101140976,0.0148902283981442,-0.0170092955231666,0.1410981267690658,0.0511687286198139,-0.1170094236731529,-0.1249767541885376,-0.0077781355939805,0.1683499664068222,-0.0691973567008972,-0.2613816261291504,0.1413746923208236,-0.0188091788440942,0.2155635952949524,0.2918554544448852,0.237425222992897,-0.0630998015403747,0
NCT05579249,0.2234989553689956,-0.1104946956038475,-0.0461738556623458,0.0225438326597213,-0.1118464618921279,-0.0508200824260711,-0.1859729290008545,-0.007939476519823,-0.1164766401052475,0.1514134407043457,-0.047271728515625,-0.1900311410427093,-0.0784560739994049,0.0879438668489456,-0.3256862759590149,0.0315272435545921,0.0976379290223121,-0.056803610175848,0.0692668110132217,0.2428631037473678,-0.044045440852642,0.0558715648949146,-0.1471787691116333,-0.0137859787791967,-0.1278620511293411,0.0970393493771553,0.0586947984993457,-0.2500693798065185,-0.0204530097544193,-0.0563959330320358,0.0338945724070072,-0.0655008479952812,0.0325267016887664,-0.1290252208709716,-0.020643975585699,-0.0598993077874183,0.138258546590805,0.096273273229599,-0.0505543798208236,-0.1245536431670188,-0.0740280598402023,0.129026174545288,0.1437108069658279,0.1729897260665893,0.0243503991514444,-0.0400491580367088,-0.0422909632325172,-0.1132749840617179,-0.0353607088327407,-0.3574978113174438,-0.0856292024254798,0.0591988861560821,0.5482308268547058,-0.0703230872750282,-0.1131002157926559,0.1951919496059417,-0.2060311436653137,0.0490935258567333,0.1043779551982879,-0.1708341687917709,0.0568414852023124,-0.0823970586061477,0.0557801388204097,0.1915438771247863,-0.0566772073507308,0.1634843051433563,0.1946625709533691,-0.3186840415000915,-0.1212162673473358,0.0656628981232643,0.0794678926467895,-0.0886533856391906,0.0096856951713562,-0.0023149736225605,-0.043681114912033,0.215313047170639,0.1165658384561538,0.1823083162307739,0.1017728820443153,-0.222089946269989,-0.1908391416072845,0.0774301663041114,0.1561973690986633,0.0905779302120208,0.0708061456680297,0.0009377729147672,0.3613194227218628,-0.1354110836982727,0.1523259580135345,-0.0077860560268163,0.0801050886511802,-0.1374289691448211,0.0317859649658203,0.0552474111318588,-0.1517896056175232,0.0534492805600166,-0.1537234783172607,-0.1877949088811874,0.1292106360197067,-0.0801509469747543,0.0073058437556028,0.1405376195907592,-0.0035913940519094,-0.0414614006876945,-0.090290643274784,-0.0301845520734787,-0.293718546628952,-0.2093779444694519,0.1128828376531601,0.1441361010074615,0.1322584599256515,0.2973344326019287,0.0646492093801498,0.1251153200864792,-0.0560941286385059,0.2354920655488968,-0.0464432872831821,-0.1723344326019287,0.0008294638246297,-0.0102515984326601,0.0549535453319549,-0.1098493337631225,-0.164779707789421,-0.001481007784605,0.1681234538555145,0.1546711176633834,0.2355718314647674,-0.1163220033049583,2
NCT06034275,0.1582512110471725,-0.0259957071393728,-0.0483775325119495,0.0033308018464595,-0.202049896121025,-0.1564921289682388,-0.1091734766960144,-0.0244671050459146,-0.0751419737935066,0.031080424785614,-0.0977932587265968,-0.2043303251266479,-0.2949548065662384,0.0376924537122249,-0.2565832138061523,0.0027800500392913,0.0258601959794759,0.0047399899922311,-0.0304063409566879,0.2004885077476501,-0.0345831178128719,0.0072311810217797,0.042816687375307,-0.0518915392458438,-0.1009944006800651,-0.0731778293848037,0.2021969407796859,-0.2434914857149124,-0.2148209363222122,-0.2606388628482818,0.0109786046668887,0.1078465357422828,0.3020296990871429,0.0953782573342323,-8.732577407499775e-05,0.119209349155426,0.0877903401851654,0.0265576336532831,0.2029062062501907,0.1278281509876251,-0.0188222881406545,0.099742442369461,-0.0385510623455047,0.1651163101196289,0.1455979794263839,0.1606842428445816,-0.1944625526666641,0.0416313745081424,0.2413508892059326,-0.2250420898199081,-0.0530438311398029,0.0260205119848251,0.1563148945569992,-0.0753110274672508,-0.0832820534706115,0.0397150665521621,-0.1235083565115928,-0.2050742357969284,0.2198055237531662,-0.2411370277404785,0.2476473003625869,0.1589607000350952,0.132918894290924,0.0726402029395103,0.079327292740345,0.1302815675735473,0.0796932652592659,0.0740929245948791,-0.2167345285415649,0.032838974148035,0.1936202496290207,-0.1854222565889358,0.0784885808825492,-0.0193378496915102,0.042148757725954,0.1794967204332351,0.0605802536010742,-0.0065078935585916,0.1410512775182724,-0.2568130493164062,-0.2235161811113357,0.0148265464231371,-0.0986687317490577,0.0301694367080926,0.0573685765266418,-0.1128729581832885,0.1835600882768631,0.012535405345261,0.2167161852121353,-0.0571958012878894,-0.032960832118988,-0.1822165250778198,-0.0789378806948661,0.0189542975276708,-0.173329696059227,0.0822559371590614,-0.3024357259273529,-0.1263505071401596,0.0371252782642841,-0.0970704331994056,-0.2175474017858505,0.1903027147054672,0.0013605058193206,-0.0543646477162838,0.0386019609868526,-0.0731699094176292,-0.0787127912044525,-0.0781235620379448,0.1441364139318466,-0.062366385012865,0.1160146817564964,0.1085912957787513,-0.1872962117195129,0.1064230501651763,0.0672474727034568,0.2624419629573822,-0.0320218615233898,-0.2361790686845779,0.0376439280807971,0.0917882695794105,-0.0980026349425315,-0.2688560485839844,0.0913088843226432,-0.1328064650297165,0.1047423705458641,0.2540418803691864,0.043062288314104,-0.3325559794902801,4
NCT05065411,0.2115266770124435,-0.002035793615505,0.0187609698623418,0.0651119947433471,-0.2488952577114105,-0.132452055811882,-0.0262080673128366,0.0405430272221565,-0.2206069231033325,0.0160096324980258,-0.166083425283432,-0.0426597818732261,-0.1083976477384567,-0.0551666505634784,-0.1939173936843872,0.0342821255326271,-0.0881034731864929,0.0177079364657402,0.0025724335573613,0.3424010872840881,-0.0025245517026633,-0.1190532594919204,-0.0652044266462326,-0.0502898581326007,-0.2249946147203445,-0.0914064198732376,0.0380166135728359,-0.0178877525031566,-0.0928628146648407,-0.1258098930120468,-0.1851947009563446,-0.066882885992527,0.2612289786338806,-0.004483270458877,-0.1400682926177978,0.0141232190653681,0.2899290323257446,0.0752915740013122,0.15225350856781,-0.0091775655746459,-0.1049557924270629,0.1362463980913162,0.0170453991740942,0.2016911506652832,0.0579556711018085,-0.1911609172821045,-0.2667872309684753,-0.0824948325753212,0.1910493075847625,-0.2897028923034668,-0.1354063898324966,-0.1482877433300018,0.2546306252479553,-0.0845688730478286,-0.1121177449822425,0.0650614351034164,-0.1798591613769531,-0.0963459834456443,0.3108055293560028,-0.2691687941551208,0.3791080117225647,0.1072527915239334,0.0825570449233055,0.0693970695137977,0.0410345718264579,0.1270407885313034,0.0735602900385856,-0.1423026770353317,-0.1487352401018142,-0.0731775909662246,0.0889891311526298,-0.0154560254886746,-0.0222378186881542,-0.3093896210193634,0.0131822396069765,0.2775717079639435,0.1358841359615326,0.0098174065351486,0.0756411030888557,-0.2217354476451873,-0.2481787651777267,0.0458559542894363,-0.095684103667736,-0.0874022170901298,-0.0177911818027496,-0.0868958011269569,0.2446163147687912,0.1483220905065536,0.2135201245546341,-0.1127762049436569,-0.0563700795173645,-0.2284775674343109,-0.0537321269512176,0.1826202422380447,-0.1913485080003738,0.0640293508768081,-0.2374088019132614,0.1657438725233078,0.1812696456909179,0.0360553264617919,-0.1384688764810562,0.2315072566270828,-0.0514780506491661,-0.1291829198598861,-0.0044459789060056,0.0485005378723144,-0.2199019938707351,0.167715311050415,0.1654707491397857,-0.000186941033462,0.0422481633722782,0.1732954680919647,-0.151942104101181,-0.0261941142380237,0.0578119680285453,0.1940110921859741,-0.0748291909694671,-0.1931741833686828,0.0704943537712097,0.1822013407945633,-0.0212348848581314,-0.2847028374671936,0.1258091181516647,-0.2088600099086761,0.233898788690567,0.2031029164791107,0.2241466045379638,-0.030405193567276,4
NCT05424276,0.0064983004704117,-0.1452574729919433,-0.0938777178525924,-0.037735067307949,-0.1669751107692718,-0.0209281742572784,-0.0418917909264564,-0.0762522742152214,-0.1279010474681854,0.0309092588722705,-0.0450231023132801,-0.0881818383932113,0.0806792750954628,0.1640238463878631,-0.4418078362941742,-0.0181451421231031,0.1301842182874679,-0.1040472984313964,0.0169487334787845,0.2327883690595626,-0.0611119270324707,0.0858816802501678,-0.1347407102584839,0.0692518502473831,-0.0340761393308639,0.0632160827517509,0.1475365459918975,-0.238843634724617,-0.2336882352828979,-0.118801936507225,-0.0459931530058383,0.0481604002416133,0.186065599322319,-0.0243818648159503,0.004203790333122,0.0193014647811651,-0.0029671727679669,0.0995451435446739,0.2272760868072509,-0.0716947168111801,0.1178120374679565,0.3415402173995971,-0.0591936893761158,0.294004738330841,-0.1068328395485878,-0.0969777628779411,-0.1284855604171753,-0.0212605893611907,0.2044070661067962,-0.3842736482620239,0.0625134259462356,0.0160498321056365,0.4011817574501037,-0.1465631425380706,-0.100948765873909,-0.0303025655448436,-0.2408879250288009,-0.0437296256422996,0.0027591257821768,-0.1588269621133804,0.1530380994081497,-0.0101172430440783,0.0562923923134803,0.2442995011806488,0.0962592288851738,0.1549814492464065,0.2079798728227615,-0.2534657418727875,-0.0482607707381248,0.0746557265520095,0.1807115823030471,-0.0944338887929916,-0.0010697484249249,0.0134014245122671,0.0357171483337879,0.1535763889551162,0.1966806352138519,0.2727878987789154,0.1483913362026214,-0.1072283014655113,-0.1881057471036911,0.0435915254056453,0.2174243479967117,0.0930646210908889,0.1120142787694931,-0.0520753189921379,0.1029611825942993,-0.0049473522230982,0.1870812773704528,-0.1059003323316574,-0.0841783508658409,-0.2862111628055572,0.0999463647603988,0.1731251180171966,-0.0635963156819343,0.1096133962273597,-0.2998920381069183,-0.2485847920179367,0.118424579501152,-0.1789657324552536,-0.0429366938769817,-0.095832422375679,0.0513416416943073,-0.1285274177789688,-0.1904259920120239,-0.0484511330723762,-0.0519068241119384,-0.1019531264901161,0.0944117978215217,-0.1746674478054046,0.0780432373285293,0.2106035947799682,0.0650779455900192,-0.0025602609384804,0.0509325861930847,0.1834354400634765,-0.1242113560438156,-0.0601301789283752,-0.0551438219845294,-0.0217080488801002,-0.0667410567402839,-0.2289580106735229,-0.1426714211702346,-0.020964091643691,0.2208158522844314,0.2308082580566406,0.291874349117279,-0.120407797396183,0
NCT04887298,0.1333754211664199,0.0035097524523735,0.0531639754772186,-0.0792321115732193,-0.165516197681427,0.000285724789137,-0.0525574944913387,0.0124050043523311,-0.1039143130183219,0.1813774108886718,-0.0586679764091968,-0.1314494162797927,-0.0987421870231628,0.0167899932712316,-0.2379860132932663,0.3071992099285126,-0.095070444047451,-0.1225205287337303,-0.0386145524680614,0.2713405191898346,-0.00364750623703,-0.0806839615106582,-0.1014199033379554,0.2104484289884567,-0.0686696842312812,0.0425856299698352,0.2273130565881729,-0.2218193858861923,-0.0367497913539409,-0.1287633627653122,0.0487189702689647,0.0120772719383239,0.1033178344368934,0.0137762008234858,-0.0041934601031243,-0.141930267214775,0.0221273303031921,0.0584793426096439,0.0211516022682189,-0.0650651305913925,-0.126425489783287,0.0521591790020465,-0.0636839494109153,0.2499838024377823,0.1023146286606788,0.0337331183254718,0.0520779006183147,0.111771784722805,0.0187081545591354,-0.1512507051229477,0.0419965088367462,-0.0226187612861394,0.2213253378868103,-0.1802572607994079,-0.060843575745821,-0.0543682277202606,-0.0839599445462226,-0.1081922575831413,0.1186350360512733,-0.1716314703226089,0.1878816485404968,0.1369917839765548,-0.0315081179141998,0.1454511433839798,-0.1291963756084442,0.1379728615283966,0.08270875364542,-0.1102568581700325,-0.1748820692300796,-0.0722330287098884,0.0864558294415474,-0.1503670364618301,-0.0136796133592724,-0.0223024263978004,-0.0534027405083179,0.4027176797389984,0.1534354835748672,0.0356775969266891,0.0880037248134613,-0.0269074738025665,-0.1140989884734153,0.1091713830828666,0.085863821208477,-0.0279626045376062,-0.0751590654253959,-0.1819080859422683,0.0498374737799167,-0.0405793376266956,0.0866818204522132,-0.0614607632160186,0.1738528758287429,-0.1276911050081253,0.0656764432787895,-0.0115135563537478,-0.211662009358406,0.0546851493418216,-0.2365224361419677,-0.0754277855157852,0.1503311544656753,-0.0036469597835093,-0.0353706367313861,0.2183890789747238,-0.0890473648905754,-0.1582933217287063,-0.0771913900971412,-0.1110881268978118,0.0423136316239833,0.0042080930434167,0.0867917761206626,0.2408831864595413,0.0814156979322433,0.1859428733587265,-0.0974267125129699,-0.0678740069270134,-0.0210785958915948,0.0903968214988708,-0.0422203540802001,-0.1243697181344032,-0.0014810537686571,0.1740915030241012,-0.1133917495608329,-0.0733657255768776,0.0659874007105827,0.0435358397662639,0.0627491101622581,0.184635117650032,0.1772121638059616,-0.0729766860604286,1
NCT04073498,0.1601671427488327,-0.0258936546742916,0.1311149001121521,0.074293740093708,-0.0843936428427696,-0.1062868610024452,-0.0117369843646883,-0.0798201709985733,-0.0792991071939468,0.1562291085720062,-0.0972854271531105,-0.0443758144974708,-0.1043946668505668,-0.0007921670330688,-0.3527378141880035,0.2343481332063675,0.0338778980076313,-0.0658631399273872,-0.0307022463530302,0.1391302645206451,-0.0540197305381298,-0.1797036379575729,-0.0767121762037277,0.1250983923673629,-0.1665033251047134,-0.0022403544280678,0.2040617614984512,-0.3112459182739258,-0.0431121997535228,-0.1041643097996711,0.0530891679227352,-0.0534209422767162,0.1610308438539505,0.0050126099959015,-0.0643444210290908,-0.059431679546833,0.1756178885698318,0.2660630643367767,0.0150034260004758,-0.0970211550593376,-0.1931305676698684,0.1117816120386123,0.0959914773702621,0.1614258289337158,0.1983268111944198,-0.08045344799757,-0.0384045429527759,-0.0285351555794477,0.0899078696966171,-0.1749064028263092,-0.0248523149639368,-0.0892125442624092,0.0470601841807365,-0.1682970970869064,-0.0185905788093805,0.0846298336982727,-0.2388475090265274,-0.1463804543018341,0.0098225520923733,-0.1662003546953201,0.1536828726530075,0.1115225180983543,0.0983645766973495,0.1060301214456558,-0.0194044280797243,0.1028534322977066,0.2134411334991455,-0.2096805125474929,-0.1385857909917831,-0.0871091932058334,0.0464117266237735,-0.1298992931842804,-0.0030643257778137,-0.1797314435243606,0.0087065147235989,0.2760464251041412,0.1625381708145141,0.1504759639501571,0.137173980474472,-0.0834513530135154,-0.1855242699384689,0.1090646460652351,-0.0422527194023132,-0.0778269991278648,-0.1313972622156143,-0.1060439869761467,0.0868258476257324,0.0179229881614446,0.1617768704891204,0.1070731207728385,0.0798247382044792,-0.060903612524271,-0.0011054022470489,-0.0006680637598037,-0.2377004772424698,-0.068666286766529,-0.1935388594865799,0.0146394176408648,0.0385270081460475,-0.0987066179513931,-0.1385297030210495,0.1857592910528183,-0.1390505582094192,-0.0862260460853576,0.0536593124270439,-0.0318308658897876,-0.1739961802959442,0.0571575574576854,0.1170749142765998,0.0079271821305155,0.0128465527668595,0.3732615113258362,0.1298563182353973,0.108533538877964,-0.111228160560131,0.1958603858947754,-0.0457672215998172,-0.060826625674963,0.0247543659061193,0.0083508724346756,-0.1191287189722061,-0.0659154653549194,0.0885751619935035,-0.1801591366529464,0.0254130959510803,0.1700900048017501,0.1475436985492706,0.0352856926620006,3
NCT03959527,0.1180390939116478,-0.067687913775444,0.1285033375024795,0.0462020821869373,-0.226783350110054,-0.0438833050429821,-0.0588526800274848,0.0011871324386447,-0.0995675176382064,0.2136377841234207,-0.0792166665196418,-0.1127880439162254,-0.1118791922926902,0.1724889725446701,-0.2923606634140014,0.1366930902004242,0.0782881379127502,-0.1164800301194191,-0.081072598695755,0.2963287532329559,-0.2575755715370178,-0.1762070506811142,-0.0113020902499556,0.104414664208889,-0.1754591912031173,-0.0466854833066463,0.2820330560207367,-0.2691152393817901,-0.0572906881570816,-0.1136656329035759,-0.0240653902292251,0.0601678155362606,0.073946438729763,-0.0146882347762584,-0.0006896886625327,-0.085937462747097,-0.0101086730137467,0.0259958114475011,0.1590069383382797,-0.0154678560793399,-0.1469867825508117,0.2111994475126266,-0.0596401952207088,0.2428877651691436,0.0147170322015881,-0.0895626246929168,0.0498481541872024,0.0369849950075149,0.144347608089447,-0.1766628324985504,0.0796067789196968,-0.0481316782534122,0.3192721009254455,-0.1634477525949478,-0.0718227997422218,0.1476566195487976,-0.174517348408699,0.0220101010054349,0.1673230528831482,-0.1504386216402053,0.067521721124649,-0.0084974383935332,0.1132668256759643,0.1177363097667694,-0.0654971152544021,0.1281165778636932,0.1039260551333427,-0.1993080675601959,-0.0425967425107955,0.0398245975375175,0.1259750723838806,-0.2145446687936782,-0.0093925036489963,0.0128580601885914,-0.055821843445301,0.2623035013675689,0.2497520446777343,0.0409759171307086,0.1878153830766677,-0.050609216094017,-0.1500255316495895,0.0838138610124588,0.1129142865538597,0.0566716194152832,0.0642827376723289,0.000539104163181,0.0533643215894699,0.0847611129283905,0.1304006278514862,-0.0736932605504989,-0.0085262181237339,-0.1342948228120803,0.0424074940383434,0.0136180138215422,-0.1345254331827163,0.1890879422426223,-0.2005743980407714,-0.0467931292951107,0.1454893946647644,0.0139079475775361,-0.1614014208316803,0.0991604030132293,-0.0766822397708892,-0.0391265787184238,-0.0984662696719169,0.0344492942094802,-0.0192471034824848,0.0803103670477867,0.2101319581270218,-0.0209346674382686,0.2255830019712448,0.2182850688695907,-0.0732641592621803,0.0431214831769466,0.1137969642877578,0.1192962750792503,-0.0570919178426265,-0.1815928369760513,0.0298197008669376,0.064414232969284,-0.0771103054285049,-0.0762723386287689,0.0605328939855098,-0.0826369822025299,0.1588579267263412,0.1739009171724319,0.1002072766423225,0.0301611684262752,1
NCT04469595,0.2649866044521332,-0.0409200154244899,-0.072670929133892,0.0896705165505409,-0.2113601118326187,-0.0535661093890666,-0.0576616264879703,-0.0184885989874601,-0.2458767890930175,0.281777411699295,-0.0573329627513885,-0.2253144979476928,-0.0940744876861572,0.136428877711296,-0.1943810135126114,0.0458974242210388,0.001740738749504,0.0617413520812988,0.1050823703408241,0.2601618766784668,-0.1365746706724167,-0.0861225724220275,-0.1176803186535835,-0.0583387874066829,-0.118730217218399,-0.0853624567389488,0.2467740774154663,-0.2188333719968795,-0.1574654728174209,-0.0145665248855948,0.0308097749948501,-0.029983626678586,0.0944133177399635,-0.0026263941545039,-0.1127898097038269,0.0407154783606529,0.0844978094100952,0.1809895634651184,0.020340671762824,-0.062091875821352,0.0734593644738197,0.1958591341972351,0.0326677002012729,0.3381917178630829,0.0629021078348159,-0.063807837665081,-0.1372032612562179,-0.056292463093996,0.1552376598119735,-0.2639783918857574,0.1755305081605911,0.1633253544569015,0.1798621267080307,0.0153350858017802,-0.0117915803566575,0.1393240541219711,-0.2746919989585876,-0.0596407763659954,-0.153756782412529,-0.1252520680427551,0.2405544370412826,-0.0535122007131576,0.244722232222557,0.1902738362550735,-0.0582930110394954,0.0579030625522136,0.3698852360248565,-0.1720279306173324,-0.0419881492853164,0.0962709188461303,-0.0167292784899473,-0.0756892785429954,0.0300289317965507,-0.0447261370718479,-0.1155916079878807,0.1987915784120559,0.207347497344017,0.3179767429828644,0.1389578282833099,-0.0405139364302158,-0.196535512804985,-0.0023094329517334,0.033068086951971,0.0328613594174385,0.1070526018738746,-0.1181616783142089,0.2067379504442215,-0.0175381023436784,0.1333531737327575,0.0615706928074359,0.0763114318251609,-0.1907980442047119,0.0661603733897209,0.164759024977684,-0.1329669207334518,-0.0512745976448059,-0.151931956410408,-0.1344095319509506,0.1017175242304802,-0.1597953289747238,-0.143887385725975,0.1039083525538444,-0.0948094055056572,-0.1621013283729553,-0.0956712067127227,-0.0599009692668914,-0.0155538721010088,-0.0660003051161766,0.1278075128793716,-0.0401467941701412,0.1578879207372665,0.3812085688114166,0.0347746349871158,-0.0667450875043869,0.0703493133187294,0.0937685295939445,-0.1755574941635131,-0.1541260480880737,-0.0848216637969017,-0.0211041066795587,0.0138157056644558,-0.240189716219902,0.0174917969852685,-0.176272377371788,0.2119705826044082,0.2078441381454467,0.1102851256728172,-0.0090515278279781,0
