nct_id,emb_0,emb_1,emb_2,emb_3,emb_4,emb_5,emb_6,emb_7,emb_8,emb_9,emb_10,emb_11,emb_12,emb_13,emb_14,emb_15,emb_16,emb_17,emb_18,emb_19,emb_20,emb_21,emb_22,emb_23,emb_24,emb_25,emb_26,emb_27,emb_28,emb_29,emb_30,emb_31,emb_32,emb_33,emb_34,emb_35,emb_36,emb_37,emb_38,emb_39,emb_40,emb_41,emb_42,emb_43,emb_44,emb_45,emb_46,emb_47,emb_48,emb_49,emb_50,emb_51,emb_52,emb_53,emb_54,emb_55,emb_56,emb_57,emb_58,emb_59,emb_60,emb_61,emb_62,emb_63,emb_64,emb_65,emb_66,emb_67,emb_68,emb_69,emb_70,emb_71,emb_72,emb_73,emb_74,emb_75,emb_76,emb_77,emb_78,emb_79,emb_80,emb_81,emb_82,emb_83,emb_84,emb_85,emb_86,emb_87,emb_88,emb_89,emb_90,emb_91,emb_92,emb_93,emb_94,emb_95,emb_96,emb_97,emb_98,emb_99,emb_100,emb_101,emb_102,emb_103,emb_104,emb_105,emb_106,emb_107,emb_108,emb_109,emb_110,emb_111,emb_112,emb_113,emb_114,emb_115,emb_116,emb_117,emb_118,emb_119,emb_120,emb_121,emb_122,emb_123,emb_124,emb_125,emb_126,emb_127
NCT06954688,0.11690836399793625,-0.16065791249275208,0.004246264696121216,-0.05988328903913498,-0.0867219865322113,0.0891743004322052,-0.0976857990026474,-0.07091481238603592,-0.1461644172668457,0.19785967469215393,0.04750075191259384,0.15307031571865082,0.1215272769331932,0.11441871523857117,-0.3052925169467926,0.08752977848052979,0.07523620128631592,-0.08555629104375839,0.00460339430719614,0.26327913999557495,-0.18373480439186096,0.0027388434391468763,-0.23071439564228058,-0.03715796768665314,-0.018896348774433136,-0.11048439890146255,0.24981729686260223,-0.20959937572479248,-0.06434226781129837,-0.09692835807800293,0.12225132435560226,0.1040833368897438,0.021804528310894966,0.015778396278619766,0.04503576457500458,-0.11565082520246506,-0.01855224370956421,0.10871830582618713,0.08532737195491791,-0.26670873165130615,-0.018579203635454178,0.1639055758714676,-0.0071969726122915745,0.18382379412651062,0.03003036044538021,-0.07029478996992111,-0.07497457414865494,0.1428525745868683,0.1539941132068634,-0.2860482633113861,0.21937766671180725,0.039742499589920044,0.4644066095352173,-0.10486357659101486,-0.07174821943044662,0.01988687552511692,-0.12742936611175537,0.03311653807759285,-0.04961849004030228,-0.06621333956718445,0.09993155300617218,0.06768810749053955,0.08137860149145126,0.31321895122528076,-0.15969330072402954,0.014539215713739395,0.10247214138507843,-0.33561503887176514,-0.058814723044633865,-0.02960304170846939,0.13840992748737335,-0.1411551982164383,-0.09780410677194595,0.051180023699998856,-0.12584084272384644,0.08346205204725266,0.2963455617427826,0.11565380543470383,-0.007696797605603933,-0.07153591513633728,-0.16191644966602325,-0.0174083448946476,0.32649409770965576,0.22068648040294647,-0.016124969348311424,-0.04632449522614479,-0.12072107195854187,-0.08594151586294174,-0.0015950666274875402,-0.06344767659902573,0.22537469863891602,-0.26399487257003784,0.11413412541151047,0.057877540588378906,-0.20871935784816742,0.0644601583480835,-0.27421972155570984,-0.12621571123600006,0.05639314651489258,-0.00017476743960287422,-0.005201227962970734,0.03379768878221512,0.09228399395942688,-0.03336797654628754,-0.0931512787938118,-0.20746217668056488,-0.06164785102009773,-0.07868768274784088,0.03992609679698944,0.1346558928489685,0.013877995312213898,0.17119626700878143,0.02093539759516716,-0.03678548336029053,-0.02315349690616131,0.10891067981719971,-0.04506509006023407,-0.13402152061462402,-0.05235899239778519,-0.1702529489994049,-0.08796101808547974,-0.19139407575130463,-0.030826598405838013,0.10957781225442886,0.09528020769357681,0.1500062346458435,0.00881205964833498,0.11592766642570496
NCT06834399,0.06498339772224426,-0.1222674772143364,-0.19348672032356262,0.04258817434310913,0.09235416352748871,-0.1933644562959671,-0.0277562215924263,-0.14373795688152313,-0.0004510916769504547,0.05830759555101395,-0.136694997549057,-0.12584957480430603,-0.1568938046693802,0.053860459476709366,-0.15106144547462463,-0.026560280472040176,-0.02052202820777893,-0.05945081636309624,-0.10483066737651825,0.21106155216693878,-0.09271319210529327,-0.19816669821739197,0.06116992235183716,-0.06045597046613693,-0.14953520894050598,-0.1616412252187729,0.23819021880626678,-0.2893407344818115,-0.12165077030658722,-0.09318143129348755,-0.023923039436340332,0.03995561599731445,0.3385011553764343,0.2564387917518616,-0.17998766899108887,-0.004339590668678284,0.12372815608978271,0.0743289366364479,0.09189936518669128,0.06538068503141403,-0.10567131638526917,0.13767927885055542,0.07306051254272461,0.2814522385597229,0.28612020611763,0.01503504067659378,-0.23403769731521606,0.035209447145462036,0.28322499990463257,-0.1520104855298996,0.005591798573732376,0.1387127786874771,-0.004706867039203644,0.10955489426851273,-0.25066208839416504,0.007629036903381348,-0.2988288402557373,-0.35673654079437256,0.21139922738075256,-0.31203562021255493,0.3605102300643921,0.10446761548519135,0.1197051852941513,-0.08207788318395615,0.18672579526901245,0.06711815297603607,0.3649183511734009,-0.061630912125110626,-0.053750261664390564,-0.06669847667217255,0.1441100835800171,-0.13188877701759338,0.16429725289344788,-0.3297424614429474,0.27525758743286133,0.11245951056480408,0.0020957160741090775,0.1900971233844757,0.194586381316185,-0.14944681525230408,-0.17655548453330994,-0.036849044263362885,-0.04355984181165695,-0.07295405864715576,0.2229699194431305,-0.14488108456134796,0.1518055498600006,0.18517524003982544,0.18918269872665405,-0.07351474463939667,-0.006131918169558048,-0.10837287455797195,-0.028420086950063705,0.041248004883527756,-0.14192411303520203,0.025933336466550827,-0.2653464674949646,0.00035770609974861145,-0.004606299102306366,-0.21309155225753784,-0.20342983305454254,-0.0022183433175086975,-0.18112200498580933,0.08336135745048523,0.06534702330827713,-0.22284747660160065,-0.11504054069519043,0.12179707735776901,0.10679221898317337,-0.1522415429353714,-0.010597065091133118,0.3032670021057129,-0.025086242705583572,0.06655770540237427,-0.0008872300386428833,0.1329578459262848,-0.07089254260063171,-0.031762756407260895,-0.14788562059402466,0.02708621323108673,-0.10924790799617767,-0.17686858773231506,0.12172672897577286,-0.3306519389152527,0.1172514259815216,0.1370302140712738,0.003096446394920349,-0.07188217341899872
NCT06824870,0.22272014617919922,-0.005661286413669586,0.11725853383541107,0.12612399458885193,-0.35866060853004456,-0.16775362193584442,-0.11511848121881485,-0.05016612261533737,-0.12934978306293488,0.181731179356575,-0.2850496172904968,-0.13037778437137604,-0.219772070646286,0.21337160468101501,-0.3584102392196655,0.1982392966747284,0.01870383881032467,-0.020519491285085678,-0.03572821244597435,0.2998284697532654,-0.06370090693235397,-0.0637001171708107,-0.008836714550852776,0.05278575420379639,-0.08579506725072861,0.029248693957924843,0.15030525624752045,-0.2472255676984787,-0.1671675592660904,-0.07482338696718216,0.08283408731222153,0.014945182017982006,0.26917481422424316,-0.040478043258190155,-0.10069751739501953,0.00959700345993042,0.21562886238098145,0.26369163393974304,0.1192886009812355,-0.019552523270249367,-0.09204611927270889,0.19997559487819672,0.12873432040214539,0.2131480723619461,0.017818905413150787,-0.04325926676392555,-0.04349233955144882,-0.147838294506073,0.1494615525007248,-0.30466920137405396,0.1274150311946869,0.10571302473545074,0.16218750178813934,-0.1082322746515274,0.08541791141033173,0.17626357078552246,-0.3135409951210022,-0.06489156186580658,-0.023008078336715698,-0.34709927439689636,0.20723283290863037,0.048231326043605804,0.21958467364311218,0.18008384108543396,0.03557942435145378,0.1190117597579956,0.23582904040813446,-0.22551408410072327,-0.01726299524307251,0.07820533215999603,0.16475746035575867,-0.08254656940698624,0.03414766490459442,-0.05660384148359299,-0.04976602643728256,0.3296944499015808,0.20116658508777618,0.25169411301612854,0.22110506892204285,0.05045372247695923,-0.27802926301956177,0.11295320093631744,0.015750352293252945,0.10206036269664764,-0.1003274917602539,-0.10112057626247406,0.19369365274906158,-0.16278906166553497,0.19940750300884247,0.05749397352337837,0.17031094431877136,-0.23559430241584778,-0.04387080669403076,-0.07209224998950958,-0.27670878171920776,-0.06060060113668442,-0.40160173177719116,-0.185648113489151,0.10452727973461151,-0.03574611619114876,-0.12586572766304016,0.0974002480506897,0.02406686171889305,-0.28033697605133057,-0.10880645364522934,-0.044080059975385666,-0.06001027673482895,0.03194893151521683,0.17035456001758575,-0.012840447016060352,0.07766623795032501,0.40815916657447815,0.007620079908519983,0.11268089711666107,-0.0362652912735939,0.33396774530410767,-0.11848102509975433,-0.16194529831409454,-0.04137614369392395,0.0011270999675616622,-0.08465850353240967,-0.15129128098487854,0.036806706339120865,-0.0754014402627945,0.2743726670742035,0.33828774094581604,0.16825619339942932,0.04523104429244995
NCT06823505,0.21922554075717926,-0.040137920528650284,0.07652345299720764,-0.195791557431221,-0.050196077674627304,-0.09294619411230087,-0.34662923216819763,-0.12828533351421356,-0.17634093761444092,0.030874639749526978,-0.15806086361408234,-0.1587258279323578,-0.044657666236162186,-0.02630322240293026,-0.30184367299079895,0.22410641610622406,0.17462360858917236,0.07281964272260666,0.060630787163972855,0.0697375014424324,0.03907719999551773,0.10919725149869919,-0.03510411083698273,-0.09729792922735214,-0.09255997091531754,-0.12017824500799179,0.10505276918411255,-0.13283860683441162,-0.026867004111409187,-0.2198656052350998,-0.1557462066411972,-0.2045677751302719,0.26768067479133606,-0.03245819732546806,-0.008943070657551289,-0.04856104776263237,0.20595614612102509,0.19147445261478424,0.2003587931394577,0.04224475845694542,-0.03228968381881714,0.23661714792251587,0.2032625675201416,0.30675479769706726,0.02176661044359207,-0.03331759199500084,-0.23177893459796906,0.17824392020702362,0.046386729925870895,-0.2622934579849243,-0.10659682750701904,0.09832217544317245,0.4755367338657379,-0.09113851189613342,-0.18363481760025024,0.26845863461494446,-0.24754978716373444,-0.13962124288082123,0.3687152862548828,-0.16938817501068115,0.1141522228717804,0.19447512924671173,0.13756050169467926,0.13550041615962982,-0.09004560858011246,0.10035387426614761,0.034033942967653275,-0.22689776122570038,-0.04388871416449547,0.09477511048316956,0.019520901143550873,0.09445636719465256,0.0025355021934956312,-0.019408702850341797,0.004874005913734436,0.29563459753990173,0.20639260113239288,0.06433980911970139,0.12159069627523422,-0.18270725011825562,-0.1294829100370407,-0.06806796044111252,-0.0076257288455963135,0.014283823780715466,0.10258757323026657,-0.12298226356506348,0.24067479372024536,-0.12740010023117065,0.16917379200458527,-0.2068244069814682,-0.10087456554174423,-0.0821746364235878,-0.05592404678463936,0.07482428103685379,-0.23669461905956268,-0.08387675881385803,-0.27613556385040283,-0.06157635524868965,0.12233056873083115,-0.16118773818016052,-0.0028282254934310913,0.19690494239330292,0.07033538073301315,-0.012579299509525299,0.041415736079216,-0.11674688011407852,-0.20739693939685822,-0.10093265026807785,-0.028680110350251198,0.06900393217802048,0.07072224467992783,0.20876896381378174,-0.033598270267248154,0.03330943360924721,0.05228668823838234,0.134986013174057,-0.10283520072698593,-0.2832483947277069,0.08006837218999863,-0.12199533730745316,0.07344455271959305,-0.36220309138298035,0.14935508370399475,-0.0270158052444458,0.14813737571239471,0.2462276965379715,0.18045981228351593,-0.17150072753429413
NCT06708611,0.01248537003993988,-0.1474788784980774,-0.08538705855607986,0.06743086874485016,-0.019512854516506195,-0.08467042446136475,-0.0889461413025856,-0.031420763581991196,-0.2232106328010559,0.15528318285942078,-0.16907601058483124,-0.21349206566810608,-0.08219587802886963,0.03854474797844887,-0.532461404800415,0.21472686529159546,-0.027961894869804382,-0.15428709983825684,0.05353962630033493,0.12009177356958389,-0.2213388830423355,-0.0765240341424942,-0.1156371682882309,0.11474375426769257,-0.1509953737258911,0.07708990573883057,0.15865004062652588,-0.35685843229293823,-0.1593664288520813,-0.005870647728443146,-0.09847456961870193,-0.04436519742012024,-0.08649728447198868,0.0554945170879364,-0.14523693919181824,-0.21781790256500244,0.28902655839920044,0.05087978392839432,-0.0004215911030769348,-0.10416527092456818,0.009739506989717484,0.1523035615682602,-0.06891922652721405,0.11640943586826324,0.16564598679542542,-0.109188012778759,0.040567755699157715,-0.09941738098859787,0.05098571628332138,-0.1119857132434845,-0.0041641127318143845,-0.11211413145065308,0.24848538637161255,-0.09851673245429993,-0.03447537124156952,0.12110669910907745,-0.22500169277191162,-0.03747284412384033,0.005191527307033539,-0.09727441519498825,0.17274051904678345,8.307397365570068e-06,0.12517289817333221,0.1583702564239502,0.06535976380109787,0.0121774822473526,0.261673241853714,-0.07346051931381226,-0.21621394157409668,-0.18630476295948029,0.016788983717560768,-0.06881198287010193,-0.11222482472658157,0.01632723957300186,0.01230701059103012,0.2139033079147339,0.12318500876426697,0.15866515040397644,0.09508758783340454,-0.12323899567127228,-0.1138799861073494,0.15963846445083618,0.14480245113372803,-0.03393387794494629,0.2082536518573761,-0.014927826821804047,0.19293920695781708,0.1247168630361557,0.14093077182769775,0.07396140694618225,-0.1671038269996643,-0.01653498038649559,0.1157030463218689,0.20298008620738983,0.012743428349494934,0.031882237643003464,0.041372187435626984,0.04011213406920433,0.2167634218931198,-0.18192623555660248,-0.01240956038236618,-0.024793237447738647,-0.2542875409126282,-0.14859774708747864,0.005391836166381836,0.027002528309822083,-0.2171533703804016,-0.09718286991119385,0.30367714166641235,-0.1376091092824936,0.22786985337734222,0.16107675433158875,0.2092890441417694,0.1700415015220642,0.11668829619884491,0.05096166580915451,0.03513172268867493,0.12743137776851654,0.0576157309114933,0.1718413382768631,0.07863469421863556,-0.010825734585523605,0.02476925402879715,-0.18263648450374603,0.15229056775569916,0.05424835532903671,0.16325412690639496,-0.05658145993947983
NCT06615752,0.18177729845046997,-0.08166258037090302,0.1796300858259201,-0.0025555819738656282,-0.16709765791893005,-0.062041521072387695,-0.05192948505282402,-0.03852442651987076,-0.11034683138132095,0.26917755603790283,-0.16376224160194397,-0.054035723209381104,-0.13544100522994995,0.09412690997123718,-0.31469711661338806,0.12326036393642426,-0.023989969864487648,-0.017858019098639488,-0.08376391977071762,0.20631258189678192,-0.18942943215370178,-0.11867030709981918,-0.005126461386680603,0.026740651577711105,-0.24377045035362244,-0.18516531586647034,0.173885315656662,-0.23226137459278107,-0.039515625685453415,0.02353893779218197,-0.12172839790582657,-0.07033895701169968,0.006988572888076305,0.10333780199289322,-0.06775348633527756,-0.06097390130162239,0.28148356080055237,0.22455982863903046,0.10056551545858383,0.07940926402807236,-0.14079420268535614,0.24190166592597961,0.00047706178156659007,0.22173169255256653,0.24412445724010468,-0.1954842209815979,-0.07452153414487839,0.027487214654684067,0.1405298262834549,-0.20949101448059082,-0.13034376502037048,-0.126287579536438,0.30960068106651306,-0.17329558730125427,-0.14248020946979523,0.23338298499584198,-0.1542281210422516,-0.06570248305797577,0.3889884650707245,-0.20289811491966248,0.11109212785959244,0.022783352062106133,0.1472979038953781,0.0022565126419067383,0.11340010166168213,0.12381862103939056,0.3089846074581146,-0.05651659518480301,-0.20782379806041718,0.07262308895587921,0.0030039087869226933,-0.11442448198795319,0.05310509726405144,-0.25318941473960876,0.004027435090392828,0.1436530202627182,0.09027950465679169,0.13333238661289215,0.10375578701496124,-0.1762460172176361,-0.13095203042030334,0.07447591423988342,0.019867895171046257,0.013432927429676056,0.034049224108457565,-0.019025301560759544,0.12089809030294418,0.18394780158996582,0.11652593314647675,-0.15398861467838287,0.05505988746881485,-0.0917348861694336,0.037854451686143875,0.09524932503700256,-0.14239589869976044,0.119063600897789,-0.12311074882745743,0.07120414078235626,0.0927555188536644,-0.15451642870903015,0.03920774161815643,0.24567261338233948,-0.03287649154663086,-0.0869860053062439,0.08537733554840088,-0.04322086274623871,-0.16402730345726013,-0.029507655650377274,0.2227781116962433,-0.07646061480045319,0.002270865486934781,0.3268480896949768,0.023632461205124855,0.17751236259937286,0.0030705928802490234,0.19213362038135529,-0.06902267783880234,-0.0992131382226944,0.1752711534500122,-0.025763144716620445,-0.11776944249868393,-0.2480299174785614,0.08923687040805817,-0.13392381370067596,0.04468102008104324,0.19258566200733185,0.16307441890239716,-0.024042561650276184
NCT06602960,0.15493179857730865,-0.25272491574287415,-0.06284601986408234,-0.07110387086868286,-0.2799433171749115,-0.03499797359108925,-0.055534716695547104,0.05317007005214691,-0.1292896866798401,0.11109916120767593,-0.026105627417564392,-0.27430859208106995,-0.08222683519124985,0.08046679943799973,-0.41084539890289307,0.10446915775537491,0.27304744720458984,0.0021627098321914673,0.11574628949165344,0.2806147634983063,-0.09171833842992783,0.12294497340917587,-0.2585028409957886,-0.043433647602796555,-0.05029390752315521,0.21164022386074066,-0.04575195536017418,-0.08654579520225525,-0.04335477575659752,-0.11235921829938889,-0.050125639885663986,-0.01687045954167843,0.1945708990097046,-0.2121415138244629,-0.08710309863090515,0.04179241880774498,0.14331592619419098,0.1750190705060959,0.14758998155593872,-0.013229507021605968,0.1305016726255417,0.3575032651424408,0.20744401216506958,0.149281308054924,-0.15395715832710266,-0.07064696401357651,-0.17124707996845245,-0.1780293732881546,0.2359112650156021,-0.3318617045879364,0.05748714134097099,0.18217380344867706,0.595711886882782,-0.10835973173379898,-0.30248579382896423,0.15720824897289276,-0.2999577820301056,0.0965752825140953,-0.001687177806161344,-0.2712008059024811,0.08837725967168808,-0.0408254973590374,0.12334313243627548,0.2328919619321823,-0.018020281568169594,0.16425248980522156,0.21524840593338013,-0.2557840347290039,-0.008373454213142395,0.12561535835266113,0.13790874183177948,-0.07929957658052444,-0.07766682654619217,0.03939731419086456,-0.001088454038836062,-0.025932664051651955,0.13670025765895844,0.1766631156206131,0.04581103101372719,-0.11007248610258102,-0.180306077003479,0.11981406062841415,0.1001829281449318,0.17631639540195465,0.1907975673675537,0.037241410464048386,0.20097637176513672,0.007359122391790152,0.18067847192287445,-0.2061890810728073,-0.1581144779920578,-0.12756997346878052,0.24857091903686523,0.07672153413295746,-0.15352576971054077,0.034909140318632126,-0.21582430601119995,-0.25481659173965454,0.20747153460979462,-0.12087621539831161,0.03805331885814667,0.005786264780908823,0.17247076332569122,-0.05814279988408089,-0.1778830885887146,0.14014919102191925,-0.2461487054824829,-0.07738318294286728,0.2792646288871765,-0.035805221647024155,0.3110008239746094,0.26828378438949585,0.023020217195153236,0.0026048850268125534,0.06291059404611588,0.11802741140127182,-0.13301235437393188,-0.15559644997119904,0.09266013652086258,0.014278900809586048,0.24133825302124023,-0.27597305178642273,-0.10212462395429611,-0.08058211952447891,0.29467979073524475,0.10364218801259995,0.4124334156513214,-0.039870887994766235
NCT06568302,0.03942658752202988,-0.007271464914083481,0.04425033926963806,0.09480760246515274,-0.1375138759613037,-0.3338348865509033,0.17228174209594727,-0.10884109139442444,-0.116162970662117,0.08402220159769058,-0.06909042596817017,-0.03965969383716583,0.008653577417135239,0.1356152594089508,-0.38458478450775146,0.08099186420440674,0.01850839890539646,-0.015706434845924377,0.08446074277162552,0.04854055121541023,0.015788814052939415,-0.10639749467372894,-0.07736904919147491,0.1572677344083786,-0.12850052118301392,-0.10339944809675217,0.10310415923595428,-0.3128680884838104,-0.059744879603385925,-0.0783415138721466,-0.045950502157211304,-0.1438477784395218,0.18830084800720215,0.05038144066929817,-0.11153658479452133,-0.028149083256721497,0.14261755347251892,0.2813873589038849,0.002424132078886032,-0.002375412732362747,-0.23488155007362366,0.009562380611896515,-0.025461845099925995,0.13287568092346191,0.2507900893688202,-0.13312223553657532,-0.1175367683172226,-0.04408765584230423,0.03990556299686432,-0.2395244538784027,-0.05333232507109642,-0.10421568155288696,-0.11495929956436157,-0.2903132736682892,0.0848364531993866,0.10827706754207611,-0.14232170581817627,-0.1094398945569992,0.056349821388721466,-0.15340884029865265,0.2623574137687683,0.07202645391225815,0.18038007616996765,0.11392409354448318,0.07267887890338898,0.00934441015124321,0.2599666118621826,-0.2783377170562744,-0.2232583612203598,-0.03258452191948891,0.08327484130859375,0.026990920305252075,0.05653875321149826,-0.2110384702682495,0.1585417091846466,0.42253953218460083,0.26552778482437134,0.29392513632774353,0.14697059988975525,-0.21570929884910583,-0.27326011657714844,0.12054477632045746,0.0179420355707407,-0.09097433090209961,-0.18742242455482483,-0.12436257302761078,0.15808208286762238,-0.05498095601797104,0.45616477727890015,0.27210167050361633,0.2124992311000824,-0.25093191862106323,-0.0003186129033565521,-0.057431068271398544,-0.20130468904972076,-0.20732390880584717,-0.15767450630664825,-0.020694222301244736,-0.0019998326897621155,0.036144133657217026,-0.14060088992118835,0.04290466383099556,-0.2206817865371704,-0.3000667691230774,0.011519141495227814,-0.01713314652442932,-0.12824422121047974,-0.05470889434218407,0.05699843913316727,-0.24428334832191467,-0.09483946859836578,0.2628750801086426,0.19798962771892548,0.08227096498012543,0.07165016233921051,0.4524627923965454,0.06362608820199966,-0.0292385071516037,-0.001081857830286026,0.09173060953617096,-0.2644537091255188,-0.15943622589111328,0.14237293601036072,-0.30728164315223694,0.09852446615695953,0.1845749020576477,0.2490292489528656,0.04158290475606918
NCT06539676,-0.0027346492279320955,-0.13096824288368225,-0.055286575108766556,0.025013789534568787,-0.2144072949886322,-0.07488907873630524,-0.2761298418045044,-0.16708406805992126,-0.19473037123680115,0.07391102612018585,-0.16790442168712616,-0.08055476099252701,-0.07780220359563828,0.28310704231262207,-0.1698574721813202,0.05211179703474045,-0.006507076323032379,-0.06680187582969666,0.16809210181236267,0.283811092376709,-0.09584520012140274,0.013843854889273643,0.09040309488773346,-0.1583251655101776,-0.02227398194372654,-0.07493187487125397,-0.018196994438767433,-0.26070383191108704,-0.1416376531124115,0.09074930846691132,-0.020495736971497536,-0.07737559080123901,0.0939338207244873,-0.3211364150047302,-0.24189290404319763,-0.016521673649549484,0.14626935124397278,0.13699661195278168,-0.05521935224533081,-0.11900390684604645,0.047169581055641174,0.03596780449151993,0.0562690794467926,0.2506956458091736,-0.09331420063972473,-0.14983205497264862,-0.09605883061885834,-0.21362359821796417,0.039864398539066315,-0.24581262469291687,0.21620945632457733,0.30124205350875854,0.22876718640327454,-0.05194474384188652,0.040372032672166824,0.14363807439804077,-0.23546120524406433,0.061917729675769806,-0.041410937905311584,-0.18840542435646057,0.044273145496845245,-0.0007949083810672164,0.26361599564552307,0.2498704493045807,-0.10672584921121597,0.06328685581684113,0.025630056858062744,-0.29343241453170776,0.15857265889644623,-0.0025111183058470488,0.10666050761938095,0.06093169376254082,0.014268147759139538,0.11254586279392242,-0.10561849921941757,0.1140981912612915,0.11607666313648224,0.2255457639694214,0.0656249150633812,-0.021984482184052467,-0.26994481682777405,0.1700136959552765,0.04917588829994202,0.22671934962272644,0.2529371380805969,-0.16538836061954498,0.0867808386683464,-0.11443730443716049,0.17552292346954346,-0.09878061711788177,0.03440467268228531,-0.1424732357263565,0.1244225949048996,0.19055452942848206,-0.14609742164611816,0.11781954765319824,-0.039702363312244415,-0.12664362788200378,0.36578935384750366,-0.05357922241091728,-0.12980139255523682,-0.037614595144987106,-0.08319465070962906,-0.17251333594322205,-0.2236909121274948,-0.008772661909461021,-0.019768238067626953,0.05416880175471306,0.15495242178440094,0.014522915706038475,0.16499345004558563,0.3686710000038147,-0.010976356454193592,-0.059891313314437866,0.19788889586925507,0.13005709648132324,-0.016859641298651695,0.021206766366958618,-0.1421581357717514,0.10077621042728424,0.09812748432159424,-0.15227723121643066,-0.005267011933028698,-0.017089664936065674,0.32774055004119873,0.0953463539481163,0.06912674009799957,0.0104620810598135
NCT06524687,0.186532661318779,-0.11505004018545151,0.06369796395301819,-0.0937580093741417,-0.19638437032699585,0.05094371363520622,0.29128336906433105,0.014867827296257019,0.04687123000621796,0.13168016076087952,0.17126061022281647,-0.13479909300804138,0.06012612581253052,0.00709669291973114,-0.2841780483722687,0.08891105651855469,-0.09049062430858612,-0.039686694741249084,-0.007085911929607391,0.20942574739456177,0.2671372592449188,-0.04718570411205292,-0.2662279009819031,0.29509663581848145,0.01875690370798111,-0.02615831047296524,0.22360610961914062,-0.1962045580148697,-0.018216371536254883,-0.1980712115764618,0.17375589907169342,0.174022376537323,0.005567044019699097,0.13813325762748718,0.16685789823532104,-0.018728941679000854,-0.12998993694782257,0.06597750633955002,0.002825707197189331,-0.10966648906469345,-0.023871883749961853,-0.022452469915151596,-0.14245569705963135,0.11845096945762634,0.10475432127714157,0.1365717649459839,0.06027332693338394,0.07396425306797028,0.07748828828334808,-0.07937808334827423,0.037257712334394455,0.066123366355896,0.18421371281147003,-0.14770294725894928,-0.011294618248939514,-0.16582387685775757,0.01037423312664032,-0.02111733704805374,0.05209814012050629,-0.07233066111803055,0.25795039534568787,0.042844440788030624,-0.024489078670740128,0.20583608746528625,-0.21356739103794098,0.04146033897995949,0.1512140929698944,-0.12462528049945831,-0.1795765459537506,-0.14498531818389893,0.13067948818206787,-0.14670327305793762,-0.029920395463705063,-0.09657497704029083,-0.1938077211380005,0.24594607949256897,0.3112194538116455,0.09793969988822937,0.08838431537151337,0.047020234167575836,-0.028486430644989014,-0.019279800355434418,0.18813642859458923,-0.12824079394340515,-0.11820750683546066,-0.07678452134132385,-0.022713184356689453,-0.19508333504199982,0.036692820489406586,0.11311131715774536,0.297322154045105,-0.11572336405515671,0.2159007340669632,-0.11073143780231476,-0.1292089819908142,0.07499833405017853,-0.3252038359642029,-0.06865222752094269,-0.08144421875476837,-0.012389738112688065,0.12020206451416016,0.2562146782875061,-0.010900028049945831,-0.07407262921333313,-0.0908445417881012,0.027349136769771576,0.10665644705295563,-0.10985923558473587,0.05646941065788269,0.1762210726737976,-0.019870944321155548,0.1365855485200882,0.010804906487464905,0.0014478862285614014,-0.006089530885219574,0.20514799654483795,0.0018399953842163086,-0.19447264075279236,-0.034022118896245956,0.26147225499153137,-0.24258869886398315,-0.03682085871696472,0.0741015151143074,0.1430407017469406,0.06808342039585114,0.11928214132785797,0.18301917612552643,-0.1276209056377411
NCT06515418,0.07533320039510727,-0.005953118205070496,-0.12295810133218765,-0.02176901325583458,-0.06405437737703323,-0.11362303793430328,-0.05620041489601135,-0.08383290469646454,-0.15848764777183533,0.131574347615242,-0.10395252704620361,-0.324396550655365,-0.1473572850227356,0.007675918750464916,-0.33405226469039917,0.17212454974651337,0.12971726059913635,-0.024488870054483414,0.13567635416984558,0.1203007698059082,-0.02547823265194893,-0.06119132786989212,-0.19367249310016632,0.022191893309354782,-0.17898555099964142,0.035800136625766754,0.09827327728271484,-0.18286173045635223,-0.03204011172056198,-0.07359285652637482,-0.10835687071084976,-0.08567820489406586,0.09608608484268188,0.0015930905938148499,-0.12338852882385254,0.0023652254603803158,0.0854865089058876,0.09169324487447739,0.07263991981744766,-0.018018800765275955,-0.07335585355758667,0.2635660171508789,0.08533787727355957,0.2185625582933426,0.023368656635284424,-0.11561933904886246,-0.05438365787267685,-0.049863092601299286,0.0954170823097229,-0.1568726748228073,-0.10677573829889297,-0.0961172878742218,0.36106204986572266,-0.27128085494041443,-0.10204170644283295,0.08880411833524704,-0.15499413013458252,-0.09081892669200897,0.1736355721950531,-0.07804180681705475,0.09555797278881073,-0.035362616181373596,0.06234244257211685,0.09196514636278152,0.09576545655727386,0.07988698780536652,0.20979630947113037,-0.12038494646549225,-0.12802273035049438,0.11110971122980118,0.07817153632640839,-0.10418848693370819,-0.005669706966727972,0.011959502473473549,0.12235911190509796,0.1744024008512497,0.05523843690752983,0.2106049805879593,0.07430000603199005,-0.2700842022895813,-0.21121761202812195,0.14563578367233276,0.023045290261507034,-0.10435117781162262,0.16707441210746765,-0.07948968559503555,0.23243482410907745,-0.014654549770057201,0.15204831957817078,-0.004492937121540308,-0.097955621778965,-0.22493389248847961,0.04622476547956467,0.09015940129756927,-0.06262950599193573,-0.04583214968442917,-0.20309004187583923,-0.12965258955955505,0.16537804901599884,-0.23076562583446503,-0.024583490565419197,0.007696899585425854,-0.10285322368144989,-0.1323462426662445,0.08310160040855408,-0.019414033740758896,-0.18244509398937225,-0.12406457960605621,0.11559393256902695,-0.06788308918476105,0.16097389161586761,0.16585049033164978,0.05152890831232071,-0.008130225352942944,0.054640792310237885,0.09582541137933731,-0.07865356653928757,-0.035992495715618134,0.04655265063047409,0.22532662749290466,-0.0014906451106071472,-0.22798185050487518,0.009765133261680603,-0.13989198207855225,0.16676941514015198,0.20038878917694092,0.24009744822978973,-0.1848648339509964
NCT06501898,0.04085863381624222,-0.23447686433792114,0.10232522338628769,-0.18605095148086548,-0.26670706272125244,-0.0963020846247673,0.02886328287422657,-0.2062353640794754,-0.04550964757800102,0.34403619170188904,-0.12854889035224915,-0.12653355300426483,-0.007206878159195185,0.011556279845535755,-0.27603527903556824,0.19366921484470367,0.055214639753103256,-0.09166711568832397,-0.09424051642417908,0.21710605919361115,-0.11976338177919388,-0.05683695152401924,-0.08100787550210953,0.19825775921344757,-0.1268930733203888,-0.01141540240496397,0.10278213024139404,-0.3391236364841461,-0.09630373120307922,-0.026920845732092857,-0.036592502146959305,-0.020597122609615326,-0.002628972055390477,0.017929723486304283,0.08449206501245499,-0.33306652307510376,-0.008946959860622883,0.19121390581130981,0.046771835535764694,-0.031278494745492935,-0.2029847353696823,0.1158500537276268,0.16599905490875244,0.18790824711322784,0.1753382682800293,-0.10376396030187607,0.11437160521745682,-0.07570528984069824,0.1035681888461113,-0.18631373345851898,-0.03182801231741905,0.022804392501711845,0.4204028844833374,-0.16484303772449493,-0.28361305594444275,0.2524392604827881,-0.10487427562475204,0.1046641394495964,0.1535579413175583,-0.3433361351490021,0.11120405048131943,-0.030390838161110878,0.15607765316963196,0.05799565091729164,-0.09409251064062119,0.12613894045352936,0.23701320588588715,-0.23837538063526154,-0.29427406191825867,0.01735866256058216,0.14432887732982635,-0.10044439882040024,0.11335039138793945,-0.1746014803647995,0.0835193395614624,0.16028790175914764,0.05499374493956566,0.31850871443748474,0.13413579761981964,-0.22411994636058807,-0.1606770008802414,0.1907256841659546,0.32112541794776917,0.09733562916517258,0.00011635819828370586,0.0558539479970932,0.060538917779922485,0.13949640095233917,0.18282289803028107,0.10568370670080185,0.1078379675745964,-0.03810081258416176,0.20628993213176727,0.008627812378108501,-0.03599369525909424,0.12634138762950897,-0.10810166597366333,-0.08908051252365112,0.05661124363541603,-0.004134321119636297,0.12033271789550781,-0.003960827831178904,0.07552947849035263,-0.14541487395763397,-0.14594976603984833,0.015646934509277344,-0.3573969304561615,-0.1378546804189682,0.30092653632164,-0.00888036284595728,0.08355426788330078,0.2370843142271042,0.18747274577617645,0.2592307925224304,-0.09734603762626648,0.3594939708709717,-0.13228344917297363,-0.11168161779642105,-0.030376071110367775,-0.06071292236447334,0.017148833721876144,0.010460040532052517,-0.18105840682983398,-0.0007634783978573978,0.15022003650665283,0.1193554475903511,0.22590847313404083,-0.04051096364855766
NCT06463873,0.18617171049118042,-0.04401029646396637,0.02751769870519638,-0.01343701221048832,0.01942463219165802,-0.001844298094511032,-0.07912279665470123,0.11090391874313354,-0.2874007225036621,0.29544156789779663,-0.001308836042881012,-0.2429647147655487,-0.10614684224128723,-0.02720249816775322,-0.2003265917301178,0.23622186481952667,0.07818563282489777,-0.05085718631744385,0.07679429650306702,0.06451433151960373,-0.16538450121879578,-0.17890456318855286,0.006176292896270752,0.10294449329376221,-0.045129887759685516,0.13248461484909058,0.14981719851493835,-0.2373969852924347,-0.1259552240371704,-0.14333795011043549,0.14739865064620972,-0.13111552596092224,0.11056219041347504,0.234734445810318,-0.2319207489490509,-0.15261927247047424,0.21648013591766357,0.14082074165344238,0.11076352745294571,0.007105421274900436,-0.03636253625154495,0.04477604478597641,0.05606268718838692,0.43462425470352173,0.006118090823292732,-0.07031551748514175,0.01423812285065651,0.13243049383163452,0.10369320213794708,-0.1301003098487854,-0.012144502252340317,0.16746753454208374,0.3169231414794922,0.08934569358825684,-0.11248540133237839,0.15506954491138458,-0.3296501636505127,-0.1411663442850113,-0.062273621559143066,-0.14010828733444214,0.0838002935051918,0.07979318499565125,0.030399324372410774,0.20336879789829254,-0.07224970310926437,0.22358082234859467,0.29690587520599365,-0.007278911769390106,-0.11734235286712646,-0.1865362524986267,0.2056679129600525,-0.15980882942676544,-0.14211472868919373,-0.013937912881374359,0.3075927197933197,0.2523384094238281,0.23749595880508423,0.02070855349302292,0.41613614559173584,-0.134388267993927,-0.3893568515777588,-0.1891455054283142,0.24386058747768402,-0.12833832204341888,0.26224684715270996,-0.13535258173942566,0.2612723112106323,0.13176235556602478,0.06958611309528351,0.018436122685670853,-0.08167395740747452,-0.14026564359664917,0.06983049213886261,-0.06572546064853668,-0.06250125169754028,-0.08498817682266235,-0.32244592905044556,-0.09234295785427094,0.18650667369365692,-0.09421937167644501,-0.14280760288238525,0.30258050560951233,-0.10887084901332855,0.039173368364572525,0.11194005608558655,-0.2222798466682434,-0.07975035905838013,-0.0857258290052414,0.26359087228775024,0.17862626910209656,0.14906425774097443,0.3392258286476135,-0.05963939055800438,0.07330009341239929,-0.12000839412212372,0.08248161524534225,-0.2885318994522095,-0.129624143242836,-0.1456812620162964,0.058038413524627686,-0.05522363632917404,-0.20509415864944458,0.0739734023809433,-0.38436537981033325,0.0530250146985054,-0.0021287165582180023,0.21615731716156006,-0.11570935696363449
NCT06462820,0.030233552679419518,-0.11334148794412613,-0.024343684315681458,-0.1928981989622116,-0.2779461145401001,-0.19392436742782593,-0.07099156826734543,-0.10554736852645874,-0.11881355196237564,0.049733761698007584,0.044888824224472046,0.005994677543640137,-0.0027160148601979017,0.049743056297302246,-0.4701327383518219,0.09693289548158646,0.09355273097753525,0.042017143219709396,0.07458918541669846,0.27839574217796326,-0.03659612312912941,0.12156859785318375,-0.20752985775470734,-0.06342082470655441,0.03717261552810669,-0.06216825917363167,0.1150841936469078,-0.2629919648170471,-0.12165317684412003,-0.12276758998632431,-0.14485006034374237,-0.04674650356173515,0.16426649689674377,-0.01316350419074297,-0.07041267305612564,-0.057648975402116776,0.16229459643363953,0.18845981359481812,0.13380372524261475,-0.10675600916147232,0.04036107286810875,0.21594475209712982,0.01656617410480976,0.172688290476799,-0.09820747375488281,-0.07744834572076797,-0.2776443362236023,-0.005819477140903473,0.20912782847881317,-0.408550500869751,0.03230202570557594,0.10942024737596512,0.3446385860443115,-0.24922071397304535,-0.1254402995109558,-0.03331455588340759,-0.1644449532032013,-0.09145611524581909,0.13137201964855194,-0.1455778330564499,0.32778602838516235,0.08038299530744553,0.1514916867017746,0.2468477487564087,0.042997878044843674,0.15404324233531952,0.2510470449924469,-0.23808099329471588,-0.08700338751077652,0.08461258560419083,0.0799412801861763,0.06514391303062439,0.06373710185289383,-0.054890137165784836,0.033513281494379044,0.11895357817411423,0.2926064729690552,0.2670047879219055,-0.008318126201629639,-0.23751668632030487,-0.17411577701568604,0.06716280430555344,0.0884157046675682,0.15208707749843597,0.046588826924562454,-0.15493816137313843,-0.015829473733901978,0.07239814847707748,0.38192984461784363,-0.23912279307842255,0.019076799973845482,-0.2939492464065552,0.24997162818908691,0.07162276655435562,-0.15474656224250793,-0.04563531652092934,-0.2134915143251419,-0.15782074630260468,0.27604106068611145,-0.1085105836391449,0.02959856577217579,0.01887105219066143,-0.01049890648573637,-0.12801867723464966,-0.013449002988636494,0.0018072252860292792,-0.04707495868206024,-0.08707689493894577,0.0845053493976593,-0.2512514889240265,0.02725314162671566,0.263663649559021,0.03920472785830498,-0.0706140473484993,0.11755857616662979,0.2555036246776581,-0.03438795730471611,-0.11825483292341232,0.044047486037015915,-0.02988518215715885,-0.038564566522836685,-0.43469908833503723,-0.024638371542096138,-0.10258860141038895,0.3164323568344116,0.22330178320407867,0.39461758732795715,-0.17033706605434418
NCT06450522,0.24432402849197388,-0.1419149935245514,-0.17935283482074738,-0.07603839784860611,-0.18771333992481232,-0.144345223903656,-0.13846257328987122,-0.22174310684204102,-0.12241252511739731,0.09149909764528275,0.04558034613728523,-0.1746736764907837,0.05964934825897217,0.0812188908457756,-0.2628764808177948,0.03455180302262306,-0.012428928166627884,-0.014281329698860645,-0.03458133712410927,0.16863803565502167,-0.07509120553731918,0.035473499447107315,-0.1613049954175949,-0.05185341835021973,-0.00414874916896224,0.012712590396404266,0.07349255681037903,-0.3493100702762604,-0.024902865290641785,-0.14696449041366577,-0.16591638326644897,-0.158949077129364,0.09225711971521378,0.17608505487442017,-0.1908823698759079,-0.3390995264053345,0.19356928765773773,0.22433538734912872,-0.004772251006215811,-0.14547491073608398,-0.12559689581394196,0.09369846433401108,0.13255348801612854,0.12393657118082047,0.1145012378692627,-0.1376146674156189,-0.047015558928251266,-0.02029954455792904,0.17232175171375275,-0.09597793966531754,-0.02998233400285244,0.18748390674591064,0.35310158133506775,-0.019994191825389862,-0.13206730782985687,0.09075229614973068,-0.12534190714359283,-0.06737447530031204,0.1610943078994751,-0.2090219259262085,0.29232996702194214,0.0210768710821867,0.1280357986688614,0.2950940728187561,0.019968494772911072,0.05749383568763733,0.17247921228408813,-0.14953184127807617,-0.1113375797867775,-0.05592964217066765,-0.009170937351882458,0.09783899784088135,-0.04278799518942833,-0.17724306881427765,0.16203422844409943,0.24329781532287598,0.16545097529888153,0.32255125045776367,0.1662086844444275,-0.25546538829803467,-0.3067004382610321,0.016533127054572105,0.20533818006515503,-0.1166173592209816,0.17754310369491577,-0.03493889793753624,0.2846846282482147,-0.10726219415664673,0.3448512554168701,0.0682709589600563,0.12062940746545792,-0.0818796381354332,0.0732143297791481,0.10033005475997925,-0.12413126975297928,-0.006170918699353933,-0.039108455181121826,0.09007266908884048,0.14273329079151154,-0.020275315269827843,0.050665874034166336,0.06194205582141876,-0.12703804671764374,-0.06445296108722687,0.0019243856659159064,0.07795991748571396,-0.1498757153749466,-0.20169591903686523,0.173430398106575,-0.15830855071544647,0.0671420618891716,0.17824356257915497,0.1508025974035263,0.13329260051250458,0.1473812609910965,0.22176861763000488,-0.13463062047958374,-0.11013951152563095,-0.1572774201631546,0.08182486891746521,0.015002054162323475,-0.24692384898662567,0.16431893408298492,-0.1487671285867691,0.217611625790596,-0.046810757368803024,0.14846551418304443,-0.15565724670886993
NCT06445127,0.20210319757461548,0.08549275249242783,0.024996869266033173,0.1492157131433487,-0.09437673538923264,-0.08667542040348053,-0.022059904411435127,0.033895619213581085,-0.17148104310035706,0.33551838994026184,0.09892600774765015,-0.12487395107746124,0.10883025079965591,0.13657501339912415,-0.24418407678604126,0.12811124324798584,0.120181605219841,0.014219526201486588,-0.08609388023614883,0.04136834293603897,-0.3104800283908844,-0.10716738551855087,-0.15552905201911926,0.07378875464200974,-0.06011039763689041,0.07289577275514603,0.28352776169776917,-0.21781769394874573,-0.06871382147073746,-0.014635510742664337,0.1337391585111618,-0.1789032518863678,0.040073126554489136,0.15076160430908203,0.03771905228495598,-0.08740486949682236,0.17725586891174316,0.11365675181150436,0.048662617802619934,-0.19100037217140198,-0.029065890237689018,0.23229603469371796,0.08349783718585968,0.3000062108039856,0.1234690472483635,-0.12883153557777405,-0.00944136455655098,0.15310616791248322,-0.0451180674135685,-0.2508666515350342,0.10615023970603943,-0.02578601986169815,0.31061065196990967,0.10567237436771393,-0.11823466420173645,0.23072440922260284,-0.2323601245880127,-0.13522714376449585,-0.10007014870643616,-0.066378653049469,0.13989722728729248,-0.031262390315532684,-0.058891188353300095,0.2298666387796402,-0.002608915790915489,0.06290030479431152,0.3374845087528229,-0.1058022528886795,-0.23937614262104034,-0.09531833976507187,-0.020649954676628113,-0.13160914182662964,-0.15761694312095642,-0.02624882385134697,0.151699036359787,0.31237849593162537,0.27707183361053467,0.1462973654270172,0.2293088138103485,-0.12175459414720535,-0.1229914128780365,-0.1891021430492401,0.06916302442550659,-0.08837196975946426,-0.08654910326004028,0.0052954405546188354,0.2215607762336731,0.06627549976110458,0.1391209363937378,0.0800018459558487,0.07389593124389648,-0.12233032286167145,0.16854114830493927,0.10374577343463898,-0.1727568805217743,-0.14183199405670166,-0.13013964891433716,-0.14490191638469696,0.019699130207300186,-0.0873754471540451,-0.14043402671813965,0.10024845600128174,-0.05141087993979454,-0.07362847775220871,0.05218922346830368,-0.12373295426368713,-0.12021634727716446,-0.11361511051654816,0.267922967672348,0.030120596289634705,0.09603960812091827,0.283272385597229,0.050535112619400024,0.009985743090510368,0.0030952319502830505,0.17492935061454773,-0.1531650871038437,-0.2785104215145111,-0.05056885629892349,-0.15805697441101074,-0.038852885365486145,-0.22358477115631104,-0.055224768817424774,-0.21065914630889893,0.1508592665195465,0.11351531744003296,0.08795369416475296,0.09151431918144226
NCT06442384,0.04925433546304703,-0.09023486077785492,-0.2139454185962677,-0.08712808787822723,-0.11520957946777344,-0.43533194065093994,-0.2227158546447754,-0.25281137228012085,-0.04857944697141647,-0.0794687494635582,-0.31351035833358765,-0.37278252840042114,-0.31388533115386963,0.15466061234474182,-0.1380532681941986,0.22694505751132965,0.04388648644089699,0.07479921728372574,0.05212356522679329,0.25244030356407166,0.009018085896968842,0.07839853316545486,-0.20404163002967834,-0.03659670054912567,-0.041590943932533264,-0.04113420844078064,0.04365577548742294,-0.1687198430299759,-0.12143854051828384,0.04543645679950714,-0.04137153550982475,-0.15648338198661804,0.27430763840675354,-0.02852683700621128,-0.016136854887008667,0.015498369932174683,0.07105101644992828,0.255420446395874,-0.11373153328895569,0.21675540506839752,-0.24462363123893738,0.1382429003715515,0.027711063623428345,0.2040015012025833,0.22954349219799042,-0.012805864214897156,-0.1935189664363861,-0.034333787858486176,0.011094637215137482,-0.29510974884033203,-0.08859651535749435,0.1341501772403717,0.2801906168460846,-0.20372948050498962,-0.1869155913591385,0.1721331775188446,-0.15426170825958252,-0.2068105936050415,0.4434376060962677,-0.43661054968833923,0.17717568576335907,0.10159376263618469,0.10171573609113693,-0.04765423387289047,0.17333298921585083,0.03215665742754936,0.20510563254356384,-0.08182284235954285,-0.09273350238800049,0.22721722722053528,0.07451596111059189,-0.03055533766746521,0.07747425884008408,-0.17590045928955078,0.12428829818964005,0.1832270324230194,-0.16529017686843872,0.21543490886688232,-0.008610149845480919,-0.23305660486221313,-0.1674818992614746,0.12001621723175049,-0.05098618566989899,0.15041077136993408,0.10670769214630127,-0.19006848335266113,0.23096446692943573,-0.06176552549004555,0.3212510645389557,-0.22563353180885315,0.14089463651180267,-0.15616732835769653,0.04558595269918442,0.06252656877040863,-0.15568917989730835,-0.04771178215742111,-0.1749485731124878,-0.16798469424247742,0.12789548933506012,-0.053129587322473526,0.046117596328258514,-0.019148901104927063,-0.00987761840224266,-0.22389574348926544,0.15320998430252075,-0.1481715887784958,-0.11307625472545624,-0.1062409058213234,0.03720502555370331,-0.12295976281166077,0.04413709416985512,0.21300776302814484,-0.11716535687446594,0.13639923930168152,0.28510844707489014,0.34273940324783325,-0.0436101034283638,-0.14269961416721344,0.1167335957288742,0.15014159679412842,-0.03171860799193382,-0.303554892539978,0.09511283040046692,0.06909289211034775,0.3156665563583374,0.30656635761260986,0.27725836634635925,-0.1456519067287445
NCT06419855,0.2317953109741211,-0.06679249554872513,0.002114592818543315,0.21806347370147705,-0.08964360505342484,0.043521229177713394,-0.1358698457479477,0.09611880779266357,-0.2378637045621872,0.14050541818141937,-0.05079161003232002,-0.029352739453315735,-0.045505914837121964,0.1910538673400879,-0.25442907214164734,0.18362152576446533,-0.06744609028100967,-0.049165647476911545,0.19882716238498688,0.30056771636009216,-0.19943386316299438,-0.10891401022672653,-0.13283799588680267,-0.12755444645881653,-0.12255332618951797,-0.08003001660108566,0.1586621254682541,-0.1803404539823532,-0.060980916023254395,-0.052630212157964706,0.12611490488052368,-0.039617590606212616,-0.030451452359557152,-0.13829554617404938,-0.22318993508815765,-0.1289643496274948,0.10469021648168564,0.14928419888019562,-0.09109234064817429,-0.21475808322429657,-0.08615749329328537,0.019085951149463654,-0.035797473043203354,0.19769799709320068,0.0928129330277443,-0.11852765828371048,0.09058209508657455,0.020529186353087425,0.10534577816724777,-0.25890281796455383,0.2554788291454315,0.006726501043885946,0.19729328155517578,0.01733299158513546,-0.00021893779921811074,0.04044080898165703,-0.30704230070114136,-0.04089326411485672,-0.163533017039299,-0.10179558396339417,0.17261475324630737,0.11928323656320572,0.14301128685474396,0.18752193450927734,-0.12621644139289856,0.0895870104432106,0.28360292315483093,-0.3652363717556,0.05267513170838356,-0.10193151980638504,0.025257401168346405,-0.1980205774307251,-0.07215199619531631,-0.0453626811504364,-0.11714553087949753,0.23956298828125,0.23931901156902313,0.0713709220290184,0.06403139233589172,0.012665442191064358,-0.3034825623035431,0.07145998626947403,0.18679921329021454,0.07862908393144608,0.03132641315460205,-0.05761716887354851,0.015845010057091713,-0.042545873671770096,0.06978786736726761,-0.010130180977284908,0.255106121301651,-0.28527238965034485,0.10095736384391785,0.07984095811843872,-0.27135375142097473,0.0065751452930271626,-0.1926475316286087,-0.10085102915763855,0.11359777301549911,0.02138359844684601,-0.1363278180360794,0.3135295808315277,-0.1637287586927414,-0.04186360538005829,-0.09146500378847122,-0.18513323366641998,-0.09015647321939468,0.10049612075090408,0.20034746825695038,0.2582433223724365,0.22254729270935059,0.31905120611190796,-0.12733638286590576,0.0006518301670439541,0.07335269451141357,0.126606747508049,-0.15896075963974,-0.05325547978281975,-0.13202328979969025,0.03923996910452843,-0.08619595319032669,-0.071980319917202,0.06233476474881172,-0.13852058351039886,0.16291572153568268,0.04696765914559364,0.07350009679794312,0.18615014851093292
NCT06415968,0.12302917242050171,-0.03463337570428848,0.12389256060123444,0.13221561908721924,-0.12851732969284058,-0.0973949059844017,0.2042161524295807,-0.05095536261796951,-0.10990193486213684,0.14263030886650085,-0.033698540180921555,-0.03066415712237358,0.027469908818602562,0.09031461179256439,-0.25588691234588623,0.007659783586859703,0.06481146067380905,0.1779647320508957,0.015480320900678635,0.0016282573342323303,-0.014620872214436531,-0.29901522397994995,-0.02163197658956051,-0.03058660216629505,-0.17523974180221558,-0.2944749593734741,0.28428712487220764,-0.22278913855552673,0.04591825604438782,-0.061285387724637985,0.18933340907096863,-0.12575669586658478,0.17734818160533905,0.06532660126686096,0.03443610668182373,0.15014666318893433,0.20091216266155243,0.1442980021238327,-0.11629464477300644,-0.14947205781936646,-0.11296814680099487,0.029806289821863174,-0.028821589425206184,0.05804966390132904,0.13162541389465332,-0.11958027631044388,-0.09896358847618103,0.038333870470523834,0.1933186650276184,-0.3153320550918579,-0.06022383272647858,0.021647758781909943,0.05992495268583298,-0.1082097589969635,-0.03666014224290848,0.28808677196502686,-0.17536672949790955,0.04228741675615311,0.2325015366077423,-0.010137563571333885,0.14727136492729187,0.13377177715301514,0.23689818382263184,0.05112050846219063,-0.018290963023900986,0.03890537470579147,0.18659701943397522,-0.29192763566970825,-0.10607784986495972,-0.13731275498867035,0.11213769018650055,-0.19975632429122925,-0.1511206477880478,-0.29007938504219055,0.12727618217468262,0.2528209090232849,0.24133022129535675,0.09069430828094482,0.15348631143569946,-0.12379439920186996,-0.17102724313735962,-0.15909145772457123,-0.0787028968334198,0.0010341964662075043,-0.03793880343437195,0.06072137877345085,0.15096266567707062,-0.02234872430562973,0.2862001657485962,0.17001135647296906,0.2815156579017639,-0.17038848996162415,0.06440138071775436,-0.21683239936828613,-0.3390582203865051,-0.032883573323488235,-0.3286578953266144,0.14194737374782562,-0.057692211121320724,0.014381172135472298,-0.0702764019370079,0.1233108788728714,-0.10154330730438232,-0.0012612305581569672,0.19430360198020935,0.02582901529967785,-0.17931920289993286,-0.07893791049718857,0.20514318346977234,-0.25792932510375977,-0.0006815046072006226,0.25088784098625183,0.048124589025974274,0.22895416617393494,0.018775440752506256,0.32695668935775757,0.09408970922231674,-0.2945604920387268,0.15835100412368774,0.033045269548892975,-0.2061198204755783,-0.22788187861442566,0.20790022611618042,-0.3359268009662628,0.11421823501586914,0.13647660613059998,0.05406039208173752,0.022121265530586243
NCT06412939,0.13755005598068237,-0.03096134029328823,-0.15394707024097443,0.009048138745129108,-0.09609688073396683,-0.03728250041604042,-0.2804211676120758,-0.1666690856218338,-0.2587575912475586,0.15529002249240875,-0.10696599632501602,0.03426249697804451,-0.05135118588805199,0.09233745187520981,-0.11505856364965439,0.16848017275333405,-0.09911362081766129,0.056542664766311646,0.1486501842737198,0.17926709353923798,-0.15950067341327667,-0.10807237774133682,0.0019000718602910638,-0.31288614869117737,-0.0586523711681366,-0.13744568824768066,0.1452486217021942,-0.3019581437110901,-0.09665771573781967,-0.002089346991851926,0.042863279581069946,-0.023966148495674133,0.10572823137044907,-0.00342762959189713,-0.26646697521209717,-0.13508139550685883,0.28168612718582153,0.10970517247915268,0.01004861295223236,-0.22395659983158112,0.040593065321445465,-0.04052922502160072,0.030946793034672737,0.2774481475353241,-0.06468621641397476,-0.1626126617193222,-0.03623011335730553,0.10591482371091843,0.24738311767578125,-0.43108823895454407,0.20867948234081268,0.12950898706912994,0.2935281991958618,-0.04875485599040985,0.03895050659775734,0.1858559101819992,-0.24798381328582764,0.0013296654215082526,-0.004144549369812012,-0.11802757531404495,0.19275672733783722,0.12823133170604706,0.29661813378334045,0.1921088844537735,-0.08744081109762192,0.010190688073635101,0.16193318367004395,-0.3334557116031647,0.08117982745170593,-0.18723581731319427,-0.009896345436573029,-0.13257402181625366,0.025234147906303406,0.06751742213964462,0.00917817186564207,0.22469502687454224,0.2747631072998047,0.19219465553760529,0.03939400613307953,-0.24638645350933075,-0.29728156328201294,-0.04617995023727417,0.13680551946163177,0.23424674570560455,0.3281000852584839,-0.24460799992084503,0.09067412465810776,0.019344264641404152,0.13824832439422607,-0.0663677230477333,0.2895422875881195,-0.2851461172103882,-0.025363778695464134,0.032621826976537704,-0.22531628608703613,-0.05545542761683464,-0.22764460742473602,-0.12839369475841522,0.31368955969810486,-0.0027774646878242493,-0.10404372215270996,0.096969835460186,-0.20879387855529785,-0.04273929074406624,0.018860191106796265,-0.2296808362007141,-0.03478285297751427,-0.028989503160119057,0.03259734436869621,0.0934518575668335,0.07924842834472656,0.30164894461631775,-0.08726078271865845,-0.03906569629907608,-0.07972869277000427,0.13948391377925873,-0.03473673760890961,0.021147646009922028,-0.11927485466003418,-0.1497167944908142,0.06325069069862366,-0.2002924680709839,0.0008890268509276211,-0.26637014746665955,0.11851602047681808,0.16031062602996826,0.0067773014307022095,0.047154854983091354
NCT06412913,0.12182506173849106,-0.06529366970062256,-0.12510259449481964,0.07490375638008118,-0.19983676075935364,-0.011512383818626404,-0.3160298466682434,-0.2652342915534973,-0.24883630871772766,0.2051067054271698,-0.026194341480731964,0.1744394302368164,0.0330066978931427,0.05454469472169876,-0.03899514675140381,0.2552674114704132,-0.13414640724658966,0.0008658021688461304,0.11107984930276871,0.2680472433567047,-0.3044812083244324,-0.1796298623085022,-0.1485772728919983,-0.3686506152153015,-0.036661066114902496,-0.1216726303100586,0.2470046430826187,-0.2417954057455063,-0.10006790608167648,0.03180838003754616,0.08651607483625412,-0.010272480547428131,-0.0730924904346466,-0.0639038234949112,-0.24516788125038147,-0.35053133964538574,0.29177308082580566,0.18143115937709808,-0.16938287019729614,-0.37632226943969727,-0.1819401979446411,-0.12340374290943146,0.04786326736211777,0.18636487424373627,0.03965228423476219,-0.22360463440418243,0.042840391397476196,0.05616956949234009,0.18187326192855835,-0.45342734456062317,0.2717176675796509,-0.002755153924226761,0.392795205116272,-0.11507189273834229,0.0783587172627449,0.06515440344810486,-0.16266776621341705,0.011868704110383987,-0.17441020905971527,-0.14071080088615417,0.139356330037117,0.1653870791196823,0.23798245191574097,0.21468687057495117,-0.16696050763130188,0.01731603592634201,0.04894346371293068,-0.38081252574920654,0.04119890183210373,-0.26660120487213135,-0.05218324810266495,-0.1687411665916443,-0.019351443275809288,0.06276337802410126,-0.04779869318008423,0.18617792427539825,0.1983693540096283,0.16755792498588562,-0.04958909749984741,-0.25199803709983826,-0.3619498610496521,0.07353151589632034,0.24680519104003906,0.15731875598430634,0.1940010040998459,-0.2451174557209015,-0.07431104779243469,0.05353390425443649,0.050719279795885086,-0.08567679673433304,0.5172834396362305,-0.3617013096809387,0.012465465813875198,0.1395902782678604,-0.2883959114551544,0.022660642862319946,-0.15384459495544434,-0.0672694742679596,0.23394130170345306,0.05184904485940933,-0.11427835375070572,0.10308859497308731,-0.1747436821460724,-0.023566775023937225,0.011371683329343796,-0.26263654232025146,-0.1748976707458496,0.01775028184056282,0.048621755093336105,0.211319699883461,0.04650682210922241,0.2651950716972351,-0.0497468076646328,-0.04628507047891617,-0.12531575560569763,0.05399438738822937,-0.08359478414058685,0.11043936759233475,-0.22691971063613892,-0.17279133200645447,0.10723857581615448,-0.19201020896434784,0.03831963241100311,-0.10494282841682434,0.07967866957187653,0.10989516228437424,-0.11756880581378937,0.19260212779045105
NCT06408350,0.270368367433548,-0.13951554894447327,0.11848384141921997,-0.09267838299274445,-0.20460975170135498,-0.10977119207382202,-0.02688780426979065,-0.06851406395435333,-0.17041179537773132,0.2054670751094818,0.07632554322481155,-0.04157804325222969,0.025098348036408424,0.04080440476536751,-0.36812031269073486,0.14530624449253082,0.13189797103405,0.003099304623901844,-0.032029978930950165,0.1744212806224823,-0.03955448418855667,0.023332936689257622,-0.15321579575538635,0.07972273230552673,-0.04523584991693497,-0.056485872715711594,0.03686629235744476,-0.2039959728717804,-0.0020657507702708244,-0.12601734697818756,0.04116295650601387,-0.026584045961499214,0.09935159981250763,0.03781237453222275,0.038738153874874115,-0.20676738023757935,0.1537235975265503,0.18235856294631958,0.1660636067390442,-0.13792744278907776,-0.09913512319326401,0.1286424696445465,0.11040587723255157,0.13823093473911285,0.07184182107448578,-0.09675082564353943,-0.12837694585323334,0.0007237158715724945,0.16807368397712708,-0.2851712703704834,-0.016841432079672813,0.062146395444869995,0.43736469745635986,-0.02936597913503647,-0.098289355635643,0.2216392159461975,-0.19109217822551727,-0.04525003582239151,0.2815582752227783,-0.12779614329338074,0.2939857840538025,0.11334985494613647,0.10967325419187546,0.3192405104637146,-0.042152974754571915,0.09338103234767914,0.245077446103096,-0.34185928106307983,-0.1581076979637146,-0.14526258409023285,0.06755293160676956,0.05260855332016945,-0.0892324224114418,-0.10497860610485077,-0.025026846677064896,0.30831849575042725,0.2633134126663208,0.1321481317281723,0.17997165024280548,-0.19976988434791565,-0.2031627595424652,0.018828134983778,0.15203537046909332,-0.023081092163920403,0.031156539916992188,-0.10181520879268646,0.2346981316804886,-0.10234519839286804,0.2800760865211487,-0.009345760568976402,0.098910853266716,-0.08642378449440002,0.16303057968616486,-0.06660779565572739,-0.2241286039352417,-0.10058528184890747,-0.19377656280994415,-0.08366544544696808,0.19471368193626404,-0.011341446079313755,0.034204937517642975,0.17313256859779358,0.018299315124750137,-0.14357364177703857,-0.06923963129520416,-0.043386854231357574,-0.20594900846481323,-0.11465119570493698,0.18243306875228882,0.04137040302157402,0.09318490326404572,0.24268150329589844,0.011975605972111225,0.11626064032316208,0.028702616691589355,0.3232157826423645,-0.06495894491672516,-0.3013468384742737,0.05880919098854065,0.04506562277674675,-0.06766809523105621,-0.3211587965488434,0.06220494583249092,-0.16685326397418976,0.17999181151390076,0.16086235642433167,0.2600901126861572,-0.11891719698905945
NCT06407973,0.10484819859266281,-0.046713799238204956,-0.240731880068779,0.13703635334968567,-0.269228458404541,-0.004094442818313837,-0.06147850677371025,-0.1301441788673401,-0.26519548892974854,0.16624458134174347,-0.0299247894436121,-0.21980102360248566,-0.019682511687278748,0.14911004900932312,-0.2783668339252472,-0.059696853160858154,-0.008269309997558594,0.0728100836277008,0.1524134874343872,0.17261911928653717,-0.15341150760650635,-0.1642577201128006,-0.013016660697758198,-0.20270144939422607,-0.07151032239198685,-0.12403281778097153,0.0893227830529213,-0.23548126220703125,-0.21558469533920288,-0.09265986829996109,0.007952272891998291,-0.1500355452299118,0.0801362469792366,-0.1228136420249939,-0.22270987927913666,-0.09704232215881348,0.08076906949281693,0.05555133894085884,0.0714833214879036,-0.11231359839439392,0.19142098724842072,0.16016964614391327,0.06155674159526825,0.3574427664279938,-0.03782837465405464,-0.10548854619264603,-0.10360623151063919,-0.11347683519124985,0.3233272135257721,-0.2684427797794342,0.24243350327014923,0.1267835646867752,0.06974363327026367,-0.13281263411045074,0.10135266929864883,0.17170508205890656,-0.2312525510787964,-0.058187324553728104,-0.20981615781784058,-0.16687138378620148,0.25349846482276917,-0.13263732194900513,0.32417556643486023,0.23810498416423798,-0.08958981186151505,0.028288334608078003,0.26488959789276123,-0.2976821959018707,0.11419857293367386,0.027558721601963043,0.03739653900265694,-0.06904535740613937,0.08638940006494522,0.06390397995710373,-0.05534457787871361,0.16104988753795624,0.28876012563705444,0.3006446659564972,0.05514194071292877,-0.1320430189371109,-0.2824075222015381,0.10570838302373886,0.1000700369477272,-0.01457961369305849,0.13346333801746368,0.032098621129989624,-0.06711544841527939,0.026588281616568565,0.16806237399578094,0.08182352036237717,0.061422716826200485,-0.3134618401527405,0.11954549700021744,0.15061311423778534,-0.06027882173657417,-0.0006174805457703769,-0.07938842475414276,-0.13760317862033844,0.11140167713165283,-0.040236398577690125,-0.23657739162445068,-0.17655234038829803,-0.03880083188414574,-0.27120622992515564,-0.22129285335540771,-0.10877450555562973,-0.08886339515447617,0.07054271548986435,0.3315744698047638,-0.07886966317892075,0.19175827503204346,0.25632748007774353,0.05364982411265373,-0.19987674057483673,0.2397640496492386,0.0894937515258789,-0.2782759964466095,-0.07538146525621414,-0.24490384757518768,-0.13180242478847504,0.020313287153840065,-0.22101730108261108,0.03329573571681976,-0.21061129868030548,0.37523946166038513,0.2319449633359909,0.020997367799282074,0.07061537355184555
NCT06390241,0.29259541630744934,0.09880438446998596,-0.07967422902584076,0.1994587928056717,-0.2216106653213501,-0.0967259630560875,-0.03301839530467987,0.03576155751943588,-0.09556911885738373,0.23357538878917694,-0.17898890376091003,-0.08786790072917938,-0.18637636303901672,0.007823263294994831,-0.09402478486299515,0.10166765749454498,-0.21825997531414032,0.05271470546722412,-0.024510614573955536,0.25575438141822815,-0.18606284260749817,-0.1276780068874359,0.04840382933616638,-0.2597680389881134,-0.21928149461746216,-0.13384360074996948,-0.016947612166404724,-0.08086907118558884,-0.00853646732866764,0.02625725232064724,-0.0905570313334465,-0.13057848811149597,0.15824909508228302,0.038040515035390854,-0.23354190587997437,-0.08409788459539413,0.3886193335056305,0.11788737773895264,0.08912548422813416,0.04162498936057091,-0.19765280187129974,0.13353638350963593,0.06572814285755157,0.26498448848724365,0.254557341337204,-0.25275036692619324,-0.14490410685539246,0.040717754513025284,0.26323699951171875,-0.44128113985061646,0.03786110877990723,-0.1886952519416809,0.19545984268188477,-0.09050861746072769,-0.14149627089500427,0.24301698803901672,-0.26791995763778687,-0.11700043827295303,0.16437064111232758,-0.3197529911994934,0.28884750604629517,0.1245531290769577,0.1479468047618866,-0.05064990371465683,0.18992508947849274,0.05544883757829666,0.36776217818260193,-0.05871597304940224,-0.08622308075428009,0.05998644232749939,-0.09679186344146729,-0.0857299268245697,0.06618373095989227,-0.3235423266887665,0.13227404654026031,0.10896891355514526,0.034525055438280106,0.06134549528360367,0.02759261429309845,-0.27964019775390625,-0.30575114488601685,-0.02200344204902649,0.026934318244457245,0.03923061490058899,0.01657414808869362,-0.03225409612059593,0.19180873036384583,0.28415802121162415,0.18771882355213165,-0.09321731328964233,0.19449597597122192,-0.23416069149971008,-0.16381460428237915,0.2662217319011688,-0.2132507562637329,-0.018985982984304428,-0.22408553957939148,0.025233156979084015,0.12782327830791473,-0.007133670151233673,-0.06983906030654907,0.26818203926086426,-0.11623869836330414,-0.12481522560119629,0.03919137641787529,-0.12398914992809296,-0.24128419160842896,0.07385675609111786,0.17548981308937073,0.06591228395700455,-0.06985001266002655,0.24906682968139648,-0.14155682921409607,-0.03354436904191971,-0.11842535436153412,0.234730526804924,-0.17163394391536713,-0.04938371479511261,-3.490224480628967e-05,-0.10795613378286362,0.010560311377048492,-0.27624520659446716,0.10213136672973633,-0.2993486523628235,0.0008291322737932205,0.0009150393307209015,0.1112598180770874,0.1419573426246643
NCT06375629,0.21518144011497498,-0.08822449296712875,-0.17345163226127625,-0.04687017574906349,-0.2544364929199219,-0.2002200186252594,0.020447291433811188,-0.1714676171541214,-0.1855475902557373,0.20988374948501587,0.030277874320745468,-0.10219597816467285,0.009086770936846733,0.07744015008211136,-0.18583454191684723,0.06365913152694702,-0.03177284449338913,0.16453956067562103,0.06065976619720459,0.32446715235710144,-0.2915186583995819,-0.1407112032175064,-0.14188534021377563,-0.13261324167251587,-0.08401813358068466,-0.21523866057395935,0.22203266620635986,-0.23203879594802856,-0.1298757642507553,-0.021772217005491257,-0.07722145318984985,-0.008636899292469025,0.09311030060052872,0.20125263929367065,-0.19202160835266113,-0.031511612236499786,0.17392507195472717,0.11931844800710678,0.06792332977056503,-0.11042989790439606,-0.02073386311531067,0.15380853414535522,-0.09084287285804749,0.3952944278717041,0.0007648319005966187,-0.2725391983985901,-0.1842391937971115,-0.0017461180686950684,0.36951911449432373,-0.29019930958747864,0.09988805651664734,0.13066594302654266,0.3555467128753662,-0.09026578813791275,-0.1261865794658661,0.13897301256656647,-0.17854472994804382,-0.1130840927362442,0.24902616441249847,-0.11030787229537964,0.3753066956996918,0.030727805569767952,0.19937622547149658,0.2315586507320404,0.02189013734459877,0.09758622199296951,0.2210889309644699,-0.1360020786523819,-0.047243669629096985,-0.07202759385108948,0.06424479186534882,0.007116813212633133,-0.048260822892189026,-0.12397032976150513,0.10670414566993713,0.23325777053833008,0.22750738263130188,0.29238539934158325,0.08720497786998749,-0.29682064056396484,-0.3490399718284607,0.03874170035123825,0.09855995327234268,0.021013110876083374,0.27061891555786133,-0.12684641778469086,0.06912204623222351,0.08811479806900024,0.3485150933265686,-0.15242509543895721,0.15292687714099884,-0.286773145198822,0.2017236351966858,0.08537263423204422,-0.06928066164255142,0.03966384381055832,-0.2137027382850647,0.07963383197784424,0.27657362818717957,-0.08862808346748352,-0.10177265852689743,0.01810167357325554,-0.10766477137804031,-0.17842236161231995,0.03443377465009689,-0.04638953134417534,-0.06512012332677841,0.06435876339673996,0.20670384168624878,-0.18962517380714417,0.02458326146006584,0.17094679176807404,-0.1099478080868721,-0.13254280388355255,0.23768454790115356,0.08996675163507462,-0.12546440958976746,-0.23448704183101654,-0.05552903190255165,0.09538213163614273,-0.03241109475493431,-0.5144800543785095,0.24290189146995544,-0.2780284285545349,0.2510696351528168,0.1781257688999176,0.13875675201416016,0.023333705961704254
NCT06357663,0.05693979561328888,-0.249562606215477,0.16324453055858612,-0.05657793581485748,-0.10953841358423233,-0.1194184422492981,0.044002026319503784,-0.0014979193219915032,-0.07765496522188187,0.21491879224777222,0.014574616216123104,-0.1696823686361313,-0.12113159894943237,-0.036823611706495285,-0.24356138706207275,-0.09631181508302689,0.13610784709453583,0.0060576447285711765,0.019443189725279808,0.12616048753261566,-0.14450131356716156,-0.18108804523944855,-0.027609728276729584,-0.08308500051498413,-0.11256257444620132,-0.0879424437880516,0.14858007431030273,-0.13135842978954315,0.038313474506139755,-0.12423226237297058,0.04999494552612305,0.1480579376220703,0.18584251403808594,0.06084290146827698,-0.08963549137115479,0.09627687931060791,0.224504753947258,0.09597887843847275,0.03521624952554703,0.06627640128135681,-0.047019343823194504,0.10022995620965958,0.2233014553785324,0.18211035430431366,0.10104749351739883,-0.06280562281608582,-0.1980091780424118,0.05282047018408775,0.1569671779870987,-0.20132677257061005,-0.028385048732161522,0.24341607093811035,0.3530377447605133,-0.02518501877784729,-0.20776037871837616,0.18770690262317657,-0.14884980022907257,0.031090201810002327,0.14870096743106842,-0.3051128387451172,0.0066981264390051365,0.02078036032617092,0.3525805175304413,0.01615332067012787,-0.1999281495809555,0.07159905880689621,0.13700059056282043,-0.19244633615016937,-0.09837047010660172,-0.2171926647424698,0.22882401943206787,-0.06844089180231094,0.04038031026721001,-0.17584554851055145,0.12969011068344116,-0.06575220078229904,0.14287300407886505,0.07537615299224854,0.17752699553966522,-0.09350327402353287,-0.15845882892608643,-0.14716137945652008,0.09690011292695999,0.17510317265987396,0.1618153601884842,0.041599173098802567,0.25406137108802795,0.08695870637893677,0.07795470207929611,0.025179890915751457,0.041493672877550125,-0.04352715238928795,0.19719946384429932,-0.07155901193618774,-0.1765560358762741,0.12285872548818588,-0.2519296705722809,0.04640199616551399,0.020124465227127075,-0.12571577727794647,0.057192038744688034,0.08519822359085083,0.05717434361577034,0.13493460416793823,0.015290345065295696,0.09146765619516373,-0.3218372166156769,0.020428726449608803,0.18840612471103668,0.028805755078792572,0.10632529109716415,0.37130793929100037,0.10357946157455444,0.1616009920835495,-0.09534168243408203,0.16864943504333496,0.1621398776769638,-0.18588435649871826,-0.04536496475338936,0.10333894938230515,0.017609164118766785,-0.19637612998485565,0.15668557584285736,-0.2771866023540497,0.06771362572908401,-0.045321524143218994,0.09612661600112915,-0.04134928807616234
NCT06356259,0.2219673991203308,-0.11364036798477173,-0.06339713931083679,0.061586350202560425,-0.179279625415802,-0.11388881504535675,-0.08876869082450867,-0.12555953860282898,0.0295732244849205,0.18618664145469666,-0.06506846845149994,-0.20643240213394165,-0.19943535327911377,0.13073773682117462,-0.4104689061641693,0.15983542799949646,-0.035591866821050644,-0.05896833539009094,-0.005597248673439026,0.18105489015579224,-0.06619825214147568,0.032067738473415375,-0.0560593381524086,0.10341809689998627,-0.17943808436393738,-0.010507091879844666,0.18156808614730835,-0.4407200515270233,-0.13500818610191345,-0.19329088926315308,-0.006234385073184967,0.04811376333236694,0.11317311227321625,0.10198774933815002,-0.10389354825019836,-0.0036647990345954895,0.1216312050819397,0.2824212908744812,0.23213882744312286,0.05593916401267052,-0.20801784098148346,0.1651633381843567,-0.04324118793010712,0.2769540846347809,0.16561025381088257,0.03537701815366745,0.03825165703892708,0.10593356192111969,0.21990612149238586,-0.37366747856140137,0.06745725125074387,-0.03811010718345642,0.21126466989517212,-0.16327905654907227,-0.036055706441402435,0.09885693341493607,-0.2915021777153015,-0.12301282584667206,0.14395874738693237,-0.1494113802909851,0.11803083121776581,0.15510940551757812,0.1560748964548111,0.16606751084327698,0.14060437679290771,0.07447128742933273,0.2910182476043701,-0.0964704304933548,-0.09220293164253235,0.1470174789428711,0.06677930057048798,-0.1522189974784851,0.04039325937628746,-0.02273675799369812,0.08943448215723038,0.24190013110637665,0.2658497989177704,0.2781076431274414,0.20852559804916382,-0.16858431696891785,-0.2683025896549225,0.035795338451862335,0.12881101667881012,0.029931016266345978,0.1755349338054657,-0.1310390830039978,0.19135284423828125,-0.02438434585928917,0.3320898711681366,0.07183611392974854,0.07950861752033234,-0.17295844852924347,-0.2130037099123001,-0.01653624325990677,-0.13531136512756348,0.056666456162929535,-0.26362738013267517,-0.1768982857465744,0.012374870479106903,-0.06275660544633865,-0.04357123374938965,0.16327349841594696,-0.15678448975086212,-0.07796301692724228,0.017182841897010803,-0.1299695521593094,-1.1447817087173462e-05,-0.1803116798400879,0.04189073666930199,-0.16602307558059692,-0.013302966952323914,0.1974031627178192,-0.013378795236349106,0.15634149312973022,-0.007766878232359886,0.30164092779159546,-0.08295071870088577,-0.009937789291143417,0.008217554539442062,-0.036739349365234375,-0.17110013961791992,-0.21868985891342163,0.09690054506063461,-0.1955612152814865,-0.07443036139011383,0.19000720977783203,0.18745815753936768,-0.21295711398124695
NCT06347666,0.03144938871264458,-0.16833651065826416,0.06866583973169327,-0.233596071600914,-0.06522297114133835,-0.03874068334698677,-0.11514399200677872,-0.09016067534685135,-0.2405800223350525,0.08939176052808762,-0.09851276874542236,-0.11387797445058823,-0.12740184366703033,0.064727783203125,-0.3690671920776367,0.10743048787117004,0.09546404331922531,0.1313544362783432,0.16797256469726562,0.10399758815765381,0.15057168900966644,0.11106780916452408,-0.03613051027059555,0.05828328803181648,-0.12711523473262787,-0.07866673916578293,0.049279168248176575,-0.22905533015727997,-0.10497366636991501,-0.0016740858554840088,0.06347756832838058,-0.014337546192109585,0.07663397490978241,-0.13110797107219696,-0.028896937146782875,0.06701374799013138,0.054219216108322144,0.11741691827774048,0.01615309715270996,-0.10943210870027542,0.041742097586393356,0.057537585496902466,0.07373541593551636,0.1448654681444168,-0.00024273991584777832,0.10836643725633621,-0.19662833213806152,-0.008832384832203388,0.03237574175000191,-0.3051914572715759,-0.08480290323495865,0.18410955369472504,0.23608769476413727,-0.11616189032793045,0.012167464010417461,0.26316165924072266,-0.18793146312236786,0.04270073398947716,0.14277540147304535,-0.020318010821938515,0.16874241828918457,0.08129431307315826,0.22821767628192902,0.1841350793838501,-0.17209495604038239,0.0806526243686676,0.21223624050617218,-0.34077179431915283,-0.21946947276592255,0.0847194716334343,-0.005858629941940308,-0.09643504023551941,0.049435004591941833,0.019210169091820717,-0.18825428187847137,0.15819500386714935,0.2624009847640991,0.15740351378917694,0.08919163793325424,-0.22666560113430023,-0.08715678006410599,-0.00010174015915254131,0.037506718188524246,0.13299499452114105,0.1934775561094284,-0.17431668937206268,0.08698144555091858,0.03174511715769768,0.14334562420845032,-0.04331791400909424,-0.021979019045829773,-0.08029625564813614,0.07041478157043457,-0.0021115143317729235,-0.05091234669089317,-0.1445477455854416,-0.24137155711650848,-0.21782135963439941,0.13412484526634216,0.018134044483304024,-0.04285204038023949,0.1083478033542633,-0.09251141548156738,-0.028000131249427795,0.06986954063177109,-0.08765266090631485,-0.11197299510240555,-0.20427270233631134,0.0035067598801106215,0.018917923793196678,0.11093337088823318,0.2860317528247833,0.0017407933482900262,0.13050375878810883,0.02054435946047306,0.3299420177936554,0.0114302858710289,-0.09646198153495789,0.128263458609581,-0.11489231139421463,0.0329962782561779,-0.10516425967216492,-0.17995087802410126,-0.041613753885030746,0.28004541993141174,0.3033323585987091,0.25850334763526917,-0.07377585768699646
NCT06314893,0.12258891761302948,-0.11728842556476593,-0.2039906084537506,-0.052128903567790985,-0.13176178932189941,-0.13343001902103424,-0.15891018509864807,-0.09440890699625015,-0.1322510689496994,0.07881499826908112,-0.06750921159982681,-0.3064657747745514,-0.0864865854382515,0.07860950380563736,-0.29134446382522583,-0.07436373829841614,-0.08504720777273178,0.007844790816307068,0.09781119227409363,0.18760713934898376,-0.08601455390453339,0.0036144331097602844,0.03792432323098183,-0.12799450755119324,-0.008414365351200104,-0.145618736743927,0.07055336982011795,-0.23978929221630096,-0.12281577289104462,-0.14370647072792053,0.046974264085292816,-0.11804820597171783,0.09136106073856354,0.0407559797167778,-0.22305844724178314,-0.060434505343437195,0.19035488367080688,0.05660141259431839,0.04098714143037796,0.053535379469394684,0.0009965412318706512,0.08442804962396622,0.010952301323413849,0.3577708303928375,0.09383944422006607,-0.015049934387207031,-0.11590394377708435,0.0256408229470253,0.13003729283809662,-0.32791510224342346,0.1472838968038559,0.2843667268753052,0.308454692363739,-0.036710210144519806,-0.13905996084213257,0.11587889492511749,-0.32344794273376465,-0.0038544535636901855,0.016123801469802856,-0.245644211769104,0.10824349522590637,0.07135012745857239,0.20802827179431915,0.030816949903964996,-0.0036815032362937927,0.08947807550430298,0.26117992401123047,-0.19404302537441254,0.15228065848350525,0.043431419879198074,0.06412972509860992,0.0629843920469284,0.000728345476090908,-0.07485900819301605,0.1067819744348526,0.12864096462726593,0.20151150226593018,0.1254165768623352,0.04132238030433655,-0.05976651608943939,-0.2653576135635376,-0.05361400544643402,0.3020780384540558,0.1506035029888153,0.23515276610851288,0.024204835295677185,0.12026473879814148,-0.0462305061519146,0.2174418568611145,-0.021517613902688026,0.10283088684082031,-0.22926533222198486,0.05278266221284866,0.16863685846328735,-0.05056418478488922,0.04124180227518082,-0.23079121112823486,-0.14835792779922485,0.007132638245820999,0.007274694740772247,-0.02206232026219368,0.09149034321308136,-0.06665681302547455,0.023041192442178726,-0.04140605032444,-0.07392232865095139,-0.1365329623222351,-0.044534530490636826,0.21647591888904572,-0.004145488142967224,0.014891542494297028,0.21553775668144226,0.05831149220466614,0.00725749135017395,0.21140241622924805,0.21640408039093018,-0.12911537289619446,-0.16067036986351013,-0.19430556893348694,-0.028790153563022614,0.06275755167007446,-0.23462817072868347,0.13826066255569458,-0.11372902989387512,0.1549931913614273,-0.03081972897052765,0.0567149743437767,-0.05017729103565216
NCT06313632,0.16054657101631165,-0.19853392243385315,-0.15167275071144104,0.03317079320549965,-0.04598221927881241,-0.003269381821155548,-0.1814032793045044,-0.08156545460224152,-0.12613901495933533,0.11057272553443909,-0.0651201605796814,0.034460678696632385,-0.03633560985326767,0.11185505986213684,-0.46560728549957275,0.15743784606456757,-0.11371413618326187,-0.08369556069374084,0.06904727220535278,0.24304986000061035,-0.1666378229856491,0.011300887912511826,-0.18458406627178192,-0.15858735144138336,-0.018737122416496277,-0.08623361587524414,0.08478544652462006,-0.26432645320892334,-0.11537331342697144,-0.07364803552627563,-0.14768770337104797,-0.07765614986419678,0.024723224341869354,0.07893825322389603,-0.28256934881210327,-0.27093687653541565,0.30604812502861023,0.223976731300354,-0.05574605613946915,-0.11333774775266647,0.00888613611459732,0.08098353445529938,0.04098231717944145,0.056067947298288345,0.16075721383094788,-0.15211547911167145,-0.0018539279699325562,0.06084807962179184,0.24835066497325897,-0.20164722204208374,0.15586364269256592,-0.02910953015089035,0.23220983147621155,-0.20851927995681763,-0.11540482193231583,0.03395834192633629,-0.18892738223075867,-0.09325207024812698,0.13639849424362183,-0.23861326277256012,0.3267013430595398,0.13143840432167053,0.18692134320735931,0.14432330429553986,0.0004631113260984421,0.0395997054874897,0.3096237778663635,-0.1665371060371399,-0.022814838215708733,0.0012423228472471237,0.005827154964208603,0.025220703333616257,0.0421595424413681,-0.15371792018413544,0.020969169214367867,0.04612529277801514,0.16388452053070068,0.14277639985084534,-0.12014635652303696,-0.1019473671913147,-0.19582834839820862,0.20979750156402588,0.2082063853740692,0.11829329282045364,0.00553082674741745,-0.055549755692481995,-0.17213208973407745,-0.007596500217914581,0.18802744150161743,-0.11404213309288025,0.24269770085811615,-0.2936755418777466,0.11149895191192627,0.030452078208327293,-0.23003160953521729,0.08010587096214294,-0.10891599953174591,0.034179456532001495,0.18785078823566437,-0.081192746758461,0.07628047466278076,0.06598660349845886,-0.05408409237861633,-0.19419582188129425,-0.10988311469554901,-0.25269708037376404,-0.10001564025878906,-0.03284820169210434,0.3119570314884186,0.02837526798248291,0.11977210640907288,0.1662009060382843,0.06439057737588882,-0.040019623935222626,0.1002282127737999,0.12724724411964417,-0.06329981982707977,-0.023673441261053085,-0.0011619869619607925,-0.005495194345712662,-0.06417235732078552,-0.24007409811019897,0.116019606590271,-0.03167949989438057,0.2018970251083374,0.029322810471057892,0.0981295257806778,0.09809522330760956
NCT06302140,0.13473954796791077,-0.09592755138874054,0.10860399156808853,0.015457803383469582,-0.2096908837556839,-0.09281346946954727,-0.07545474171638489,-0.10371426492929459,-0.05217347294092178,0.352510929107666,-0.127628356218338,-0.1268785297870636,-0.19804516434669495,0.029613947495818138,-0.2846554219722748,0.16559407114982605,-0.08040185272693634,-0.03840598836541176,-0.1331755816936493,0.19597165286540985,-0.19270475208759308,-0.1807185709476471,0.14904728531837463,0.02829158306121826,-0.21225281059741974,-0.11842711269855499,0.13121508061885834,-0.44592708349227905,-0.08007632195949554,-0.04439905285835266,-0.0777721256017685,0.031111743301153183,0.11502989381551743,0.12279657274484634,-0.09120501577854156,-0.13554765284061432,0.20832650363445282,0.1898801177740097,0.14988386631011963,0.04674448445439339,-0.1404297798871994,0.09544192254543304,0.05334451049566269,0.2776704430580139,0.21999196708202362,-0.14189574122428894,-0.033326901495456696,0.05142570286989212,0.21486440300941467,-0.1826000213623047,-0.06497038900852203,-0.01933339238166809,0.18913152813911438,-0.12705710530281067,-0.07788202911615372,0.20267724990844727,-0.21440115571022034,-0.09670226275920868,0.26874232292175293,-0.25671470165252686,0.17607806622982025,0.11557601392269135,0.19622789323329926,0.08167241513729095,0.07157664000988007,0.12209798395633698,0.26330918073654175,-0.0474894680082798,-0.2078079879283905,-0.02974235638976097,0.04556786268949509,-0.13534489274024963,0.0983675941824913,-0.16628900170326233,0.10644163936376572,0.219160795211792,0.1629362255334854,0.15311947464942932,0.20839330554008484,-0.2980557680130005,-0.25449949502944946,0.037020329385995865,0.06424171477556229,0.04189717769622803,0.13384723663330078,-0.04465200752019882,0.09163647145032883,0.22333991527557373,0.25669965147972107,0.02824997901916504,0.07498864829540253,-0.023104866966605186,-0.01410007942467928,-0.015246577560901642,-0.10538439452648163,0.1171792522072792,-0.14479689300060272,0.003511798335239291,0.215818852186203,-0.09650357067584991,-0.08704515546560287,0.15360036492347717,-0.14773230254650116,-0.12204609811306,0.008334497921168804,-0.05428216606378555,-0.20251700282096863,0.004417791962623596,0.1962994635105133,-0.0199679397046566,-0.0291975736618042,0.3006369173526764,-0.02328331582248211,0.1427614390850067,-0.10113857686519623,0.24952325224876404,-0.03648274391889572,-0.02933327853679657,0.003626081394031644,-0.03952993080019951,-0.1602318286895752,-0.15018722414970398,0.09816210716962814,-0.33996719121932983,0.005743390414863825,0.15172645449638367,0.18227335810661316,-0.06445297598838806
NCT06298487,0.10799060016870499,-0.1544124186038971,0.06486696749925613,-0.10230621695518494,-0.14923052489757538,-0.20394082367420197,-0.2092314213514328,-0.01791064441204071,-0.24603457748889923,0.09503340721130371,0.0012980321189388633,-0.08331973105669022,0.027225635945796967,0.09588100761175156,-0.370201975107193,0.040923405438661575,0.09696736186742783,0.04054470732808113,0.1380501538515091,0.1624177098274231,-0.11028969287872314,0.0710470899939537,-0.30606570839881897,-0.06606516987085342,-0.030851170420646667,-0.09891960024833679,0.11794271320104599,-0.06592461466789246,-0.043439675122499466,-0.11440432071685791,-0.08135191351175308,-0.14368455111980438,0.09207135438919067,0.0554640106856823,-0.10734683275222778,-0.08077315986156464,0.22447074949741364,0.21558313071727753,-0.11893782019615173,-0.053017694503068924,-0.025915229693055153,0.17175932228565216,0.18468856811523438,0.13833795487880707,0.07169768959283829,-0.1232411190867424,-0.29849061369895935,-0.008616115897893906,-0.01259439904242754,-0.23754946887493134,-0.024169921875,0.2353331595659256,0.48624011874198914,-0.05894065275788307,-0.2083272933959961,0.13701727986335754,-0.13264082372188568,-0.045915547758340836,0.16174757480621338,-0.19679468870162964,0.24831990897655487,0.1920429915189743,0.1326400637626648,0.27561241388320923,-0.17754030227661133,0.10611248761415482,0.15624763071537018,-0.219403937458992,-0.20126594603061676,-0.05618131160736084,0.040471117943525314,0.06360547989606857,-0.07910709828138351,-0.09147569537162781,-0.023622015491127968,0.18017657101154327,0.24528582394123077,0.10767767578363419,0.025223972275853157,-0.21206913888454437,-0.16704721748828888,-0.024300798773765564,0.14901526272296906,0.10140228271484375,0.02804987132549286,-0.04838109016418457,0.17673088610172272,-0.20634989440441132,0.2573382556438446,0.03797757253050804,0.14788655936717987,-0.3111424744129181,0.211578369140625,0.016134226694703102,-0.23391610383987427,-0.01493035163730383,-0.216000497341156,-0.041260961443185806,0.1727656126022339,-0.13969767093658447,-0.010213606990873814,0.04595242068171501,0.19703666865825653,-0.15707437694072723,-0.02433200739324093,-0.027547568082809448,-0.32543811202049255,-0.17026658356189728,0.206136092543602,0.009715888649225235,0.16719160974025726,0.1926642805337906,0.07676088809967041,0.004723306745290756,0.1318051815032959,0.16388241946697235,0.10904881358146667,-0.2732609808444977,0.05366663262248039,0.09200382232666016,0.0010092681040987372,-0.4232257902622223,0.17437779903411865,-0.028657739982008934,0.2698701322078705,0.19640880823135376,0.2379494309425354,-0.020851612091064453
NCT06295354,0.24418485164642334,-0.12260810285806656,0.10394468158483505,-0.12018847465515137,-0.23963695764541626,-0.1080610454082489,-0.1371237337589264,-0.06684647500514984,0.00024312238383572549,0.20192664861679077,-0.08368424326181412,-0.18868911266326904,-0.01663970947265625,0.1247430071234703,-0.09726178646087646,0.06806602329015732,0.08310801535844803,0.1422576606273651,-0.046746283769607544,0.19673983752727509,0.0688711479306221,0.016417359933257103,0.045100510120391846,0.05444563552737236,-0.08713219314813614,-0.14834143221378326,0.05255653336644173,-0.3418865501880646,-0.05272071063518524,-0.12819717824459076,0.06399301439523697,-0.08623635023832321,0.2314658761024475,0.036490023136138916,0.05547604337334633,-0.022716818377375603,0.004176137503236532,0.17240841686725616,0.18790791928768158,-0.09303543716669083,-0.10026136040687561,0.1077955886721611,0.14743874967098236,0.31734874844551086,0.04167218878865242,-0.02777239680290222,-0.0599929578602314,0.06232408061623573,0.0667322650551796,-0.24110360443592072,-0.08483501523733139,0.25567886233329773,0.4737584888935089,0.12508796155452728,-0.20292973518371582,0.3187432587146759,-0.25446322560310364,0.08505205065011978,0.1932663470506668,-0.16059982776641846,0.11374682933092117,0.10424327105283737,0.20259152352809906,0.12506572902202606,-0.0603104867041111,0.07787545025348663,0.1936069279909134,-0.28801223635673523,-0.0032795544248074293,0.011935462243855,0.09938281774520874,0.05819516256451607,-0.0621408075094223,-0.06262051314115524,0.03130718693137169,0.35052597522735596,0.20683515071868896,0.23939485847949982,0.3184337913990021,-0.10736483335494995,-0.2652758061885834,-0.20698392391204834,0.14246685802936554,0.07631927728652954,0.1512649953365326,0.002693474292755127,0.3563005030155182,-0.08471084386110306,0.31935808062553406,0.07429911941289902,0.031333163380622864,0.016352558508515358,-0.05286172032356262,-0.08334734290838242,-0.16172082722187042,0.02371838688850403,-0.25795069336891174,-0.17492471635341644,0.08126918971538544,0.0955887958407402,-0.0668378546833992,0.23169995844364166,0.031071612611413002,0.03358203545212746,-0.014147922396659851,0.010608546435832977,-0.19568903744220734,-0.06230994686484337,0.050411805510520935,-0.004132082220166922,0.049602460116147995,0.2572256326675415,0.006175920367240906,0.23330092430114746,-0.08660749346017838,0.29352375864982605,-0.18623130023479462,-0.33048689365386963,-0.08484083414077759,-0.11085060983896255,-0.016654765233397484,-0.25492215156555176,0.04404037073254585,-0.2475328892469406,0.046761270612478256,0.18302299082279205,0.1271962970495224,-0.26337021589279175
NCT06285097,0.18279585242271423,-0.04824560135602951,0.07171525806188583,0.010956021025776863,-0.1847206950187683,-0.11458813399076462,-0.10195057094097137,-0.03455180674791336,-0.08175604045391083,0.11511300504207611,-0.14095237851142883,-0.13566787540912628,-0.1983751803636551,0.03565208241343498,-0.3377479612827301,0.08198782056570053,0.025312190875411034,-0.0918998271226883,-0.12375505268573761,0.26001831889152527,-0.04203962907195091,-0.02127716690301895,0.0655091255903244,0.08612922579050064,-0.16975128650665283,0.012096153572201729,0.0994115099310875,-0.26525014638900757,-0.1094159260392189,-0.1692086011171341,-0.09376659989356995,0.08043144643306732,0.19768302142620087,0.043013304471969604,-0.02216951549053192,-0.06709697842597961,0.1301189363002777,0.11840376257896423,0.2885134518146515,0.07134536653757095,-0.13514024019241333,0.17629310488700867,0.04626370221376419,0.28514164686203003,0.0923699289560318,0.010232636705040932,-0.04710179567337036,0.00404228363186121,0.1895851045846939,-0.2600029706954956,-0.08188552409410477,-0.0974227637052536,0.27541011571884155,-0.15516884624958038,-0.06433747708797455,0.12488938868045807,-0.17473407089710236,-0.10935044288635254,0.21860429644584656,-0.23783929646015167,0.1571136713027954,0.07981929183006287,0.10590779781341553,0.05842023715376854,0.10547855496406555,0.2040950506925583,0.17015890777111053,-0.1413441151380539,-0.1582198143005371,0.06482643634080887,0.11194071173667908,-0.13317786157131195,0.1426742970943451,-0.08830199390649796,0.059839412569999695,0.24635812640190125,0.12997686862945557,0.12319495528936386,0.21993325650691986,-0.1702924519777298,-0.2605249881744385,0.07928725332021713,0.07479508221149445,0.00012911902740597725,0.030492573976516724,-0.06246042996644974,0.2202620804309845,0.08033302426338196,0.19664502143859863,-0.0900193303823471,-0.06898708641529083,-0.15191343426704407,-0.13035033643245697,0.046040359884500504,-0.1343730390071869,0.09780046343803406,-0.25023582577705383,-0.09424521028995514,0.09433408826589584,-0.09126845002174377,-0.09909078478813171,0.18459858000278473,-0.05068303644657135,-0.058547697961330414,-0.05064108967781067,-0.038592301309108734,-0.13635914027690887,-0.026466846466064453,0.09390296041965485,-0.018609672784805298,0.0696806013584137,0.2396964132785797,-0.058614399284124374,0.11333569139242172,-0.06419789046049118,0.25019940733909607,-0.11408727616071701,-0.12298969179391861,0.0002884902060031891,0.004748228937387466,-0.1298646777868271,-0.1447431445121765,-0.010328460484743118,-0.16748230159282684,0.08833621442317963,0.23261234164237976,0.1817769855260849,-0.22023911774158478
NCT06282614,0.3205397427082062,-0.03395947068929672,0.10136095434427261,0.1362961381673813,-0.4047130346298218,-0.0890638455748558,0.04735766723752022,-0.025683365762233734,-0.130305215716362,0.1681530922651291,-0.033982038497924805,-0.09201648086309433,-0.17717678844928741,0.244997039437294,-0.43229398131370544,0.18581555783748627,-0.018113834783434868,0.08545180410146713,0.05380615219473839,0.30456849932670593,-0.15719039738178253,-0.08011476695537567,-0.013980877585709095,0.030017761513590813,-0.02931397594511509,-0.026257948949933052,0.04051058366894722,-0.2234899401664734,-0.08333531767129898,-0.08108258992433548,0.11629868298768997,-0.0018983656773343682,0.05137499049305916,-0.15795908868312836,-0.12768393754959106,0.011516115628182888,0.2657848596572876,0.25433799624443054,0.019266018643975258,-0.060793984681367874,-0.07694064825773239,0.05419059470295906,-0.008326108567416668,0.1569458544254303,6.955116987228394e-05,-0.10198283195495605,0.08329980075359344,-0.11990698426961899,0.17363958060741425,-0.3581003248691559,0.19680912792682648,0.055854350328445435,0.2267616242170334,-0.22698651254177094,0.10748680680990219,0.28485107421875,-0.2745676338672638,0.11027099937200546,0.02400984615087509,-0.2720048427581787,0.08241472393274307,-0.010733564384281635,0.16263262927532196,0.2582252323627472,-0.03450366109609604,0.10929393768310547,0.3060157299041748,-0.27441132068634033,0.05410195514559746,0.09771859645843506,0.07498497515916824,-0.12976239621639252,-0.05530979856848717,-0.10424154251813889,-0.12369152158498764,0.13502106070518494,0.25343558192253113,0.14788508415222168,0.10708725452423096,-0.03990056365728378,-0.3468279540538788,0.07619494944810867,0.14451880753040314,0.17749468982219696,-0.09479958564043045,0.06706830114126205,-0.061876099556684494,0.002070831134915352,0.2385668158531189,-0.08652079850435257,0.21327264606952667,-0.2222735732793808,0.15444892644882202,-0.09340710192918777,-0.1383485645055771,0.03267475590109825,-0.276341050863266,-0.15855161845684052,0.12439175695180893,0.1574493795633316,-0.0506620854139328,0.2459288090467453,0.044995516538619995,-0.24406586587429047,-0.04742058739066124,0.059295330196619034,-0.09507299214601517,0.021570339798927307,0.3895958960056305,0.05945281311869621,0.04911535978317261,0.4096197187900543,-0.06156422570347786,0.09159655123949051,0.2331714630126953,0.3837874233722687,-0.11597583442926407,-0.25118401646614075,0.03638388216495514,-0.03797062858939171,-0.09485501050949097,-0.1625169813632965,0.037690069526433945,-0.057127829641103745,0.334492951631546,0.10347948223352432,0.17177456617355347,0.1769123524427414
NCT06281106,0.1862276792526245,0.1416429579257965,0.1748732030391693,0.11848768591880798,-0.2799014747142792,-0.11790004372596741,-0.2549740970134735,0.038694337010383606,-0.17187310755252838,0.1491648107767105,-0.19391174614429474,0.12051026523113251,-0.0006564278155565262,0.23431958258152008,-0.23776458203792572,0.014616936445236206,0.1202404722571373,-0.04174158349633217,-0.23523002862930298,0.23752829432487488,-0.18445701897144318,0.03585360571742058,-0.09962716698646545,-0.09534143656492233,-0.020186299458146095,-0.003233928233385086,0.23122745752334595,-0.1602763682603836,-0.16093412041664124,-0.08226870745420456,0.04289386793971062,-0.1187930703163147,0.26328983902931213,0.00010885298252105713,0.08484719693660736,0.020071353763341904,0.1173582449555397,0.22446466982364655,0.010543376207351685,-0.11673146486282349,-0.05171896144747734,0.3395479917526245,0.11266825348138809,0.14022737741470337,0.09937630593776703,-0.06332939118146896,-0.17378532886505127,0.07410884648561478,0.029628178104758263,-0.3313555121421814,0.04168073460459709,-0.025339927524328232,0.19162720441818237,-0.043707385659217834,0.044456399977207184,0.05894404649734497,-0.13575945794582367,-0.1547188013792038,-0.00470675528049469,-0.2500057518482208,0.2644513249397278,0.06031457334756851,0.035740457475185394,0.2116095870733261,0.10722038149833679,0.1449868381023407,0.11122722923755646,-0.15418699383735657,-0.15794925391674042,0.19507825374603271,0.05160143971443176,-0.020338986068964005,0.017584610730409622,-0.1223941296339035,-0.035467080771923065,0.3519989252090454,0.2165810465812683,0.1743013560771942,0.11950046569108963,-0.07573114335536957,-0.15280500054359436,0.0004659108817577362,-0.08588770031929016,-0.004888031631708145,-0.3985627293586731,-0.05097837373614311,0.21454958617687225,-0.20387953519821167,0.23051035404205322,0.008894778788089752,0.2547062039375305,-0.3045470118522644,-0.034232329577207565,0.07258441299200058,-0.41622960567474365,-0.1254757046699524,-0.21753652393817902,-0.12749600410461426,0.07041770219802856,-0.0841171145439148,-0.164320170879364,0.06400249898433685,0.14418654143810272,-0.29051774740219116,-0.09765759110450745,-0.10531389713287354,-0.06730800867080688,-0.016628572717308998,0.024749454110860825,-0.022214427590370178,0.0066837128251791,0.2882997393608093,0.012836650013923645,-0.007901009172201157,-0.06547997891902924,0.28699126839637756,-0.16217386722564697,-0.2567571997642517,-0.03868161886930466,-0.19134646654129028,-0.25293654203414917,-0.2518123984336853,-0.03505883738398552,-0.009336385875940323,0.2703496813774109,0.33370935916900635,0.1047467365860939,0.0971188098192215
NCT06263114,0.15011760592460632,-0.005181934684514999,0.24245496094226837,-0.01300453394651413,0.06695251911878586,-0.17235183715820312,0.0008100606501102448,0.04561895504593849,-0.1450623869895935,0.23856352269649506,-0.08910723775625229,0.06697270274162292,-0.046554986387491226,-0.11819183826446533,-0.3487100601196289,0.39468035101890564,0.10281401872634888,-0.13709653913974762,-0.046569086611270905,-0.1151948869228363,-0.11238282918930054,-0.30818602442741394,-0.01313362829387188,0.1824905276298523,0.09496985375881195,0.13609904050827026,0.08134464919567108,-0.04013100266456604,-0.16213348507881165,-0.08900494128465652,0.3032205104827881,0.025865888223052025,0.04535490646958351,0.18412888050079346,0.03477011248469353,-0.17062482237815857,0.3393373489379883,0.1495930701494217,0.07285813987255096,-0.08695688843727112,-0.22546911239624023,-0.010757554322481155,0.1252722591161728,0.2926168143749237,0.1705281287431717,0.03439732640981674,0.12687647342681885,0.1277685910463333,0.04428471252322197,-0.07205568253993988,-0.05569073557853699,-0.051033198833465576,0.1126135066151619,0.04672130197286606,0.07031960785388947,0.34428292512893677,-0.3412245213985443,-0.06844907999038696,-0.16603398323059082,-0.19367726147174835,-0.037123896181583405,0.1788649559020996,-0.009976217523217201,0.05145646259188652,-0.005264148116111755,0.12775202095508575,0.2727062404155731,-0.11245891451835632,-0.1059720441699028,-0.2631033658981323,0.15364842116832733,-0.0017024576663970947,-0.11235877871513367,-0.11978442221879959,0.26324617862701416,0.21482883393764496,0.11393945664167404,-0.03193341940641403,0.35131406784057617,-0.06116507574915886,-0.2920893430709839,-0.15989191830158234,0.28557851910591125,-0.111043781042099,-0.1023937314748764,-0.08896072208881378,0.1639258712530136,0.006942581385374069,0.0076742637902498245,0.09536702185869217,-0.0393388532102108,-0.07169342041015625,-0.08065443485975266,-0.15614959597587585,-0.17861251533031464,-0.22897034883499146,-0.30201950669288635,-0.03404846042394638,0.015500400215387344,-0.19924288988113403,0.04716974124312401,0.2718087434768677,0.10814398527145386,-0.08177098631858826,0.15279953181743622,-0.44845446944236755,-0.37987393140792847,-0.11361946165561676,0.32845282554626465,0.264441579580307,0.01713203452527523,0.3095683157444,0.14284226298332214,0.26683685183525085,-0.24414679408073425,0.17179208993911743,-0.2236412912607193,-0.18556153774261475,-0.15375925600528717,-0.12813936173915863,-0.17076095938682556,-0.15985754132270813,0.13670134544372559,-0.3005613684654236,0.013997819274663925,0.08448301255702972,0.06051035225391388,-0.00037380680441856384
